svm_type c_svc
kernel_type rbf
gamma 1.04538e-07
nr_class 26
total_sv 883
rho 0.768247 0.454823 0.618456 0.445069 0.720354 0.918207 0.786386 0.897067 0.308723 0.789648 0.679514 0.429249 0.629797 0.565829 0.470185 0.772287 0.482845 0.695518 0.689825 0.720882 0.88898 0.910157 0.418802 0.861509 0.754308 -0.102204 -0.404695 -0.163152 0.144377 -0.130238 -0.224921 -0.522523 -0.32855 0.233253 0.454594 -0.337053 0.271822 -0.242995 -0.350457 0.018756 -0.0718533 0.118235 -0.170092 0.192834 0.0326502 0.140401 -0.22317 0.685675 0.237201 -0.0858771 0.00552529 0.199563 0.00862529 0.150397 -0.233078 -0.157699 0.50391 0.44078 -0.27919 0.340625 -0.214107 -0.159059 0.149285 -0.0596594 0.347105 0.08472 0.461219 0.242529 0.404262 0.0840051 0.510103 0.308788 0.00512486 0.760737 0.320392 0.485404 -0.310576 0.0225784 0.393074 0.640511 0.0624801 0.285355 0.0984103 0.081109 0.378309 0.0653933 0.402063 0.095942 0.29476 0.314241 0.491613 0.100455 0.749798 0.519167 0.402657 0.195853 0.16189 -0.459407 -0.0681106 0.780296 0.7264 -0.332484 0.417041 -0.0836561 -0.0979548 0.302207 -0.0564642 0.459782 -0.0316491 0.596336 0.20526 0.415314 0.147894 0.593124 0.403414 -0.255366 -0.176973 -0.525975 -0.582583 0.142791 0.132006 -0.502094 0.0316885 -0.25453 -0.520523 0.0791354 -0.214847 0.260399 -0.354046 0.212805 -0.14766 0.184801 -0.204823 0.62068 0.123817 0.0286852 -0.440608 -0.0795474 0.376228 0.408395 -0.162946 0.223854 -0.0365821 -0.102208 0.272629 0.0285425 0.253671 -0.0630787 0.372095 0.252899 0.40372 -0.53177 0.426432 0.347399 -0.475468 -0.295975 0.307253 0.174099 -0.306286 0.133509 -0.388732 -0.319478 0.236763 -0.0504627 0.168281 -0.125937 0.291865 0.0474045 0.376899 -0.411477 0.435777 0.252572 0.246379 0.681416 0.665618 0.240853 0.478399 -0.181799 0.278854 0.613703 0.382254 0.512406 0.549648 0.48645 0.330771 0.870739 0.415185 0.748398 0.781444 0.746914 0.571092 0.0732719 0.488517 0.0631947 0.113047 0.522245 0.239922 0.684571 0.189571 0.581492 0.682081 0.670592 0.0837179 0.716034 0.638066 -0.00822801 -0.686483 -0.327537 -0.39345 -0.457264 -0.381117 -0.953699 -0.0756258 -0.496392 -0.0890588 -0.241453 -0.0269218 -0.354411 0.186626 -0.106203 -0.628499 -0.258076 -0.393431 -0.40391 -0.247332 -0.612082 0.030001 -0.559236 -0.158963 -0.202911 0.0482091 -0.418411 0.260225 -0.0956126 0.417289 -0.00163251 0.00165528 0.926036 0.516053 0.644173 0.2008 0.524115 0.302988 0.653178 0.166394 0.656078 0.58765 -0.401896 -0.344557 -0.0613067 -0.335282 0.1493 -0.128786 0.0641364 -0.199248 0.457852 -0.316221 0.292981 0.112381 -0.131457 0.415934 0.173253 0.261651 0.158696 0.42695 0.3041 0.451931 -0.061144 0.546128 0.487169 0.453905 0.116574 0.300384 0.164872 0.340016 0.284995 0.424168 -0.011695 0.627929 0.320077 -0.552265 0.22756 -0.527641 0.0169916 -0.131408 0.19909 -0.146675 0.327455 0.109917 0.424556 0.0325702 0.313816 0.158982 0.367843 0.0374339 0.566646 0.214372 -0.277823 -0.0663334 -0.409601 0.0452802 -0.346175 0.270699 0.00406163 0.137774 0.130388 0.408664 -0.0749177 0.475512 0.206843 -0.152007 0.0280326 -0.581395 0.226295 -0.0209307 0.540619 -0.243756 0.473646 0.196399 -0.528871 0.192346 -0.134495 0.534745 0.730842 -0.20347
label 9 16 17 6 21 5 25 24 10 12 4 2 3 8 20 26 7 15 11 19 14 1 23 22 18 13
nr_sv 25 27 28 40 40 33 27 33 30 29 38 28 30 39 29 25 44 37 36 36 41 31 34 40 45 38
SV
0 0.3461144201658464 1.147351767768031 0.2006418946665983 0 0.6358154416357127 0 0 0 0 0 0.6244048112238958 0 2.180324202026837 1.147114682427196 0 0.3958597403156729 0.1166120143185273 0 0.02221129685176101 0 0 0.2792230365891706 0 0 1:0 2:0 3:0 4:0 5:0 6:0 7:0 8:0 9:0 10:0 11:0 12:0 13:0 14:0 15:0 16:0 17:0 18:0 19:0 20:0 21:0 22:0 23:0 24:0 25:0 26:0 27:0 28:0 29:0 30:0 31:0 32:0 33:0 34:0 35:0 36:0 37:0 38:0 39:41 40:41 41:0 42:0 43:0 44:0 45:0 46:0 47:0 48:0 49:0 50:0 51:0 52:0 53:0 54:0 55:0 56:0 57:0 58:0 59:197 60:191 61:0 62:0 63:0 64:0 65:0 66:0 67:0 68:0 69:0 70:0 71:0 72:0 73:0 74:0 75:0 76:0 77:0 78:0 79:196 80:196 81:0 82:0 83:2 84:0 85:0 86:0 87:0 88:0 89:0 90:0 91:0 92:0 93:0 94:0 95:0 96:0 97:0 98:0 99:192 100:192 101:67 102:66 103:0 104:0 105:0 106:0 107:0 108:0 109:0 110:0 111:0 112:0 113:0 114:0 115:0 116:0 117:0 118:0 119:192 120:192 121:189 122:186 123:0 124:0 125:0 126:0 127:0 128:0 129:0 130:0 131:0 132:0 133:0 134:0 135:0 136:0 137:0 138:0 139:191 140:192 141:201 142:190 143:0 144:0 145:0 146:0 147:0 148:0 149:0 150:0 151:0 152:0 153:0 154:6 155:14 156:19 157:36 158:77 159:227 160:192 161:200 162:190 163:0 164:0 165:0 166:0 167:0 168:0 169:0 170:12 171:30 172:50 173:80 174:142 175:202 176:249 177:255 178:242 179:255 180:192 181:200 182:187 183:0 184:0 185:0 186:15 187:49 188:90 189:133 190:183 191:233 192:255 193:255 194:218 195:174 196:127 197:77 198:0 199:194 200:192 201:200 202:204 203:47 204:126 205:172 206:213 207:255 208:255 209:236 210:186 211:136 212:94 213:56 214:19 215:0 216:0 217:0 218:0 219:191 220:192 221:200 222:255 223:255 224:255 225:209 226:152 227:90 228:54 229:32 230:13 231:0 232:0 233:0 234:0 235:0 236:0 237:0 238:0 239:192 240:192 241:200 242:211 243:22 244:18 245:14 246:7 247:0 248:0 249:0 250:0 251:0 252:0 253:0 254:0 255:0 256:0 257:0 258:0 259:193 260:193 261:200 262:191 263:0 264:0 265:0 266:0 267:0 268:0 269:0 270:0 271:0 272:0 273:0 274:0 275:0 276:0 277:0 278:0 279:181 280:171 281:200 282:191 283:0 284:0 285:0 286:0 287:0 288:0 289:0 290:0 291:0 292:0 293:0 294:0 295:0 296:0 297:0 298:0 299:40 300:29 301:200 302:191 303:0 304:0 305:0 306:0 307:0 308:0 309:0 310:0 311:0 312:0 313:0 314:0 315:0 316:0 317:0 318:2 319:0 320:0 321:208 322:198 323:0 324:0 325:0 326:0 327:0 328:0 329:0 330:0 331:0 332:0 333:0 334:0 335:0 336:0 337:0 338:0 339:0 340:0 341:178 342:174 343:0 344:0 345:0 346:0 347:0 348:0 349:0 350:0 351:0 352:0 353:0 354:0 355:0 356:0 357:0 358:0 359:0 360:0 361:24 362:21 363:0 364:0 365:0 366:0 367:0 368:0 369:0 370:0 371:0 372:0 373:0 374:0 375:0 376:0 377:0 378:0 379:0 380:0 381:0 382:0 383:0 384:0 385:0 386:0 387:0 388:0 389:0 390:0 391:0 392:0 393:0 394:0 395:0 396:0 397:0 398:0 399:0 400:0 
0 0 0.338493056010498 0 0.180463508465046 1.03951959910849 2.319588882472642 1.226997855622149 0 0 0.09001902795456844 0 0 0.6748824664529141 0 0 0 0.8767398221837821 0.1894737745481608 0 1.23458993733282 0.4485072703517511 0.6219693424847853 1.398027567668237 0 1:0 2:0 3:0 4:0 5:0 6:0 7:0 8:0 9:0 10:0 11:0 12:0 13:0 14:0 15:0 16:0 17:0 18:0 19:0 20:0 21:0 22:0 23:0 24:0 25:0 26:0 27:0 28:0 29:0 30:0 31:0 32:0 33:0 34:0 35:0 36:0 37:0 38:0 39:0 40:0 41:0 42:0 43:0 44:0 45:0 46:0 47:0 48:0 49:0 50:0 51:0 52:0 53:0 54:0 55:0 56:0 57:0 58:0 59:0 60:0 61:0 62:0 63:0 64:0 65:0 66:0 67:0 68:0 69:0 70:0 71:0 72:0 73:0 74:0 75:0 76:0 77:0 78:0 79:0 80:0 81:0 82:0 83:0 84:0 85:0 86:0 87:0 88:0 89:0 90:0 91:0 92:0 93:0 94:0 95:0 96:0 97:0 98:0 99:0 100:0 101:155 102:164 103:3 104:0 105:0 106:0 107:0 108:0 109:0 110:0 111:0 112:0 113:0 114:0 115:0 116:0 117:0 118:0 119:155 120:168 121:171 122:189 123:3 124:0 125:0 126:0 127:0 128:0 129:0 130:0 131:0 132:0 133:0 134:0 135:0 136:0 137:0 138:0 139:179 140:187 141:160 142:183 143:0 144:0 145:0 146:0 147:0 148:0 149:0 150:0 151:0 152:0 153:0 154:0 155:0 156:0 157:0 158:0 159:172 160:176 161:153 162:255 163:255 164:255 165:255 166:255 167:255 168:255 169:255 170:255 171:255 172:255 173:255 174:255 175:255 176:255 177:255 178:255 179:255 180:169 181:147 182:255 183:255 184:255 185:255 186:255 187:255 188:255 189:255 190:255 191:255 192:255 193:255 194:255 195:255 196:255 197:255 198:255 199:255 200:163 201:147 202:255 203:255 204:255 205:255 206:255 207:255 208:255 209:255 210:255 211:255 212:255 213:255 214:255 215:255 216:255 217:255 218:255 219:255 220:163 221:153 222:255 223:255 224:255 225:255 226:255 227:255 228:255 229:255 230:255 231:255 232:255 233:255 234:255 235:255 236:255 237:255 238:255 239:255 240:169 241:160 242:183 243:0 244:0 245:0 246:0 247:0 248:0 249:0 250:0 251:0 252:0 253:0 254:0 255:0 256:0 257:0 258:0 259:172 260:176 261:171 262:190 263:3 264:0 265:0 266:0 267:0 268:0 269:0 270:0 271:0 272:0 273:0 274:0 275:0 276:0 277:0 278:0 279:179 280:188 281:152 282:162 283:3 284:0 285:0 286:0 287:0 288:0 289:0 290:0 291:0 292:0 293:0 294:0 295:0 296:0 297:0 298:0 299:153 300:166 301:0 302:0 303:0 304:0 305:0 306:0 307:0 308:0 309:0 310:0 311:0 312:0 313:0 314:0 315:0 316:0 317:0 318:0 319:0 320:0 321:0 322:0 323:0 324:0 325:0 326:0 327:0 328:0 329:0 330:0 331:0 332:0 333:0 334:0 335:0 336:0 337:0 338:0 339:0 340:0 341:0 342:0 343:0 344:0 345:0 346:0 347:0 348:0 349:0 350:0 351:0 352:0 353:0 354:0 355:0 356:0 357:0 358:0 359:0 360:0 361:0 362:0 363:0 364:0 365:0 366:0 367:0 368:0 369:0 370:0 371:0 372:0 373:0 374:0 375:0 376:0 377:0 378:0 379:0 380:0 381:0 382:0 383:0 384:0 385:0 386:0 387:0 388:0 389:0 390:0 391:0 392:0 393:0 394:0 395:0 396:0 397:0 398:0 399:0 400:0 
0 0 0 0 0 0 0 18.40339826365032 0 0 0 0 0 0 0 0 0 0 0 0 0 0 0 0 0 1:0 2:0 3:0 4:0 5:0 6:0 7:0 8:0 9:0 10:0 11:0 12:0 13:0 14:0 15:0 16:0 17:0 18:0 19:0 20:0 21:0 22:0 23:0 24:0 25:0 26:0 27:0 28:0 29:0 30:0 31:0 32:0 33:0 34:0 35:0 36:0 37:0 38:0 39:0 40:0 41:0 42:0 43:0 44:0 45:0 46:0 47:0 48:0 49:0 50:0 51:0 52:0 53:0 54:0 55:0 56:0 57:0 58:0 59:0 60:0 61:0 62:0 63:0 64:0 65:0 66:0 67:0 68:0 69:0 70:0 71:0 72:0 73:0 74:0 75:0 76:0 77:0 78:0 79:0 80:0 81:0 82:0 83:0 84:0 85:0 86:0 87:0 88:0 89:0 90:0 91:0 92:0 93:0 94:0 95:0 96:0 97:0 98:0 99:0 100:0 101:0 102:0 103:0 104:0 105:0 106:0 107:0 108:0 109:0 110:0 111:0 112:0 113:0 114:0 115:0 116:0 117:0 118:0 119:0 120:0 121:57 122:7 123:0 124:0 125:0 126:0 127:0 128:0 129:0 130:0 131:0 132:0 133:0 134:0 135:0 136:0 137:0 138:0 139:22 140:34 141:188 142:34 143:0 144:0 145:0 146:0 147:0 148:0 149:0 150:0 151:0 152:0 153:0 154:0 155:0 156:0 157:0 158:0 159:87 160:113 161:167 162:135 163:20 164:12 165:10 166:10 167:10 168:10 169:10 170:10 171:10 172:10 173:10 174:10 175:10 176:10 177:14 178:26 179:196 180:104 181:168 182:255 183:225 184:214 185:213 186:213 187:213 188:213 189:213 190:213 191:213 192:213 193:213 194:213 195:213 196:213 197:217 198:235 199:255 200:104 201:168 202:255 203:219 204:211 205:211 206:211 207:211 208:211 209:211 210:211 211:211 212:211 213:211 214:211 215:211 216:210 217:214 218:230 219:255 220:106 221:167 222:129 223:15 224:9 225:9 226:9 227:9 228:9 229:9 230:9 231:9 232:9 233:9 234:9 235:9 236:9 237:12 238:22 239:189 240:109 241:190 242:33 243:0 244:0 245:0 246:0 247:0 248:0 249:0 250:0 251:0 252:0 253:0 254:0 255:0 256:0 257:0 258:0 259:86 260:119 261:46 262:6 263:0 264:0 265:0 266:0 267:0 268:0 269:0 270:0 271:0 272:0 273:0 274:0 275:0 276:0 277:0 278:0 279:17 280:27 281:0 282:0 283:0 284:0 285:0 286:0 287:0 288:0 289:0 290:0 291:0 292:0 293:0 294:0 295:0 296:0 297:0 298:0 299:0 300:0 301:0 302:0 303:0 304:0 305:0 306:0 307:0 308:0 309:0 310:0 311:0 312:0 313:0 314:0 315:0 316:0 317:0 318:0 319:0 320:0 321:0 322:0 323:0 324:0 325:0 326:0 327:0 328:0 329:0 330:0 331:0 332:0 333:0 334:0 335:0 336:0 337:0 338:0 339:0 340:0 341:0 342:0 343:0 344:0 345:0 346:0 347:0 348:0 349:0 350:0 351:0 352:0 353:0 354:0 355:0 356:0 357:0 358:0 359:0 360:0 361:0 362:0 363:0 364:0 365:0 366:0 367:0 368:0 369:0 370:0 371:0 372:0 373:0 374:0 375:0 376:0 377:0 378:0 379:0 380:0 381:0 382:0 383:0 384:0 385:0 386:0 387:0 388:0 389:0 390:0 391:0 392:0 393:0 394:0 395:0 396:0 397:0 398:0 399:0 400:0 
2.822313687407415 2.463764064605904 6.674809374641787 5.087104257754145 7.398592996500709 8.920750014264701 5.763249107436147 2.839761759034831 8.441230275871003 4.533866077937817 6.178109523952033 3.582675896377328 2.597053070736189 4.145532715491531 5.128214468450736 3.0886658383769 3.222004010120848 4.95791594330382 4.810032368180629 4.076577298151029 4.574371456558957 3.093234134477601 3.985555931905639 3.392226166372696 2.369450867725472 1:0 2:0 3:0 4:0 5:0 6:0 7:0 8:0 9:0 10:0 11:0 12:0 13:0 14:0 15:0 16:0 17:0 18:0 19:0 20:0 21:0 22:0 23:0 24:0 25:0 26:0 27:0 28:0 29:0 30:0 31:0 32:0 33:0 34:0 35:0 36:0 37:0 38:0 39:0 40:0 41:0 42:0 43:0 44:0 45:0 46:0 47:0 48:0 49:0 50:0 51:0 52:0 53:0 54:0 55:0 56:0 57:0 58:0 59:0 60:0 61:0 62:0 63:0 64:0 65:0 66:0 67:0 68:0 69:0 70:0 71:0 72:0 73:0 74:0 75:0 76:0 77:0 78:0 79:0 80:0 81:0 82:0 83:0 84:0 85:0 86:0 87:0 88:0 89:0 90:0 91:0 92:0 93:0 94:0 95:0 96:0 97:0 98:0 99:0 100:0 101:0 102:0 103:0 104:0 105:0 106:0 107:0 108:0 109:0 110:0 111:0 112:0 113:0 114:0 115:0 116:211 117:0 118:0 119:0 120:0 121:0 122:0 123:0 124:0 125:0 126:0 127:0 128:0 129:0 130:0 131:0 132:0 133:0 134:0 135:0 136:251 137:0 138:0 139:0 140:0 141:0 142:0 143:0 144:0 145:0 146:105 147:0 148:0 149:0 150:0 151:15 152:53 153:174 154:255 155:147 156:220 157:0 158:0 159:0 160:0 161:0 162:0 163:0 164:0 165:0 166:247 167:32 168:88 169:192 170:249 171:168 172:27 173:0 174:0 175:0 176:224 177:0 178:0 179:0 180:0 181:0 182:0 183:0 184:0 185:0 186:229 187:136 188:28 189:0 190:0 191:0 192:0 193:41 194:125 195:213 196:237 197:0 198:0 199:0 200:0 201:0 202:0 203:0 204:0 205:0 206:207 207:0 208:0 209:43 210:162 211:230 212:202 213:108 214:25 215:0 216:241 217:0 218:0 219:0 220:0 221:0 222:0 223:0 224:0 225:0 226:219 227:249 228:178 229:74 230:21 231:0 232:0 233:0 234:0 235:0 236:51 237:0 238:0 239:0 240:0 241:0 242:0 243:0 244:0 245:0 246:252 247:0 248:0 249:0 250:0 251:0 252:0 253:0 254:0 255:0 256:0 257:0 258:0 259:0 260:0 261:0 262:0 263:0 264:0 265:0 266:184 267:0 268:0 269:0 270:0 271:0 272:0 273:0 274:0 275:0 276:0 277:0 278:0 279:0 280:0 281:0 282:0 283:0 284:0 285:0 286:0 287:0 288:0 289:0 290:0 291:0 292:0 293:0 294:0 295:0 296:0 297:0 298:0 299:0 300:0 301:0 302:0 303:0 304:0 305:0 306:0 307:0 308:0 309:0 310:0 311:0 312:0 313:0 314:0 315:0 316:0 317:0 318:0 319:0 320:0 321:0 322:0 323:0 324:0 325:0 326:0 327:0 328:0 329:0 330:0 331:0 332:0 333:0 334:0 335:0 336:0 337:0 338:0 339:0 340:0 341:0 342:0 343:0 344:0 345:0 346:0 347:0 348:0 349:0 350:0 351:0 352:0 353:0 354:0 355:0 356:0 357:0 358:0 359:0 360:0 361:0 362:0 363:0 364:0 365:0 366:0 367:0 368:0 369:0 370:0 371:0 372:0 373:0 374:0 375:0 376:0 377:0 378:0 379:0 380:0 381:15 382:15 383:15 384:15 385:15 386:15 387:15 388:15 389:15 390:15 391:15 392:15 393:15 394:15 395:15 396:15 397:15 398:15 399:15 400:15 
0 0 0 0 0 0 0 0 0 0 0.1954512686739217 0 0 0.7009761649161395 0.09101527232976221 0 0 0 0 0 0 0 0 0 0 1:0 2:0 3:0 4:0 5:0 6:0 7:0 8:0 9:0 10:0 11:0 12:0 13:0 14:0 15:0 16:0 17:0 18:0 19:0 20:0 21:0 22:0 23:0 24:0 25:0 26:0 27:0 28:0 29:0 30:0 31:0 32:0 33:0 34:0 35:0 36:0 37:0 38:0 39:0 40:0 41:0 42:0 43:0 44:0 45:0 46:0 47:0 48:0 49:0 50:0 51:0 52:0 53:0 54:0 55:0 56:0 57:0 58:0 59:0 60:0 61:0 62:0 63:0 64:0 65:0 66:0 67:0 68:0 69:0 70:0 71:0 72:0 73:0 74:0 75:0 76:0 77:0 78:0 79:0 80:0 81:125 82:122 83:43 84:0 85:0 86:0 87:0 88:0 89:0 90:0 91:0 92:0 93:0 94:0 95:0 96:0 97:0 98:64 99:135 100:94 101:255 102:255 103:96 104:0 105:0 106:0 107:0 108:0 109:0 110:0 111:0 112:0 113:0 114:0 115:0 116:0 117:0 118:142 119:255 120:208 121:255 122:251 123:88 124:0 125:0 126:0 127:0 128:0 129:0 130:0 131:0 132:0 133:0 134:0 135:0 136:0 137:0 138:131 139:255 140:192 141:255 142:250 143:76 144:0 145:0 146:0 147:0 148:0 149:0 150:0 151:0 152:0 153:0 154:0 155:0 156:0 157:0 158:123 159:255 160:192 161:255 162:254 163:209 164:182 165:183 166:183 167:183 168:183 169:183 170:183 171:183 172:183 173:183 174:183 175:183 176:183 177:182 178:220 179:255 180:192 181:255 182:255 183:255 184:255 185:255 186:255 187:255 188:255 189:255 190:255 191:255 192:255 193:255 194:255 195:255 196:255 197:255 198:255 199:255 200:192 201:255 202:255 203:231 204:217 205:219 206:219 207:219 208:219 209:219 210:219 211:219 212:219 213:219 214:219 215:219 216:219 217:218 218:237 219:255 220:192 221:255 222:251 223:99 224:9 225:16 226:16 227:16 228:16 229:16 230:16 231:16 232:16 233:16 234:16 235:16 236:16 237:11 238:139 239:255 240:192 241:255 242:251 243:88 244:0 245:0 246:0 247:0 248:0 249:0 250:0 251:0 252:0 253:0 254:0 255:0 256:0 257:0 258:131 259:255 260:192 261:255 262:255 263:93 264:0 265:0 266:0 267:0 268:0 269:0 270:0 271:0 272:0 273:0 274:0 275:0 276:0 277:0 278:139 279:255 280:203 281:174 282:171 283:60 284:0 285:0 286:0 287:0 288:0 289:0 290:0 291:0 292:0 293:0 294:0 295:0 296:0 297:0 298:89 299:188 300:131 301:6 302:5 303:2 304:0 305:0 306:0 307:0 308:0 309:0 310:0 311:0 312:0 313:0 314:0 315:0 316:0 317:0 318:3 319:6 320:4 321:0 322:0 323:0 324:0 325:0 326:0 327:0 328:0 329:0 330:0 331:0 332:0 333:0 334:0 335:0 336:0 337:0 338:0 339:0 340:0 341:0 342:0 343:0 344:0 345:0 346:0 347:0 348:0 349:0 350:0 351:0 352:0 353:0 354:0 355:0 356:0 357:0 358:0 359:0 360:0 361:0 362:0 363:0 364:0 365:0 366:0 367:0 368:0 369:0 370:0 371:0 372:0 373:0 374:0 375:0 376:0 377:0 378:0 379:0 380:0 381:0 382:0 383:0 384:0 385:0 386:0 387:0 388:0 389:0 390:0 391:0 392:0 393:0 394:0 395:0 396:0 397:0 398:0 399:0 400:0 
1.457332436827016 0 2.053456188065586 0.4050116975956052 1.965659206212381 0.9031729307077452 1.311357479361681 0 1.664122527459852 0.9945254894520129 0.9547791553834574 0.6807909838907809 0.2625186740210501 1.511180662888481 0.8966655912825421 0.2769182127910162 0 0.2718092306095298 1.158659807863853 0.2732681109732497 0 0.4066805218782948 0.3453094030342374 0 0.2633135222234824 1:0 2:0 3:0 4:0 5:0 6:0 7:0 8:0 9:0 10:0 11:0 12:0 13:0 14:0 15:0 16:0 17:0 18:0 19:27 20:2 21:0 22:0 23:0 24:0 25:0 26:0 27:0 28:0 29:0 30:0 31:0 32:0 33:0 34:0 35:0 36:0 37:0 38:90 39:255 40:178 41:0 42:0 43:0 44:0 45:0 46:0 47:0 48:0 49:0 50:0 51:0 52:0 53:0 54:0 55:0 56:0 57:0 58:140 59:255 60:198 61:0 62:0 63:0 64:1 65:0 66:0 67:0 68:0 69:0 70:0 71:0 72:0 73:0 74:0 75:0 76:0 77:0 78:138 79:255 80:192 81:2 82:190 83:121 84:0 85:0 86:0 87:0 88:0 89:0 90:0 91:0 92:0 93:0 94:0 95:0 96:0 97:0 98:137 99:255 100:192 101:84 102:255 103:186 104:11 105:0 106:0 107:0 108:0 109:0 110:0 111:0 112:0 113:0 114:0 115:0 116:0 117:0 118:139 119:255 120:192 121:107 122:255 123:185 124:11 125:0 126:0 127:0 128:0 129:0 130:0 131:0 132:0 133:1 134:22 135:44 136:71 137:118 138:213 139:255 140:192 141:104 142:255 143:185 144:11 145:0 146:0 147:0 148:0 149:0 150:29 151:74 152:114 153:153 154:194 155:240 156:255 157:255 158:255 159:255 160:192 161:104 162:255 163:178 164:0 165:0 166:42 167:99 168:152 169:188 170:213 171:242 172:255 173:255 174:255 175:255 176:255 177:241 178:232 179:255 180:192 181:104 182:255 183:225 184:191 185:228 186:239 187:247 188:254 189:255 190:255 191:255 192:255 193:238 194:173 195:105 196:38 197:0 198:144 199:255 200:192 201:104 202:255 203:255 204:255 205:255 206:247 207:239 208:234 209:199 210:133 211:60 212:0 213:0 214:0 215:0 216:0 217:0 218:137 219:255 220:192 221:104 222:255 223:242 224:197 225:157 226:97 227:39 228:0 229:0 230:0 231:0 232:0 233:1 234:0 235:0 236:0 237:0 238:137 239:255 240:194 241:104 242:255 243:191 244:4 245:0 246:0 247:0 248:0 249:0 250:0 251:0 252:0 253:0 254:0 255:0 256:0 257:0 258:144 259:255 260:192 261:104 262:255 263:184 264:9 265:0 266:0 267:0 268:0 269:0 270:0 271:0 272:0 273:0 274:0 275:0 276:0 277:0 278:104 279:255 280:94 281:104 282:255 283:185 284:11 285:0 286:0 287:0 288:0 289:0 290:0 291:0 292:0 293:0 294:0 295:0 296:0 297:0 298:4 299:12 300:3 301:105 302:255 303:185 304:10 305:0 306:0 307:0 308:0 309:0 310:0 311:0 312:0 313:0 314:0 315:0 316:0 317:0 318:0 319:0 320:0 321:94 322:255 323:168 324:0 325:0 326:0 327:0 328:0 329:0 330:0 331:0 332:0 333:0 334:0 335:0 336:0 337:0 338:0 339:0 340:0 341:22 342:137 343:46 344:0 345:0 346:0 347:0 348:0 349:0 350:0 351:0 352:0 353:0 354:0 355:0 356:0 357:0 358:0 359:0 360:0 361:0 362:0 363:0 364:1 365:0 366:0 367:0 368:0 369:0 370:0 371:0 372:0 373:0 374:0 375:0 376:0 377:0 378:0 379:0 380:0 381:0 382:0 383:0 384:0 385:0 386:0 387:0 388:0 389:0 390:0 391:0 392:0 393:0 394:0 395:0 396:0 397:0 398:0 399:0 400:0 
0 0.4855467709248123 0 0 0 0 0 0 0.3986711292114203 0 0.1622559230792905 0 0 2.459288272440261 0 0.0524291535326775 1.048174990524701 0 0.1736923953689369 0 0 0 0 0 0 1:0 2:0 3:0 4:0 5:0 6:0 7:0 8:0 9:0 10:0 11:0 12:0 13:0 14:0 15:0 16:0 17:0 18:0 19:0 20:0 21:0 22:0 23:0 24:0 25:0 26:0 27:0 28:0 29:0 30:0 31:0 32:0 33:0 34:0 35:0 36:0 37:0 38:0 39:0 40:0 41:0 42:0 43:0 44:0 45:0 46:0 47:0 48:0 49:0 50:0 51:0 52:0 53:0 54:0 55:0 56:0 57:0 58:0 59:0 60:0 61:0 62:0 63:0 64:0 65:0 66:0 67:0 68:0 69:0 70:0 71:0 72:0 73:0 74:0 75:0 76:0 77:0 78:0 79:0 80:0 81:0 82:0 83:0 84:0 85:0 86:0 87:0 88:0 89:0 90:0 91:0 92:0 93:0 94:0 95:0 96:0 97:0 98:0 99:0 100:0 101:38 102:64 103:0 104:0 105:0 106:0 107:0 108:0 109:0 110:0 111:0 112:0 113:0 114:0 115:0 116:0 117:0 118:0 119:57 120:45 121:170 122:214 123:0 124:0 125:0 126:0 127:0 128:0 129:0 130:0 131:0 132:0 133:0 134:0 135:0 136:0 137:0 138:0 139:202 140:188 141:177 142:204 143:0 144:0 145:0 146:0 147:0 148:0 149:0 150:0 151:0 152:0 153:0 154:0 155:0 156:0 157:0 158:0 159:197 160:193 161:176 162:216 163:31 164:47 165:47 166:47 167:47 168:47 169:47 170:47 171:47 172:47 173:47 174:47 175:47 176:47 177:47 178:23 179:209 180:192 181:176 182:255 183:255 184:255 185:255 186:255 187:255 188:255 189:255 190:255 191:255 192:255 193:255 194:255 195:255 196:255 197:255 198:255 199:255 200:192 201:176 202:229 203:89 204:101 205:102 206:102 207:102 208:102 209:102 210:102 211:102 212:102 213:102 214:102 215:102 216:102 217:102 218:84 219:224 220:192 221:176 222:204 223:0 224:0 225:0 226:0 227:0 228:0 229:0 230:0 231:0 232:0 233:0 234:0 235:0 236:0 237:0 238:0 239:197 240:192 241:170 242:205 243:0 244:0 245:0 246:0 247:0 248:0 249:0 250:0 251:0 252:0 253:0 254:0 255:0 256:0 257:0 258:0 259:196 260:187 261:67 262:107 263:0 264:0 265:0 266:0 267:0 268:0 269:0 270:0 271:0 272:0 273:0 274:0 275:0 276:0 277:0 278:0 279:96 280:77 281:0 282:0 283:1 284:0 285:0 286:0 287:0 288:0 289:0 290:0 291:0 292:0 293:0 294:0 295:0 296:0 297:0 298:1 299:0 300:0 301:0 302:0 303:0 304:0 305:0 306:0 307:0 308:0 309:0 310:0 311:0 312:0 313:0 314:0 315:0 316:0 317:0 318:0 319:0 320:0 321:0 322:0 323:0 324:0 325:0 326:0 327:0 328:0 329:0 330:0 331:0 332:0 333:0 334:0 335:0 336:0 337:0 338:0 339:0 340:0 341:0 342:0 343:0 344:0 345:0 346:0 347:0 348:0 349:0 350:0 351:0 352:0 353:0 354:0 355:0 356:0 357:0 358:0 359:0 360:0 361:0 362:0 363:0 364:0 365:0 366:0 367:0 368:0 369:0 370:0 371:0 372:0 373:0 374:0 375:0 376:0 377:0 378:0 379:0 380:0 381:0 382:0 383:0 384:0 385:0 386:0 387:0 388:0 389:0 390:0 391:0 392:0 393:0 394:0 395:0 396:0 397:0 398:0 399:0 400:0 
0 0 0 0 0 0 0 3.878855060054452 0 0 0 0 0 0 0 0 0 0 0 0 0 0 0 0 0 1:0 2:0 3:0 4:0 5:0 6:0 7:0 8:0 9:0 10:0 11:0 12:0 13:0 14:0 15:0 16:0 17:0 18:0 19:0 20:0 21:0 22:0 23:0 24:0 25:0 26:0 27:0 28:0 29:0 30:0 31:0 32:0 33:0 34:0 35:0 36:0 37:0 38:0 39:0 40:0 41:0 42:0 43:0 44:0 45:0 46:0 47:0 48:0 49:0 50:0 51:0 52:0 53:0 54:0 55:0 56:0 57:0 58:0 59:0 60:0 61:0 62:0 63:0 64:0 65:0 66:0 67:0 68:0 69:0 70:0 71:0 72:0 73:0 74:0 75:0 76:0 77:0 78:0 79:0 80:0 81:0 82:0 83:0 84:0 85:0 86:0 87:0 88:0 89:0 90:0 91:0 92:0 93:0 94:0 95:0 96:0 97:0 98:0 99:0 100:0 101:0 102:0 103:0 104:0 105:0 106:0 107:0 108:0 109:0 110:0 111:0 112:0 113:0 114:0 115:0 116:0 117:0 118:0 119:0 120:0 121:0 122:0 123:0 124:0 125:0 126:0 127:0 128:0 129:0 130:0 131:0 132:0 133:0 134:0 135:0 136:0 137:0 138:0 139:0 140:0 141:0 142:0 143:0 144:0 145:0 146:0 147:0 148:0 149:0 150:0 151:0 152:0 153:0 154:0 155:0 156:0 157:0 158:0 159:0 160:0 161:0 162:0 163:5 164:5 165:5 166:5 167:5 168:5 169:5 170:5 171:5 172:5 173:5 174:5 175:5 176:5 177:5 178:5 179:7 180:0 181:28 182:255 183:255 184:255 185:255 186:255 187:255 188:255 189:255 190:255 191:255 192:255 193:255 194:255 195:255 196:255 197:255 198:255 199:255 200:123 201:17 202:255 203:253 204:253 205:253 206:253 207:253 208:253 209:253 210:253 211:253 212:253 213:253 214:253 215:253 216:253 217:253 218:253 219:255 220:82 221:0 222:0 223:0 224:0 225:0 226:0 227:0 228:0 229:0 230:0 231:0 232:0 233:0 234:0 235:0 236:0 237:0 238:0 239:0 240:0 241:0 242:0 243:0 244:0 245:0 246:0 247:0 248:0 249:0 250:0 251:0 252:0 253:0 254:0 255:0 256:0 257:0 258:0 259:0 260:0 261:0 262:0 263:0 264:0 265:0 266:0 267:0 268:0 269:0 270:0 271:0 272:0 273:0 274:0 275:0 276:0 277:0 278:0 279:0 280:0 281:0 282:0 283:0 284:0 285:0 286:0 287:0 288:0 289:0 290:0 291:0 292:0 293:0 294:0 295:0 296:0 297:0 298:0 299:0 300:0 301:0 302:0 303:0 304:0 305:0 306:0 307:0 308:0 309:0 310:0 311:0 312:0 313:0 314:0 315:0 316:0 317:0 318:0 319:0 320:0 321:0 322:0 323:0 324:0 325:0 326:0 327:0 328:0 329:0 330:0 331:0 332:0 333:0 334:0 335:0 336:0 337:0 338:0 339:0 340:0 341:0 342:0 343:0 344:0 345:0 346:0 347:0 348:0 349:0 350:0 351:0 352:0 353:0 354:0 355:0 356:0 357:0 358:0 359:0 360:0 361:0 362:0 363:0 364:0 365:0 366:0 367:0 368:0 369:0 370:0 371:0 372:0 373:0 374:0 375:0 376:0 377:0 378:0 379:0 380:0 381:0 382:0 383:0 384:0 385:0 386:0 387:0 388:0 389:0 390:0 391:0 392:0 393:0 394:0 395:0 396:0 397:0 398:0 399:0 400:0 
9.276069028433263 2.937795186518187 10.16738006041647 3.455436156180549 3.593559276551408 6.439482973063606 8.23924546067982 6.769461961140359 4.144091542646573 6.165758818402111 3.300726630107625 2.185138483617153 3.841940045409159 2.530384764844995 6.694704884729738 3.102266634240723 2.955744039504092 3.785021022486085 4.275356655891786 4.403271135787523 5.073754363827325 4.137365030583451 6.942574885334357 4.586075888303703 4.339104342974982 1:0 2:0 3:0 4:0 5:0 6:0 7:0 8:0 9:0 10:0 11:0 12:0 13:0 14:0 15:0 16:0 17:0 18:0 19:0 20:0 21:0 22:0 23:0 24:0 25:0 26:0 27:0 28:0 29:0 30:0 31:0 32:0 33:0 34:0 35:195 36:52 37:0 38:0 39:0 40:0 41:0 42:0 43:0 44:0 45:0 46:0 47:0 48:0 49:0 50:0 51:0 52:0 53:0 54:182 55:89 56:177 57:0 58:0 59:0 60:0 61:0 62:0 63:0 64:0 65:0 66:0 67:0 68:0 69:0 70:0 71:0 72:0 73:0 74:42 75:0 76:98 77:0 78:0 79:0 80:0 81:0 82:0 83:0 84:0 85:0 86:0 87:0 88:0 89:0 90:0 91:0 92:0 93:0 94:0 95:0 96:155 97:0 98:0 99:0 100:0 101:0 102:0 103:0 104:0 105:0 106:0 107:0 108:0 109:0 110:0 111:0 112:0 113:0 114:0 115:0 116:242 117:0 118:0 119:0 120:0 121:0 122:0 123:0 124:0 125:0 126:0 127:0 128:0 129:0 130:0 131:0 132:0 133:0 134:1 135:21 136:108 137:0 138:0 139:0 140:0 141:0 142:0 143:0 144:0 145:0 146:0 147:0 148:0 149:2 150:0 151:0 152:1 153:0 154:0 155:255 156:0 157:0 158:0 159:0 160:0 161:0 162:0 163:0 164:0 165:0 166:0 167:0 168:0 169:134 170:255 171:218 172:129 173:0 174:244 175:148 176:0 177:0 178:0 179:0 180:0 181:0 182:0 183:0 184:0 185:0 186:0 187:0 188:190 189:181 190:2 191:0 192:119 193:241 194:255 195:0 196:0 197:0 198:0 199:0 200:0 201:0 202:0 203:0 204:0 205:0 206:0 207:31 208:170 209:0 210:0 211:20 212:255 213:252 214:0 215:0 216:0 217:0 218:0 219:0 220:0 221:0 222:0 223:0 224:0 225:0 226:0 227:240 228:0 229:0 230:123 231:255 232:221 233:0 234:0 235:0 236:0 237:0 238:0 239:0 240:0 241:0 242:0 243:0 244:0 245:0 246:0 247:146 248:0 249:204 250:205 251:0 252:152 253:0 254:0 255:0 256:0 257:0 258:0 259:0 260:0 261:0 262:0 263:0 264:0 265:0 266:0 267:0 268:209 269:128 270:0 271:0 272:49 273:0 274:0 275:0 276:0 277:0 278:0 279:0 280:0 281:0 282:0 283:0 284:0 285:0 286:153 287:105 288:102 289:0 290:78 291:178 292:0 293:0 294:0 295:0 296:0 297:0 298:0 299:0 300:0 301:0 302:0 303:0 304:0 305:0 306:176 307:207 308:0 309:123 310:49 311:0 312:0 313:0 314:0 315:0 316:0 317:0 318:0 319:0 320:0 321:0 322:0 323:0 324:0 325:0 326:255 327:0 328:0 329:0 330:0 331:0 332:0 333:0 334:0 335:0 336:0 337:0 338:0 339:0 340:0 341:0 342:0 343:0 344:0 345:39 346:50 347:0 348:0 349:0 350:0 351:0 352:0 353:0 354:0 355:0 356:0 357:0 358:0 359:0 360:0 361:0 362:0 363:0 364:0 365:6 366:0 367:0 368:0 369:0 370:0 371:0 372:0 373:0 374:0 375:0 376:0 377:0 378:0 379:0 380:0 381:55 382:55 383:55 384:55 385:55 386:55 387:55 388:55 389:55 390:55 391:55 392:55 393:55 394:55 395:55 396:55 397:55 398:55 399:55 400:55 
2.360818098631237 3.636204178171835 4.624694101803582 3.203327066712128 2.670923697630984 3.146813955468037 4.394648611872328 11.25812257433674 2.050843062533942 2.656859574733586 3.323392881076705 2.1495164612361 2.778744773786025 3.952707718378729 4.885266424455869 3.753255548983792 3.734075645030864 2.434879937445784 4.281237761375383 5.020260653266593 3.840574779885391 2.945120998946617 2.836893122098141 3.6832375540478 2.189732800626934 1:0 2:0 3:0 4:0 5:0 6:0 7:0 8:0 9:0 10:0 11:0 12:0 13:0 14:0 15:0 16:0 17:0 18:0 19:0 20:0 21:0 22:0 23:0 24:0 25:0 26:0 27:0 28:0 29:0 30:0 31:0 32:0 33:0 34:0 35:0 36:0 37:0 38:0 39:0 40:0 41:0 42:0 43:0 44:0 45:0 46:161 47:48 48:0 49:0 50:0 51:0 52:0 53:0 54:0 55:0 56:0 57:0 58:0 59:41 60:32 61:0 62:0 63:49 64:193 65:224 66:55 67:0 68:0 69:0 70:0 71:0 72:0 73:0 74:0 75:0 76:0 77:0 78:90 79:207 80:0 81:0 82:71 83:243 84:166 85:8 86:0 87:0 88:0 89:0 90:0 91:0 92:0 93:0 94:0 95:0 96:0 97:82 98:255 99:184 100:0 101:27 102:255 103:255 104:0 105:0 106:0 107:0 108:0 109:0 110:0 111:0 112:0 113:0 114:0 115:0 116:52 117:255 118:255 119:255 120:83 121:135 122:255 123:211 124:0 125:0 126:0 127:0 128:0 129:0 130:0 131:0 132:0 133:0 134:0 135:0 136:11 137:52 138:235 139:255 140:188 141:155 142:255 143:255 144:0 145:0 146:0 147:0 148:0 149:0 150:0 151:0 152:0 153:0 154:0 155:0 156:0 157:0 158:0 159:230 160:176 161:77 162:255 163:255 164:14 165:0 166:0 167:0 168:0 169:0 170:0 171:0 172:0 173:0 174:0 175:0 176:0 177:0 178:1 179:179 180:108 181:0 182:255 183:255 184:119 185:0 186:0 187:0 188:0 189:0 190:0 191:0 192:0 193:0 194:0 195:0 196:0 197:0 198:0 199:216 200:0 201:0 202:157 203:255 204:192 205:7 206:1 207:0 208:0 209:0 210:0 211:0 212:0 213:0 214:0 215:0 216:0 217:0 218:158 219:150 220:0 221:0 222:47 223:249 224:255 225:23 226:10 227:175 228:212 229:188 230:158 231:133 232:99 233:72 234:56 235:91 236:141 237:255 238:205 239:0 240:0 241:0 242:0 243:240 244:205 245:0 246:215 247:255 248:255 249:255 250:255 251:255 252:255 253:255 254:255 255:255 256:255 257:219 258:7 259:0 260:0 261:0 262:7 263:248 264:23 265:201 266:217 267:130 268:142 269:176 270:219 271:225 272:231 273:234 274:228 275:213 276:95 277:0 278:0 279:0 280:0 281:0 282:133 283:100 284:113 285:105 286:0 287:0 288:0 289:0 290:0 291:4 292:20 293:26 294:11 295:0 296:0 297:0 298:0 299:0 300:0 301:0 302:147 303:0 304:4 305:0 306:0 307:0 308:0 309:0 310:0 311:0 312:0 313:0 314:0 315:0 316:0 317:0 318:0 319:0 320:0 321:0 322:0 323:0 324:0 325:0 326:0 327:0 328:0 329:0 330:0 331:0 332:0 333:0 334:0 335:0 336:0 337:0 338:0 339:0 340:0 341:0 342:0 343:0 344:0 345:0 346:0 347:0 348:0 349:0 350:0 351:0 352:0 353:0 354:0 355:0 356:0 357:0 358:0 359:0 360:0 361:0 362:0 363:0 364:0 365:0 366:0 367:0 368:0 369:0 370:0 371:0 372:0 373:0 374:0 375:0 376:0 377:0 378:0 379:0 380:0 381:0 382:0 383:0 384:0 385:0 386:0 387:0 388:0 389:0 390:0 391:0 392:0 393:0 394:0 395:0 396:0 397:0 398:0 399:0 400:0 
0 0.4640888274570804 0 0 0 0 0.4123644256132118 0 0 0.1803840305541606 0 0 0 7.648308136501822 0 0 0.1209611238926182 0 0 0 0 0 0 0 0 1:0 2:0 3:0 4:0 5:0 6:0 7:0 8:0 9:0 10:0 11:0 12:0 13:0 14:0 15:0 16:0 17:0 18:0 19:0 20:0 21:0 22:0 23:0 24:0 25:0 26:0 27:0 28:0 29:0 30:0 31:0 32:0 33:0 34:0 35:0 36:0 37:0 38:0 39:0 40:0 41:0 42:0 43:0 44:0 45:0 46:0 47:0 48:0 49:0 50:0 51:0 52:0 53:0 54:0 55:0 56:0 57:0 58:0 59:0 60:0 61:0 62:0 63:2 64:0 65:0 66:0 67:0 68:0 69:0 70:0 71:0 72:0 73:0 74:0 75:0 76:0 77:0 78:2 79:0 80:0 81:152 82:181 83:0 84:0 85:0 86:0 87:0 88:0 89:0 90:0 91:0 92:0 93:0 94:0 95:0 96:0 97:0 98:0 99:170 100:164 101:180 102:203 103:0 104:0 105:0 106:0 107:0 108:0 109:0 110:0 111:0 112:0 113:0 114:0 115:0 116:0 117:0 118:0 119:186 120:197 121:175 122:199 123:0 124:0 125:0 126:0 127:0 128:0 129:0 130:0 131:0 132:0 133:0 134:0 135:0 136:0 137:0 138:0 139:183 140:192 141:175 142:199 143:0 144:0 145:0 146:0 147:0 148:0 149:0 150:0 151:0 152:0 153:0 154:0 155:0 156:0 157:0 158:0 159:182 160:192 161:175 162:209 163:11 164:37 165:37 166:37 167:37 168:37 169:37 170:37 171:37 172:37 173:37 174:37 175:37 176:37 177:37 178:12 179:195 180:192 181:175 182:255 183:255 184:255 185:255 186:255 187:255 188:255 189:255 190:255 191:255 192:255 193:255 194:255 195:255 196:255 197:255 198:255 199:255 200:192 201:175 202:225 203:80 204:99 205:99 206:99 207:99 208:99 209:99 210:99 211:99 212:99 213:99 214:99 215:99 216:99 217:99 218:81 219:215 220:192 221:175 222:199 223:0 224:0 225:0 226:0 227:0 228:0 229:0 230:0 231:0 232:0 233:0 234:0 235:0 236:0 237:0 238:0 239:182 240:192 241:175 242:199 243:0 244:0 245:0 246:0 247:0 248:0 249:0 250:0 251:0 252:0 253:0 254:0 255:0 256:0 257:0 258:0 259:183 260:192 261:178 262:202 263:0 264:0 265:0 266:0 267:0 268:0 269:0 270:0 271:0 272:0 273:0 274:0 275:0 276:0 277:0 278:0 279:186 280:195 281:173 282:204 283:0 284:0 285:0 286:0 287:0 288:0 289:0 290:0 291:0 292:0 293:0 294:0 295:0 296:0 297:0 298:0 299:185 300:191 301:7 302:19 303:0 304:0 305:0 306:0 307:0 308:0 309:0 310:0 311:0 312:0 313:0 314:0 315:0 316:0 317:0 318:0 319:15 320:11 321:0 322:0 323:0 324:0 325:0 326:0 327:0 328:0 329:0 330:0 331:0 332:0 333:0 334:0 335:0 336:0 337:0 338:0 339:0 340:0 341:0 342:0 343:0 344:0 345:0 346:0 347:0 348:0 349:0 350:0 351:0 352:0 353:0 354:0 355:0 356:0 357:0 358:0 359:0 360:0 361:0 362:0 363:0 364:0 365:0 366:0 367:0 368:0 369:0 370:0 371:0 372:0 373:0 374:0 375:0 376:0 377:0 378:0 379:0 380:0 381:0 382:0 383:0 384:0 385:0 386:0 387:0 388:0 389:0 390:0 391:0 392:0 393:0 394:0 395:0 396:0 397:0 398:0 399:0 400:0 
1.224026310911158 0.8864601982489988 5.392668216748715 0.3612191767814347 0.8029343487543961 4.422382011252968 4.538384129169842 1.214432524560216 1.439174547588068 1.264378188654461 1.194255340755863 3.617979499387433 1.578866240891356 15.14210244448864 6.782196656516237 1.279687760654899 1.146486860278258 2.719387038732535 2.155218823471253 1.673659024315094 2.132661475220783 1.733325555131766 3.303242160758257 2.664853176259804 2.134288601661649 1:0 2:0 3:0 4:0 5:0 6:0 7:0 8:0 9:0 10:0 11:0 12:0 13:0 14:0 15:0 16:0 17:0 18:0 19:0 20:0 21:0 22:0 23:0 24:0 25:0 26:0 27:0 28:0 29:0 30:0 31:0 32:0 33:0 34:0 35:0 36:0 37:0 38:0 39:0 40:0 41:0 42:0 43:0 44:0 45:0 46:0 47:0 48:0 49:0 50:0 51:0 52:0 53:0 54:0 55:0 56:0 57:0 58:0 59:0 60:0 61:0 62:0 63:0 64:0 65:0 66:0 67:0 68:0 69:0 70:0 71:0 72:0 73:0 74:0 75:0 76:0 77:0 78:0 79:0 80:0 81:0 82:0 83:0 84:0 85:0 86:0 87:0 88:0 89:0 90:0 91:0 92:0 93:0 94:0 95:0 96:151 97:0 98:0 99:0 100:0 101:0 102:0 103:0 104:0 105:0 106:0 107:0 108:0 109:0 110:0 111:0 112:0 113:0 114:0 115:0 116:232 117:0 118:0 119:0 120:0 121:0 122:0 123:0 124:0 125:0 126:0 127:0 128:0 129:0 130:0 131:0 132:0 133:0 134:0 135:0 136:247 137:0 138:0 139:0 140:0 141:0 142:0 143:0 144:0 145:0 146:0 147:0 148:0 149:0 150:0 151:0 152:1 153:0 154:177 155:255 156:240 157:0 158:0 159:0 160:0 161:0 162:0 163:0 164:0 165:0 166:0 167:0 168:0 169:0 170:0 171:0 172:147 173:252 174:255 175:128 176:240 177:0 178:0 179:0 180:0 181:0 182:0 183:0 184:0 185:0 186:0 187:0 188:0 189:0 190:90 191:251 192:255 193:192 194:1 195:0 196:233 197:0 198:0 199:0 200:0 201:0 202:0 203:0 204:0 205:0 206:246 207:0 208:40 209:255 210:255 211:232 212:0 213:0 214:0 215:0 216:0 217:0 218:0 219:0 220:0 221:0 222:0 223:0 224:0 225:0 226:255 227:255 228:255 229:236 230:0 231:0 232:0 233:0 234:0 235:0 236:0 237:0 238:0 239:0 240:0 241:0 242:0 243:0 244:0 245:0 246:244 247:238 248:52 249:0 250:0 251:0 252:0 253:0 254:0 255:0 256:0 257:0 258:0 259:0 260:0 261:0 262:0 263:0 264:0 265:0 266:255 267:0 268:0 269:0 270:0 271:0 272:0 273:0 274:0 275:0 276:0 277:0 278:0 279:0 280:0 281:0 282:0 283:0 284:0 285:0 286:248 287:0 288:0 289:0 290:0 291:0 292:0 293:0 294:0 295:0 296:0 297:0 298:0 299:0 300:0 301:0 302:0 303:0 304:0 305:0 306:89 307:0 308:0 309:0 310:0 311:0 312:0 313:0 314:0 315:0 316:0 317:0 318:0 319:0 320:0 321:0 322:0 323:0 324:0 325:0 326:0 327:0 328:0 329:0 330:0 331:0 332:0 333:0 334:0 335:0 336:0 337:0 338:0 339:0 340:0 341:0 342:0 343:0 344:0 345:0 346:0 347:0 348:0 349:0 350:0 351:0 352:0 353:0 354:0 355:0 356:0 357:0 358:0 359:0 360:0 361:0 362:0 363:0 364:0 365:0 366:0 367:0 368:0 369:0 370:0 371:0 372:0 373:0 374:0 375:0 376:0 377:0 378:0 379:0 380:0 381:119 382:119 383:119 384:119 385:119 386:119 387:119 388:119 389:119 390:119 391:119 392:119 393:119 394:119 395:119 396:119 397:119 398:119 399:119 400:119 
1.169328548034918 2.362217892496436 3.575870374642845 1.52269090160975 0 4.327281219058789 4.698492402052556 15.86884005065549 0 2.280277730184589 0 3.644566986093094 1.911209863281952 23.46404921667688 0 2.751788115575799 2.220980018839426 3.172710897733382 3.011141188636439 3.616489874375145 4.277141665224375 3.012769391017794 4.441809540544656 2.194907947585918 1.4246996232526 1:0 2:0 3:0 4:0 5:0 6:0 7:0 8:0 9:0 10:0 11:0 12:0 13:0 14:0 15:0 16:0 17:0 18:0 19:0 20:0 21:0 22:0 23:0 24:0 25:0 26:0 27:0 28:0 29:0 30:0 31:0 32:0 33:0 34:0 35:0 36:0 37:0 38:0 39:0 40:0 41:0 42:0 43:0 44:0 45:0 46:0 47:0 48:0 49:0 50:0 51:0 52:0 53:0 54:0 55:0 56:0 57:0 58:0 59:0 60:0 61:0 62:0 63:0 64:0 65:0 66:0 67:0 68:0 69:0 70:0 71:0 72:0 73:0 74:0 75:0 76:0 77:0 78:0 79:0 80:0 81:0 82:0 83:0 84:0 85:0 86:0 87:0 88:0 89:0 90:0 91:0 92:0 93:0 94:0 95:0 96:0 97:0 98:0 99:0 100:0 101:0 102:0 103:0 104:0 105:0 106:0 107:0 108:0 109:0 110:0 111:0 112:0 113:0 114:0 115:0 116:0 117:0 118:0 119:0 120:0 121:0 122:0 123:0 124:0 125:0 126:0 127:0 128:0 129:0 130:0 131:0 132:0 133:0 134:0 135:0 136:0 137:0 138:0 139:0 140:0 141:0 142:0 143:0 144:0 145:0 146:0 147:0 148:0 149:0 150:0 151:0 152:0 153:0 154:0 155:0 156:0 157:0 158:0 159:0 160:0 161:0 162:0 163:0 164:0 165:0 166:0 167:0 168:0 169:0 170:0 171:0 172:0 173:0 174:0 175:0 176:0 177:0 178:0 179:0 180:0 181:65 182:171 183:160 184:160 185:160 186:160 187:160 188:160 189:160 190:160 191:160 192:160 193:160 194:160 195:160 196:160 197:160 198:160 199:165 200:120 201:68 202:181 203:169 204:169 205:169 206:169 207:169 208:169 209:169 210:169 211:169 212:169 213:169 214:169 215:169 216:169 217:169 218:169 219:174 220:127 221:0 222:0 223:0 224:0 225:0 226:0 227:0 228:0 229:0 230:0 231:0 232:0 233:0 234:0 235:0 236:0 237:0 238:0 239:0 240:0 241:0 242:0 243:0 244:0 245:0 246:0 247:0 248:0 249:0 250:0 251:0 252:0 253:0 254:0 255:0 256:0 257:0 258:0 259:0 260:0 261:0 262:0 263:0 264:0 265:0 266:0 267:0 268:0 269:0 270:0 271:0 272:0 273:0 274:0 275:0 276:0 277:0 278:0 279:0 280:0 281:0 282:0 283:0 284:0 285:0 286:0 287:0 288:0 289:0 290:0 291:0 292:0 293:0 294:0 295:0 296:0 297:0 298:0 299:0 300:0 301:0 302:0 303:0 304:0 305:0 306:0 307:0 308:0 309:0 310:0 311:0 312:0 313:0 314:0 315:0 316:0 317:0 318:0 319:0 320:0 321:0 322:0 323:0 324:0 325:0 326:0 327:0 328:0 329:0 330:0 331:0 332:0 333:0 334:0 335:0 336:0 337:0 338:0 339:0 340:0 341:0 342:0 343:0 344:0 345:0 346:0 347:0 348:0 349:0 350:0 351:0 352:0 353:0 354:0 355:0 356:0 357:0 358:0 359:0 360:0 361:0 362:0 363:0 364:0 365:0 366:0 367:0 368:0 369:0 370:0 371:0 372:0 373:0 374:0 375:0 376:0 377:0 378:0 379:0 380:0 381:0 382:0 383:0 384:0 385:0 386:0 387:0 388:0 389:0 390:0 391:0 392:0 393:0 394:0 395:0 396:0 397:0 398:0 399:0 400:0 
0.1903091881924547 0.3250849832510699 0 0 0 0.790636930564949 0 12.32802227663834 0 0 0 0 0 0.9653455181368398 0 0 0 0 0 0 0 0 0 0 0 1:0 2:0 3:0 4:0 5:0 6:0 7:0 8:0 9:0 10:0 11:0 12:0 13:0 14:0 15:0 16:0 17:0 18:0 19:0 20:0 21:0 22:0 23:0 24:0 25:0 26:0 27:0 28:0 29:0 30:0 31:0 32:0 33:0 34:0 35:0 36:0 37:0 38:0 39:0 40:0 41:0 42:0 43:0 44:0 45:0 46:0 47:0 48:0 49:0 50:0 51:0 52:0 53:0 54:0 55:0 56:0 57:0 58:0 59:0 60:0 61:0 62:0 63:0 64:0 65:0 66:0 67:0 68:0 69:0 70:0 71:0 72:0 73:0 74:0 75:0 76:0 77:0 78:0 79:0 80:0 81:0 82:2 83:0 84:0 85:0 86:0 87:0 88:0 89:0 90:0 91:0 92:0 93:0 94:0 95:0 96:0 97:0 98:0 99:0 100:0 101:0 102:0 103:255 104:0 105:0 106:0 107:0 108:0 109:0 110:0 111:0 112:0 113:0 114:0 115:0 116:0 117:0 118:11 119:196 120:0 121:0 122:102 123:255 124:0 125:0 126:0 127:0 128:0 129:0 130:0 131:0 132:0 133:0 134:0 135:0 136:0 137:0 138:72 139:255 140:46 141:0 142:197 143:247 144:0 145:0 146:0 147:0 148:0 149:0 150:0 151:0 152:0 153:0 154:0 155:0 156:0 157:0 158:143 159:255 160:104 161:0 162:255 163:199 164:0 165:0 166:0 167:0 168:0 169:0 170:0 171:0 172:0 173:0 174:0 175:0 176:0 177:0 178:234 179:255 180:7 181:74 182:255 183:255 184:255 185:255 186:255 187:255 188:255 189:255 190:255 191:255 192:255 193:241 194:222 195:201 196:178 197:176 198:255 199:224 200:0 201:102 202:255 203:232 204:202 205:205 206:209 207:214 208:222 209:233 210:245 211:254 212:255 213:255 214:255 215:255 216:255 217:255 218:255 219:141 220:0 221:90 222:255 223:96 224:0 225:0 226:0 227:0 228:0 229:0 230:0 231:0 232:0 233:0 234:0 235:7 236:42 237:246 238:255 239:0 240:0 241:48 242:255 243:25 244:0 245:0 246:0 247:0 248:0 249:0 250:0 251:0 252:0 253:0 254:0 255:0 256:19 257:243 258:135 259:0 260:0 261:2 262:36 263:0 264:0 265:0 266:0 267:0 268:0 269:0 270:0 271:0 272:0 273:0 274:0 275:0 276:0 277:19 278:4 279:0 280:0 281:0 282:0 283:0 284:0 285:0 286:0 287:0 288:0 289:0 290:0 291:0 292:0 293:0 294:0 295:0 296:0 297:0 298:0 299:0 300:0 301:0 302:0 303:0 304:0 305:0 306:0 307:0 308:0 309:0 310:0 311:0 312:0 313:0 314:0 315:0 316:0 317:0 318:0 319:0 320:0 321:0 322:0 323:0 324:0 325:0 326:0 327:0 328:0 329:0 330:0 331:0 332:0 333:0 334:0 335:0 336:0 337:0 338:0 339:0 340:0 341:0 342:0 343:0 344:0 345:0 346:0 347:0 348:0 349:0 350:0 351:0 352:0 353:0 354:0 355:0 356:0 357:0 358:0 359:0 360:0 361:0 362:0 363:0 364:0 365:0 366:0 367:0 368:0 369:0 370:0 371:0 372:0 373:0 374:0 375:0 376:0 377:0 378:0 379:0 380:0 381:0 382:0 383:0 384:0 385:0 386:0 387:0 388:0 389:0 390:0 391:0 392:0 393:0 394:0 395:0 396:0 397:0 398:0 399:0 400:0 
1.140168046325825 0.3969524601253664 0.1437605572296418 0.4703913892929668 0.6454493013747765 0.7816861747250883 1.948212022985129 0 0 0.3260630456445448 0.8041227000896697 0.341359805933501 0.165609896643192 3.096655321000905 4.179992246566233 0.984469524612155 0.9873772869994872 1.029653370375143 0.3068409015002955 0.511637478064834 0.2532091389119491 0.6823831143549322 0.6158466876826274 0.9808953757354051 0.7639547348743785 1:0 2:0 3:0 4:0 5:0 6:0 7:0 8:0 9:0 10:0 11:0 12:0 13:0 14:0 15:0 16:0 17:0 18:0 19:10 20:148 21:0 22:0 23:1 24:0 25:56 26:0 27:0 28:0 29:0 30:0 31:0 32:0 33:0 34:0 35:0 36:0 37:0 38:2 39:189 40:198 41:0 42:1 43:0 44:166 45:255 46:0 47:0 48:0 49:0 50:0 51:0 52:0 53:0 54:0 55:0 56:0 57:0 58:22 59:236 60:192 61:0 62:0 63:175 64:255 65:110 66:0 67:0 68:0 69:0 70:0 71:0 72:0 73:0 74:0 75:0 76:0 77:0 78:23 79:240 80:192 81:0 82:65 83:251 84:60 85:0 86:1 87:0 88:0 89:0 90:0 91:0 92:0 93:0 94:0 95:0 96:0 97:0 98:19 99:237 100:192 101:0 102:204 103:119 104:0 105:0 106:0 107:0 108:0 109:0 110:0 111:0 112:0 113:0 114:0 115:0 116:0 117:1 118:81 119:255 120:192 121:0 122:255 123:58 124:0 125:0 126:0 127:0 128:0 129:0 130:0 131:0 132:1 133:0 134:0 135:0 136:76 137:168 138:255 139:255 140:192 141:22 142:255 143:36 144:0 145:0 146:0 147:0 148:0 149:0 150:0 151:0 152:0 153:45 154:153 155:239 156:251 157:255 158:101 159:231 160:192 161:91 162:255 163:33 164:0 165:1 166:0 167:0 168:18 169:70 170:118 171:200 172:255 173:255 174:255 175:255 176:185 177:43 178:8 179:242 180:192 181:110 182:255 183:31 184:0 185:0 186:61 187:184 188:223 189:252 190:255 191:255 192:255 193:255 194:162 195:57 196:3 197:0 198:23 199:240 200:192 201:125 202:255 203:26 204:77 205:235 206:255 207:255 208:253 209:227 210:205 211:122 212:45 213:0 214:0 215:0 216:0 217:0 218:23 219:241 220:187 221:139 222:255 223:166 224:255 225:255 226:206 227:132 228:74 229:25 230:0 231:0 232:0 233:0 234:0 235:0 236:0 237:0 238:23 239:247 240:139 241:144 242:255 243:255 244:144 245:8 246:0 247:0 248:0 249:0 250:0 251:0 252:0 253:0 254:0 255:0 256:0 257:0 258:24 259:255 260:65 261:144 262:255 263:63 264:0 265:0 266:0 267:0 268:0 269:0 270:0 271:0 272:0 273:0 274:0 275:0 276:1 277:0 278:99 279:255 280:0 281:144 282:255 283:29 284:0 285:0 286:0 287:0 288:0 289:0 290:0 291:0 292:0 293:0 294:0 295:0 296:0 297:96 298:255 299:112 300:0 301:144 302:255 303:31 304:0 305:0 306:0 307:0 308:0 309:0 310:0 311:0 312:0 313:0 314:0 315:0 316:15 317:222 318:129 319:0 320:0 321:144 322:255 323:31 324:0 325:0 326:0 327:0 328:0 329:0 330:0 331:0 332:0 333:0 334:0 335:0 336:9 337:44 338:0 339:0 340:0 341:146 342:206 343:10 344:0 345:0 346:0 347:0 348:0 349:0 350:0 351:0 352:0 353:0 354:0 355:0 356:0 357:0 358:0 359:0 360:0 361:112 362:59 363:0 364:0 365:0 366:0 367:0 368:0 369:0 370:0 371:0 372:0 373:0 374:0 375:0 376:0 377:0 378:0 379:0 380:0 381:0 382:0 383:0 384:0 385:0 386:0 387:0 388:0 389:0 390:0 391:0 392:0 393:0 394:0 395:0 396:0 397:0 398:0 399:0 400:0 
1.23249089202651 1.618073354968511 3.341537458752185 1.237756369653748 2.674345730198535 2.421842729982812 3.938196841995324 1.757257696150227 0.6648620349317358 1.544542043799747 1.349947882443416 1.519206142549045 0.9112065711697055 4.483113635725956 3.061529440274535 1.44746761712463 0.5282187556443392 1.300901610751721 1.631533317265563 1.572095396699356 1.615284016538056 1.539216570585475 0.6188063808886815 1.36521519577741 1.883776983065027 1:0 2:0 3:0 4:0 5:0 6:0 7:0 8:0 9:0 10:0 11:0 12:0 13:0 14:0 15:0 16:0 17:0 18:0 19:0 20:0 21:0 22:0 23:0 24:0 25:0 26:0 27:0 28:0 29:0 30:0 31:0 32:0 33:0 34:0 35:0 36:1 37:0 38:1 39:0 40:0 41:0 42:0 43:0 44:0 45:0 46:0 47:0 48:0 49:0 50:0 51:0 52:0 53:0 54:0 55:0 56:16 57:157 58:0 59:0 60:0 61:0 62:0 63:0 64:0 65:0 66:0 67:0 68:0 69:0 70:0 71:0 72:0 73:0 74:0 75:0 76:154 77:167 78:0 79:0 80:0 81:0 82:0 83:0 84:0 85:0 86:0 87:0 88:0 89:0 90:0 91:0 92:0 93:0 94:0 95:0 96:235 97:166 98:0 99:0 100:0 101:0 102:0 103:0 104:12 105:0 106:0 107:0 108:0 109:0 110:0 111:0 112:0 113:0 114:0 115:0 116:233 117:166 118:0 119:0 120:0 121:0 122:0 123:31 124:224 125:0 126:0 127:0 128:0 129:0 130:0 131:0 132:0 133:0 134:0 135:0 136:244 137:166 138:0 139:0 140:0 141:0 142:22 143:255 144:99 145:0 146:0 147:0 148:0 149:0 150:0 151:0 152:0 153:0 154:0 155:142 156:255 157:166 158:0 159:0 160:0 161:0 162:216 163:120 164:0 165:0 166:0 167:0 168:0 169:0 170:0 171:0 172:1 173:21 174:251 175:228 176:223 177:166 178:0 179:0 180:0 181:32 182:204 183:0 184:0 185:0 186:0 187:0 188:0 189:0 190:0 191:19 192:178 193:255 194:239 195:0 196:232 197:166 198:0 199:0 200:0 201:191 202:116 203:0 204:0 205:0 206:0 207:0 208:0 209:64 210:187 211:255 212:255 213:159 214:0 215:0 216:233 217:168 218:0 219:0 220:0 221:251 222:82 223:0 224:0 225:1 226:0 227:53 228:238 229:253 230:255 231:225 232:33 233:0 234:0 235:0 236:236 237:146 238:0 239:0 240:0 241:255 242:76 243:0 244:0 245:63 246:217 247:255 248:255 249:175 250:66 251:0 252:0 253:0 254:0 255:0 256:243 257:75 258:0 259:0 260:0 261:255 262:67 263:13 264:177 265:255 266:242 267:180 268:0 269:0 270:0 271:0 272:0 273:0 274:0 275:0 276:255 277:0 278:0 279:0 280:0 281:255 282:60 283:248 284:255 285:143 286:18 287:0 288:0 289:0 290:0 291:0 292:0 293:0 294:0 295:152 296:184 297:0 298:0 299:0 300:0 301:255 302:255 303:165 304:8 305:0 306:1 307:0 308:0 309:0 310:0 311:0 312:0 313:0 314:70 315:255 316:0 317:0 318:0 319:0 320:0 321:255 322:123 323:0 324:0 325:0 326:0 327:0 328:0 329:0 330:0 331:0 332:0 333:0 334:119 335:9 336:1 337:0 338:0 339:0 340:0 341:255 342:65 343:1 344:0 345:0 346:0 347:0 348:0 349:0 350:0 351:0 352:0 353:1 354:0 355:0 356:0 357:0 358:0 359:0 360:0 361:255 362:69 363:0 364:0 365:0 366:0 367:0 368:0 369:0 370:0 371:0 372:0 373:0 374:0 375:0 376:0 377:0 378:0 379:0 380:0 381:255 382:65 383:0 384:0 385:0 386:0 387:0 388:0 389:0 390:0 391:0 392:0 393:0 394:0 395:0 396:0 397:0 398:0 399:0 400:0 
0 0 0.6638059924280901 0 0 0.2843876599142751 0 0 0 0 0 0 0 0 0 0 0 0 0 0 0 0 0 0 0 1:0 2:0 3:0 4:0 5:0 6:0 7:0 8:0 9:0 10:0 11:0 12:0 13:0 14:0 15:0 16:0 17:0 18:0 19:0 20:0 21:0 22:0 23:0 24:0 25:0 26:0 27:0 28:0 29:0 30:0 31:0 32:0 33:0 34:0 35:0 36:0 37:0 38:0 39:0 40:0 41:0 42:0 43:0 44:0 45:0 46:0 47:0 48:0 49:0 50:0 51:0 52:0 53:0 54:0 55:0 56:0 57:0 58:0 59:0 60:0 61:0 62:0 63:0 64:0 65:0 66:0 67:0 68:0 69:0 70:0 71:0 72:0 73:0 74:0 75:0 76:0 77:0 78:0 79:9 80:28 81:0 82:0 83:0 84:0 85:0 86:0 87:0 88:0 89:0 90:0 91:0 92:0 93:0 94:0 95:0 96:0 97:0 98:0 99:166 100:202 101:0 102:0 103:0 104:0 105:0 106:0 107:0 108:0 109:0 110:0 111:0 112:0 113:0 114:0 115:0 116:0 117:0 118:0 119:176 120:192 121:0 122:0 123:0 124:0 125:0 126:0 127:0 128:0 129:0 130:0 131:0 132:0 133:0 134:0 135:2 136:20 137:51 138:172 139:255 140:192 141:3 142:54 143:0 144:0 145:0 146:0 147:0 148:0 149:0 150:0 151:0 152:0 153:39 154:120 155:196 156:229 157:255 158:255 159:255 160:192 161:35 162:255 163:0 164:0 165:0 166:0 167:0 168:8 169:36 170:77 171:183 172:255 173:255 174:255 175:254 176:255 177:255 178:255 179:255 180:192 181:32 182:255 183:0 184:0 185:0 186:67 187:166 188:211 189:247 190:255 191:255 192:255 193:255 194:255 195:255 196:255 197:174 198:109 199:250 200:192 201:32 202:255 203:220 204:215 205:255 206:255 207:255 208:254 209:255 210:255 211:255 212:233 213:195 214:129 215:24 216:0 217:0 218:0 219:163 220:192 221:32 222:255 223:255 224:255 225:255 226:255 227:255 228:255 229:230 230:141 231:48 232:26 233:0 234:0 235:0 236:0 237:0 238:0 239:169 240:215 241:32 242:255 243:255 244:255 245:212 246:172 247:81 248:0 249:0 250:0 251:0 252:0 253:0 254:0 255:0 256:0 257:0 258:0 259:0 260:0 261:32 262:255 263:168 264:36 265:12 266:0 267:0 268:0 269:0 270:0 271:0 272:0 273:0 274:0 275:0 276:0 277:0 278:0 279:0 280:0 281:32 282:255 283:0 284:0 285:0 286:0 287:0 288:0 289:0 290:0 291:0 292:0 293:0 294:0 295:0 296:0 297:0 298:0 299:0 300:0 301:34 302:255 303:0 304:0 305:0 306:0 307:0 308:0 309:0 310:0 311:0 312:0 313:0 314:0 315:0 316:0 317:0 318:0 319:0 320:0 321:0 322:0 323:1 324:0 325:0 326:0 327:0 328:0 329:0 330:0 331:0 332:0 333:0 334:0 335:0 336:0 337:0 338:0 339:0 340:0 341:0 342:0 343:0 344:0 345:0 346:0 347:0 348:0 349:0 350:0 351:0 352:0 353:0 354:0 355:0 356:0 357:0 358:0 359:0 360:0 361:0 362:0 363:0 364:0 365:0 366:0 367:0 368:0 369:0 370:0 371:0 372:0 373:0 374:0 375:0 376:0 377:0 378:0 379:0 380:0 381:0 382:0 383:0 384:0 385:0 386:0 387:0 388:0 389:0 390:0 391:0 392:0 393:0 394:0 395:0 396:0 397:0 398:0 399:0 400:0 
0 0 0.990892559534724 0 0 0 0 6.393787939703751 0 0 0 0 0 1.409259778229622 0 0 0 0 0 0 0 0 0 0 0 1:0 2:0 3:0 4:0 5:0 6:0 7:0 8:0 9:0 10:0 11:0 12:0 13:0 14:0 15:0 16:0 17:0 18:0 19:0 20:0 21:0 22:0 23:0 24:0 25:0 26:0 27:0 28:0 29:0 30:0 31:0 32:0 33:0 34:0 35:0 36:0 37:0 38:0 39:0 40:0 41:0 42:0 43:0 44:0 45:0 46:0 47:0 48:0 49:0 50:0 51:0 52:0 53:0 54:0 55:0 56:0 57:0 58:0 59:0 60:0 61:0 62:0 63:0 64:0 65:0 66:0 67:0 68:0 69:0 70:0 71:0 72:0 73:0 74:0 75:0 76:0 77:0 78:0 79:35 80:109 81:0 82:0 83:0 84:0 85:0 86:0 87:0 88:0 89:0 90:0 91:0 92:0 93:0 94:0 95:0 96:0 97:0 98:0 99:108 100:201 101:0 102:0 103:0 104:0 105:0 106:0 107:0 108:0 109:0 110:0 111:0 112:0 113:0 114:0 115:0 116:0 117:0 118:0 119:122 120:192 121:0 122:0 123:0 124:0 125:0 126:0 127:0 128:0 129:0 130:0 131:0 132:0 133:0 134:0 135:0 136:0 137:0 138:70 139:229 140:192 141:0 142:0 143:0 144:0 145:0 146:0 147:0 148:0 149:0 150:0 151:0 152:0 153:0 154:16 155:105 156:206 157:245 158:250 159:255 160:192 161:140 162:149 163:0 164:0 165:0 166:0 167:0 168:0 169:19 170:56 171:109 172:173 173:249 174:255 175:255 176:255 177:255 178:255 179:255 180:192 181:145 182:151 183:0 184:0 185:0 186:35 187:115 188:193 189:224 190:244 191:255 192:255 193:255 194:255 195:255 196:215 197:139 198:51 199:147 200:192 201:144 202:200 203:99 204:193 205:255 206:255 207:255 208:255 209:255 210:254 211:229 212:213 213:143 214:61 215:0 216:0 217:0 218:0 219:109 220:195 221:144 222:255 223:255 224:255 225:255 226:255 227:255 228:201 229:125 230:76 231:30 232:0 233:0 234:0 235:0 236:0 237:0 238:0 239:80 240:152 241:144 242:255 243:248 244:224 245:143 246:43 247:0 248:0 249:0 250:0 251:0 252:0 253:0 254:0 255:0 256:0 257:0 258:0 259:0 260:0 261:144 262:229 263:32 264:0 265:0 266:0 267:0 268:0 269:0 270:0 271:0 272:0 273:0 274:0 275:0 276:0 277:0 278:0 279:0 280:0 281:144 282:156 283:0 284:0 285:0 286:0 287:0 288:0 289:0 290:0 291:0 292:0 293:0 294:0 295:0 296:0 297:0 298:0 299:0 300:0 301:151 302:148 303:0 304:0 305:0 306:0 307:0 308:0 309:0 310:0 311:0 312:0 313:0 314:0 315:0 316:0 317:0 318:0 319:0 320:0 321:44 322:46 323:0 324:0 325:0 326:0 327:0 328:0 329:0 330:0 331:0 332:0 333:0 334:0 335:0 336:0 337:0 338:0 339:0 340:0 341:0 342:0 343:0 344:0 345:0 346:0 347:0 348:0 349:0 350:0 351:0 352:0 353:0 354:0 355:0 356:0 357:0 358:0 359:0 360:0 361:0 362:0 363:0 364:0 365:0 366:0 367:0 368:0 369:0 370:0 371:0 372:0 373:0 374:0 375:0 376:0 377:0 378:0 379:0 380:0 381:0 382:0 383:0 384:0 385:0 386:0 387:0 388:0 389:0 390:0 391:0 392:0 393:0 394:0 395:0 396:0 397:0 398:0 399:0 400:0 
1.647659146295481 0 0 0 0 0 0 0 0.6591859303950318 0 0 0 0 0 0 0 0 0 0 0 0 0 0 0 0 1:0 2:0 3:0 4:0 5:0 6:0 7:0 8:0 9:0 10:0 11:0 12:0 13:0 14:0 15:0 16:0 17:0 18:0 19:0 20:0 21:0 22:0 23:0 24:0 25:0 26:0 27:0 28:0 29:0 30:0 31:0 32:0 33:0 34:0 35:0 36:0 37:0 38:0 39:0 40:0 41:0 42:0 43:0 44:0 45:0 46:0 47:0 48:0 49:0 50:0 51:0 52:0 53:0 54:0 55:0 56:0 57:0 58:0 59:0 60:0 61:0 62:0 63:0 64:0 65:0 66:0 67:0 68:0 69:0 70:0 71:0 72:0 73:0 74:0 75:0 76:0 77:0 78:0 79:0 80:0 81:0 82:0 83:0 84:0 85:0 86:0 87:0 88:0 89:0 90:0 91:0 92:0 93:0 94:0 95:0 96:0 97:0 98:0 99:92 100:143 101:0 102:0 103:0 104:0 105:0 106:0 107:0 108:0 109:0 110:0 111:0 112:0 113:0 114:0 115:0 116:0 117:0 118:0 119:147 120:192 121:0 122:0 123:0 124:0 125:0 126:0 127:0 128:0 129:0 130:0 131:0 132:0 133:0 134:0 135:0 136:14 137:55 138:109 139:228 140:192 141:15 142:153 143:10 144:0 145:0 146:0 147:0 148:0 149:0 150:0 151:0 152:27 153:104 154:173 155:234 156:246 157:249 158:253 159:255 160:192 161:25 162:255 163:6 164:0 165:5 166:42 167:70 168:109 169:166 170:215 171:255 172:255 173:255 174:255 175:255 176:255 177:255 178:237 179:255 180:192 181:24 182:255 183:155 184:197 185:217 186:236 187:253 188:255 189:255 190:255 191:255 192:255 193:255 194:230 195:168 196:95 197:51 198:28 199:166 200:192 201:24 202:255 203:255 204:255 205:255 206:255 207:243 208:226 209:208 210:168 211:95 212:37 213:0 214:0 215:0 216:0 217:0 218:0 219:121 220:180 221:24 222:255 223:251 224:186 225:138 226:84 227:55 228:24 229:0 230:0 231:0 232:0 233:0 234:0 235:0 236:0 237:0 238:0 239:21 240:35 241:24 242:255 243:18 244:0 245:0 246:0 247:0 248:0 249:0 250:0 251:0 252:0 253:0 254:0 255:0 256:0 257:0 258:0 259:0 260:0 261:27 262:255 263:19 264:0 265:0 266:0 267:0 268:0 269:0 270:0 271:0 272:0 273:0 274:0 275:0 276:0 277:0 278:0 279:0 280:0 281:4 282:40 283:3 284:0 285:0 286:0 287:0 288:0 289:0 290:0 291:0 292:0 293:0 294:0 295:0 296:0 297:0 298:0 299:0 300:0 301:0 302:0 303:0 304:0 305:0 306:0 307:0 308:0 309:0 310:0 311:0 312:0 313:0 314:0 315:0 316:0 317:0 318:0 319:0 320:0 321:0 322:0 323:0 324:0 325:0 326:0 327:0 328:0 329:0 330:0 331:0 332:0 333:0 334:0 335:0 336:0 337:0 338:0 339:0 340:0 341:0 342:0 343:0 344:0 345:0 346:0 347:0 348:0 349:0 350:0 351:0 352:0 353:0 354:0 355:0 356:0 357:0 358:0 359:0 360:0 361:0 362:0 363:0 364:0 365:0 366:0 367:0 368:0 369:0 370:0 371:0 372:0 373:0 374:0 375:0 376:0 377:0 378:0 379:0 380:0 381:0 382:0 383:0 384:0 385:0 386:0 387:0 388:0 389:0 390:0 391:0 392:0 393:0 394:0 395:0 396:0 397:0 398:0 399:0 400:0 
0 0 0 0 0 2.987531683169028 0 0 0 0 0 0 0 0 0 0 0 0 0 0 0 0 0.7672250687160357 0 0 1:0 2:0 3:0 4:0 5:0 6:0 7:0 8:0 9:0 10:0 11:0 12:0 13:0 14:0 15:0 16:0 17:0 18:0 19:0 20:0 21:0 22:0 23:0 24:0 25:0 26:0 27:0 28:0 29:0 30:0 31:0 32:0 33:0 34:0 35:0 36:0 37:0 38:0 39:0 40:0 41:0 42:0 43:0 44:0 45:0 46:0 47:0 48:0 49:0 50:0 51:0 52:0 53:0 54:0 55:0 56:0 57:0 58:0 59:0 60:0 61:0 62:0 63:0 64:0 65:0 66:0 67:0 68:0 69:0 70:0 71:0 72:0 73:0 74:0 75:0 76:0 77:0 78:0 79:0 80:0 81:0 82:0 83:0 84:0 85:0 86:0 87:0 88:0 89:0 90:0 91:0 92:0 93:0 94:0 95:0 96:0 97:0 98:0 99:0 100:0 101:0 102:0 103:0 104:0 105:0 106:0 107:0 108:0 109:0 110:0 111:0 112:0 113:0 114:0 115:0 116:0 117:0 118:0 119:0 120:0 121:0 122:0 123:0 124:0 125:0 126:0 127:0 128:0 129:0 130:0 131:0 132:0 133:0 134:0 135:0 136:0 137:0 138:0 139:0 140:0 141:0 142:0 143:0 144:0 145:0 146:0 147:0 148:0 149:0 150:0 151:0 152:0 153:0 154:0 155:0 156:0 157:0 158:0 159:0 160:0 161:73 162:194 163:182 164:182 165:182 166:182 167:182 168:182 169:182 170:182 171:182 172:182 173:182 174:182 175:182 176:182 177:182 178:182 179:187 180:136 181:106 182:255 183:255 184:255 185:255 186:255 187:255 188:255 189:255 190:255 191:255 192:255 193:255 194:255 195:255 196:255 197:255 198:255 199:255 200:196 201:83 202:219 203:204 204:204 205:204 206:204 207:204 208:204 209:204 210:204 211:204 212:204 213:204 214:204 215:204 216:204 217:204 218:204 219:210 220:154 221:2 222:4 223:4 224:4 225:4 226:4 227:4 228:4 229:4 230:4 231:4 232:4 233:4 234:4 235:4 236:4 237:4 238:4 239:4 240:3 241:0 242:0 243:0 244:0 245:0 246:0 247:0 248:0 249:0 250:0 251:0 252:0 253:0 254:0 255:0 256:0 257:0 258:0 259:0 260:0 261:0 262:0 263:0 264:0 265:0 266:0 267:0 268:0 269:0 270:0 271:0 272:0 273:0 274:0 275:0 276:0 277:0 278:0 279:0 280:0 281:0 282:0 283:0 284:0 285:0 286:0 287:0 288:0 289:0 290:0 291:0 292:0 293:0 294:0 295:0 296:0 297:0 298:0 299:0 300:0 301:0 302:0 303:0 304:0 305:0 306:0 307:0 308:0 309:0 310:0 311:0 312:0 313:0 314:0 315:0 316:0 317:0 318:0 319:0 320:0 321:0 322:0 323:0 324:0 325:0 326:0 327:0 328:0 329:0 330:0 331:0 332:0 333:0 334:0 335:0 336:0 337:0 338:0 339:0 340:0 341:0 342:0 343:0 344:0 345:0 346:0 347:0 348:0 349:0 350:0 351:0 352:0 353:0 354:0 355:0 356:0 357:0 358:0 359:0 360:0 361:0 362:0 363:0 364:0 365:0 366:0 367:0 368:0 369:0 370:0 371:0 372:0 373:0 374:0 375:0 376:0 377:0 378:0 379:0 380:0 381:0 382:0 383:0 384:0 385:0 386:0 387:0 388:0 389:0 390:0 391:0 392:0 393:0 394:0 395:0 396:0 397:0 398:0 399:0 400:0 
0.3184967612466594 0 0 1.285409412050992 1.370689442889841 2.934805073882969 0.169241470234643 0 2.969453040683532 0.4039285209037642 0.5883295867316264 0.06759391811144405 0.2179173224371368 10.06102918897652 5.106697464076444 0.7237048192199181 0 0.1740890039799882 0.9664999934571418 0.6036308967106221 0 0 0.9031503564521778 0.01321582750532356 0.08876757729117415 1:0 2:0 3:0 4:0 5:0 6:0 7:0 8:0 9:0 10:0 11:0 12:0 13:0 14:0 15:0 16:0 17:0 18:0 19:0 20:0 21:0 22:0 23:0 24:0 25:0 26:0 27:0 28:0 29:0 30:0 31:0 32:0 33:0 34:0 35:0 36:0 37:0 38:0 39:0 40:0 41:0 42:0 43:0 44:0 45:0 46:0 47:0 48:0 49:0 50:0 51:0 52:0 53:0 54:0 55:0 56:0 57:0 58:0 59:0 60:0 61:85 62:87 63:0 64:0 65:0 66:0 67:0 68:0 69:0 70:0 71:0 72:0 73:0 74:0 75:0 76:0 77:0 78:0 79:91 80:76 81:199 82:192 83:0 84:0 85:0 86:0 87:0 88:0 89:0 90:0 91:0 92:0 93:0 94:0 95:0 96:0 97:0 98:0 99:193 100:191 101:201 102:192 103:0 104:0 105:0 106:0 107:0 108:0 109:0 110:0 111:0 112:0 113:0 114:0 115:0 116:0 117:0 118:0 119:193 120:193 121:200 122:191 123:0 124:0 125:0 126:0 127:0 128:0 129:0 130:0 131:0 132:0 133:0 134:0 135:0 136:0 137:0 138:0 139:192 140:192 141:200 142:191 143:0 144:0 145:0 146:0 147:0 148:0 149:0 150:0 151:0 152:0 153:0 154:0 155:0 156:0 157:0 158:0 159:192 160:192 161:200 162:207 163:31 164:57 165:57 166:57 167:57 168:57 169:57 170:57 171:57 172:57 173:57 174:57 175:57 176:57 177:57 178:31 179:208 180:192 181:200 182:255 183:255 184:255 185:255 186:255 187:255 188:255 189:255 190:255 191:255 192:255 193:255 194:255 195:255 196:255 197:255 198:255 199:255 200:192 201:200 202:216 203:66 204:88 205:88 206:88 207:88 208:88 209:88 210:88 211:88 212:88 213:88 214:88 215:88 216:88 217:88 218:66 219:217 220:192 221:200 222:188 223:0 224:0 225:0 226:0 227:0 228:0 229:0 230:0 231:0 232:0 233:0 234:0 235:0 236:0 237:0 238:0 239:189 240:192 241:200 242:191 243:0 244:0 245:0 246:0 247:0 248:0 249:0 250:0 251:0 252:0 253:0 254:0 255:0 256:0 257:0 258:0 259:192 260:192 261:200 262:191 263:0 264:0 265:0 266:0 267:0 268:0 269:0 270:0 271:0 272:0 273:0 274:0 275:0 276:0 277:0 278:0 279:192 280:192 281:197 282:189 283:0 284:0 285:0 286:0 287:0 288:0 289:0 290:0 291:0 292:0 293:0 294:0 295:0 296:0 297:0 298:0 299:191 300:189 301:105 302:106 303:0 304:0 305:0 306:0 307:0 308:0 309:0 310:0 311:0 312:0 313:0 314:0 315:0 316:0 317:0 318:0 319:111 320:97 321:0 322:0 323:1 324:0 325:0 326:0 327:0 328:0 329:0 330:0 331:0 332:0 333:0 334:0 335:0 336:0 337:0 338:1 339:0 340:0 341:0 342:0 343:0 344:0 345:0 346:0 347:0 348:0 349:0 350:0 351:0 352:0 353:0 354:0 355:0 356:0 357:0 358:0 359:0 360:0 361:0 362:0 363:0 364:0 365:0 366:0 367:0 368:0 369:0 370:0 371:0 372:0 373:0 374:0 375:0 376:0 377:0 378:0 379:0 380:0 381:0 382:0 383:0 384:0 385:0 386:0 387:0 388:0 389:0 390:0 391:0 392:0 393:0 394:0 395:0 396:0 397:0 398:0 399:0 400:0 
0 0 0 0 0.623659668934772 0 0 0 0 0 0.1331369594082575 0 0 2.362322910064097 0 0 0 0 0 0 0 0 0.2619147893853026 0 0 1:0 2:0 3:0 4:0 5:0 6:0 7:0 8:0 9:0 10:0 11:0 12:0 13:0 14:0 15:0 16:0 17:0 18:0 19:0 20:0 21:0 22:0 23:0 24:0 25:0 26:0 27:0 28:0 29:0 30:0 31:0 32:0 33:0 34:0 35:0 36:0 37:0 38:0 39:0 40:0 41:0 42:0 43:0 44:0 45:0 46:0 47:0 48:0 49:0 50:0 51:0 52:0 53:0 54:0 55:0 56:0 57:0 58:0 59:0 60:0 61:0 62:0 63:0 64:0 65:0 66:0 67:0 68:0 69:0 70:0 71:0 72:0 73:0 74:0 75:0 76:0 77:0 78:0 79:0 80:0 81:0 82:0 83:1 84:0 85:0 86:0 87:0 88:0 89:0 90:0 91:0 92:0 93:0 94:0 95:0 96:0 97:0 98:0 99:2 100:0 101:15 102:82 103:0 104:0 105:0 106:0 107:0 108:0 109:0 110:0 111:0 112:0 113:0 114:0 115:0 116:0 117:0 118:0 119:0 120:125 121:25 122:156 123:0 124:0 125:0 126:0 127:0 128:0 129:0 130:0 131:0 132:0 133:0 134:0 135:0 136:0 137:0 138:0 139:0 140:197 141:24 142:235 143:22 144:0 145:0 146:0 147:0 148:0 149:0 150:0 151:0 152:0 153:0 154:0 155:0 156:0 157:0 158:0 159:111 160:192 161:24 162:255 163:246 164:243 165:242 166:242 167:242 168:242 169:242 170:242 171:242 172:242 173:242 174:242 175:242 176:242 177:242 178:244 179:255 180:192 181:24 182:255 183:255 184:255 185:255 186:255 187:255 188:255 189:255 190:255 191:255 192:255 193:255 194:255 195:255 196:255 197:255 198:255 199:255 200:192 201:24 202:255 203:255 204:255 205:255 206:255 207:255 208:255 209:255 210:255 211:255 212:255 213:255 214:255 215:255 216:255 217:255 218:255 219:255 220:192 221:24 222:255 223:62 224:0 225:0 226:0 227:0 228:0 229:0 230:0 231:0 232:0 233:0 234:0 235:0 236:0 237:0 238:13 239:163 240:192 241:25 242:163 243:0 244:0 245:0 246:0 247:0 248:0 249:0 250:0 251:0 252:0 253:0 254:0 255:0 256:0 257:0 258:0 259:0 260:196 261:22 262:123 263:0 264:0 265:0 266:0 267:0 268:0 269:0 270:0 271:0 272:0 273:0 274:0 275:0 276:0 277:0 278:0 279:0 280:179 281:0 282:0 283:1 284:0 285:0 286:0 287:0 288:0 289:0 290:0 291:0 292:0 293:0 294:0 295:0 296:0 297:0 298:0 299:2 300:0 301:0 302:0 303:0 304:0 305:0 306:0 307:0 308:0 309:0 310:0 311:0 312:0 313:0 314:0 315:0 316:0 317:0 318:0 319:0 320:0 321:0 322:0 323:0 324:0 325:0 326:0 327:0 328:0 329:0 330:0 331:0 332:0 333:0 334:0 335:0 336:0 337:0 338:0 339:0 340:0 341:0 342:0 343:0 344:0 345:0 346:0 347:0 348:0 349:0 350:0 351:0 352:0 353:0 354:0 355:0 356:0 357:0 358:0 359:0 360:0 361:0 362:0 363:0 364:0 365:0 366:0 367:0 368:0 369:0 370:0 371:0 372:0 373:0 374:0 375:0 376:0 377:0 378:0 379:0 380:0 381:0 382:0 383:0 384:0 385:0 386:0 387:0 388:0 389:0 390:0 391:0 392:0 393:0 394:0 395:0 396:0 397:0 398:0 399:0 400:0 
0 0 0 0 0 0 0 0 0.5994980888199239 0 0 0 0 0 0 0 0 0 0 0 0 0 0.008545848821639602 0 0 1:0 2:0 3:0 4:0 5:0 6:0 7:0 8:0 9:0 10:0 11:0 12:0 13:0 14:0 15:0 16:0 17:0 18:0 19:0 20:0 21:0 22:0 23:0 24:0 25:0 26:0 27:0 28:0 29:0 30:0 31:0 32:0 33:0 34:0 35:0 36:0 37:0 38:0 39:0 40:0 41:0 42:0 43:0 44:0 45:0 46:0 47:0 48:0 49:0 50:0 51:0 52:0 53:0 54:0 55:0 56:0 57:0 58:0 59:0 60:0 61:0 62:0 63:0 64:0 65:0 66:0 67:0 68:0 69:0 70:0 71:0 72:0 73:0 74:0 75:0 76:0 77:0 78:0 79:0 80:0 81:0 82:1 83:0 84:0 85:0 86:0 87:0 88:0 89:0 90:0 91:0 92:0 93:0 94:0 95:0 96:0 97:0 98:0 99:2 100:0 101:147 102:0 103:0 104:0 105:0 106:0 107:0 108:0 109:0 110:0 111:0 112:0 113:0 114:0 115:0 116:0 117:0 118:0 119:0 120:154 121:185 122:19 123:0 124:0 125:0 126:0 127:0 128:0 129:0 130:0 131:0 132:0 133:0 134:0 135:0 136:0 137:0 138:0 139:6 140:193 141:184 142:135 143:0 144:0 145:0 146:0 147:0 148:0 149:0 150:0 151:0 152:0 153:0 154:0 155:0 156:0 157:0 158:0 159:126 160:192 161:184 162:255 163:244 164:243 165:243 166:243 167:243 168:243 169:243 170:243 171:243 172:243 173:243 174:243 175:243 176:243 177:243 178:244 179:255 180:192 181:184 182:255 183:255 184:255 185:255 186:255 187:255 188:255 189:255 190:255 191:255 192:255 193:255 194:255 195:255 196:255 197:255 198:255 199:255 200:192 201:184 202:255 203:255 204:255 205:255 206:255 207:255 208:255 209:255 210:255 211:255 212:255 213:255 214:255 215:255 216:255 217:255 218:255 219:255 220:192 221:184 222:177 223:20 224:0 225:0 226:0 227:0 228:0 229:0 230:0 231:0 232:0 233:0 234:0 235:0 236:0 237:0 238:26 239:178 240:192 241:186 242:20 243:0 244:0 245:0 246:0 247:0 248:0 249:0 250:0 251:0 252:0 253:0 254:0 255:0 256:0 257:0 258:0 259:14 260:194 261:193 262:0 263:0 264:0 265:0 266:0 267:0 268:0 269:0 270:0 271:0 272:0 273:0 274:0 275:0 276:0 277:0 278:0 279:0 280:202 281:0 282:1 283:0 284:0 285:0 286:0 287:0 288:0 289:0 290:0 291:0 292:0 293:0 294:0 295:0 296:0 297:0 298:0 299:2 300:0 301:0 302:0 303:0 304:0 305:0 306:0 307:0 308:0 309:0 310:0 311:0 312:0 313:0 314:0 315:0 316:0 317:0 318:0 319:0 320:0 321:0 322:0 323:0 324:0 325:0 326:0 327:0 328:0 329:0 330:0 331:0 332:0 333:0 334:0 335:0 336:0 337:0 338:0 339:0 340:0 341:0 342:0 343:0 344:0 345:0 346:0 347:0 348:0 349:0 350:0 351:0 352:0 353:0 354:0 355:0 356:0 357:0 358:0 359:0 360:0 361:0 362:0 363:0 364:0 365:0 366:0 367:0 368:0 369:0 370:0 371:0 372:0 373:0 374:0 375:0 376:0 377:0 378:0 379:0 380:0 381:0 382:0 383:0 384:0 385:0 386:0 387:0 388:0 389:0 390:0 391:0 392:0 393:0 394:0 395:0 396:0 397:0 398:0 399:0 400:0 
0 0 0 0 0 0 0 0 0 0 0 0 0 1.637476976636697 0 0 0 0 0 0 0 0 0 0 0 1:0 2:0 3:0 4:0 5:0 6:0 7:0 8:0 9:0 10:0 11:0 12:0 13:0 14:0 15:0 16:0 17:0 18:0 19:0 20:0 21:0 22:0 23:0 24:0 25:0 26:0 27:0 28:0 29:0 30:0 31:0 32:0 33:0 34:0 35:0 36:0 37:0 38:0 39:0 40:0 41:0 42:0 43:0 44:0 45:0 46:0 47:0 48:0 49:0 50:0 51:0 52:0 53:0 54:0 55:0 56:0 57:0 58:0 59:0 60:0 61:0 62:0 63:0 64:0 65:0 66:0 67:0 68:0 69:0 70:0 71:0 72:0 73:0 74:0 75:0 76:0 77:0 78:0 79:0 80:0 81:0 82:0 83:0 84:0 85:0 86:0 87:0 88:0 89:0 90:0 91:0 92:0 93:0 94:0 95:0 96:0 97:0 98:0 99:0 100:0 101:7 102:5 103:0 104:0 105:0 106:0 107:0 108:0 109:0 110:0 111:0 112:0 113:0 114:0 115:0 116:0 117:0 118:0 119:4 120:6 121:118 122:89 123:0 124:0 125:0 126:0 127:0 128:0 129:0 130:0 131:0 132:0 133:0 134:0 135:0 136:0 137:0 138:0 139:63 140:142 141:135 142:123 143:0 144:0 145:0 146:0 147:0 148:0 149:0 150:0 151:0 152:0 153:0 154:0 155:0 156:0 157:0 158:0 159:105 160:174 161:124 162:193 163:62 164:63 165:63 166:63 167:63 168:63 169:63 170:63 171:63 172:63 173:63 174:63 175:63 176:63 177:63 178:66 179:189 180:159 181:116 182:255 183:248 184:247 185:247 186:247 187:247 188:247 189:247 190:247 191:247 192:247 193:247 194:247 195:247 196:247 197:247 198:250 199:255 200:160 201:111 202:255 203:246 204:241 205:242 206:242 207:242 208:242 209:242 210:242 211:242 212:242 213:242 214:242 215:242 216:242 217:242 218:242 219:255 220:160 221:110 222:213 223:59 224:52 225:53 226:53 227:53 228:53 229:53 230:53 231:53 232:53 233:53 234:53 235:53 236:53 237:53 238:51 239:166 240:159 241:126 242:144 243:0 244:0 245:0 246:0 247:0 248:0 249:0 250:0 251:0 252:0 253:0 254:0 255:0 256:0 257:0 258:0 259:85 260:173 261:103 262:94 263:0 264:0 265:0 266:0 267:0 268:0 269:0 270:0 271:0 272:0 273:0 274:0 275:0 276:0 277:0 278:0 279:51 280:156 281:4 282:6 283:0 284:0 285:0 286:0 287:0 288:0 289:0 290:0 291:0 292:0 293:0 294:0 295:0 296:0 297:0 298:0 299:2 300:9 301:0 302:0 303:0 304:0 305:0 306:0 307:0 308:0 309:0 310:0 311:0 312:0 313:0 314:0 315:0 316:0 317:0 318:0 319:0 320:0 321:0 322:0 323:0 324:0 325:0 326:0 327:0 328:0 329:0 330:0 331:0 332:0 333:0 334:0 335:0 336:0 337:0 338:0 339:0 340:0 341:0 342:0 343:0 344:0 345:0 346:0 347:0 348:0 349:0 350:0 351:0 352:0 353:0 354:0 355:0 356:0 357:0 358:0 359:0 360:0 361:0 362:0 363:0 364:0 365:0 366:0 367:0 368:0 369:0 370:0 371:0 372:0 373:0 374:0 375:0 376:0 377:0 378:0 379:0 380:0 381:0 382:0 383:0 384:0 385:0 386:0 387:0 388:0 389:0 390:0 391:0 392:0 393:0 394:0 395:0 396:0 397:0 398:0 399:0 400:0 
0 0 0 0 0 0 0 0 1.380011003845672 0 0 0 0 0 0 0 0 0 0 0 0 0 0.3248048758573 0 0 1:0 2:0 3:0 4:0 5:0 6:0 7:0 8:0 9:0 10:0 11:0 12:0 13:0 14:0 15:0 16:0 17:0 18:0 19:0 20:0 21:0 22:0 23:0 24:0 25:0 26:0 27:0 28:0 29:0 30:0 31:0 32:0 33:0 34:0 35:0 36:0 37:0 38:0 39:0 40:0 41:0 42:0 43:0 44:0 45:0 46:0 47:0 48:0 49:0 50:0 51:0 52:0 53:0 54:0 55:0 56:0 57:0 58:0 59:0 60:0 61:0 62:0 63:0 64:0 65:0 66:0 67:0 68:0 69:0 70:0 71:0 72:0 73:0 74:0 75:0 76:0 77:0 78:0 79:0 80:0 81:0 82:0 83:0 84:0 85:0 86:0 87:0 88:0 89:0 90:0 91:0 92:0 93:0 94:0 95:0 96:0 97:0 98:0 99:0 100:0 101:0 102:0 103:0 104:0 105:0 106:0 107:0 108:0 109:0 110:0 111:0 112:0 113:0 114:0 115:0 116:0 117:0 118:0 119:0 120:0 121:0 122:0 123:0 124:0 125:0 126:0 127:0 128:0 129:0 130:0 131:0 132:0 133:0 134:0 135:0 136:0 137:0 138:0 139:0 140:0 141:0 142:0 143:0 144:0 145:0 146:0 147:0 148:0 149:0 150:0 151:0 152:0 153:0 154:0 155:0 156:0 157:0 158:0 159:0 160:0 161:164 162:198 163:195 164:195 165:195 166:195 167:195 168:195 169:195 170:195 171:195 172:195 173:195 174:195 175:195 176:195 177:195 178:195 179:200 180:146 181:220 182:255 183:255 184:255 185:255 186:255 187:255 188:255 189:255 190:255 191:255 192:255 193:255 194:255 195:255 196:255 197:255 198:255 199:255 200:196 201:175 202:211 203:207 204:207 205:207 206:207 207:207 208:207 209:207 210:207 211:207 212:207 213:207 214:207 215:207 216:207 217:207 218:207 219:213 220:156 221:5 222:6 223:6 224:6 225:6 226:6 227:6 228:6 229:6 230:6 231:6 232:6 233:6 234:6 235:6 236:6 237:6 238:6 239:7 240:5 241:0 242:0 243:0 244:0 245:0 246:0 247:0 248:0 249:0 250:0 251:0 252:0 253:0 254:0 255:0 256:0 257:0 258:0 259:0 260:0 261:0 262:0 263:0 264:0 265:0 266:0 267:0 268:0 269:0 270:0 271:0 272:0 273:0 274:0 275:0 276:0 277:0 278:0 279:0 280:0 281:0 282:0 283:0 284:0 285:0 286:0 287:0 288:0 289:0 290:0 291:0 292:0 293:0 294:0 295:0 296:0 297:0 298:0 299:0 300:0 301:0 302:0 303:0 304:0 305:0 306:0 307:0 308:0 309:0 310:0 311:0 312:0 313:0 314:0 315:0 316:0 317:0 318:0 319:0 320:0 321:0 322:0 323:0 324:0 325:0 326:0 327:0 328:0 329:0 330:0 331:0 332:0 333:0 334:0 335:0 336:0 337:0 338:0 339:0 340:0 341:0 342:0 343:0 344:0 345:0 346:0 347:0 348:0 349:0 350:0 351:0 352:0 353:0 354:0 355:0 356:0 357:0 358:0 359:0 360:0 361:0 362:0 363:0 364:0 365:0 366:0 367:0 368:0 369:0 370:0 371:0 372:0 373:0 374:0 375:0 376:0 377:0 378:0 379:0 380:0 381:0 382:0 383:0 384:0 385:0 386:0 387:0 388:0 389:0 390:0 391:0 392:0 393:0 394:0 395:0 396:0 397:0 398:0 399:0 400:0 
-0 0.09183856959833687 1.104096792644198 0 0 0 0 0 0 0 0.5722563771498945 0 0.1276655905382752 0 0 0 0 0 0 0 0 0 0.7347680632285019 1.789143481529134 0.374120815887068 1:0 2:0 3:0 4:0 5:0 6:0 7:0 8:0 9:0 10:0 11:0 12:0 13:0 14:0 15:0 16:0 17:0 18:0 19:0 20:0 21:0 22:0 23:0 24:0 25:0 26:0 27:0 28:0 29:0 30:0 31:0 32:0 33:0 34:0 35:0 36:0 37:0 38:0 39:0 40:0 41:0 42:0 43:0 44:0 45:0 46:0 47:0 48:0 49:0 50:0 51:0 52:0 53:0 54:0 55:0 56:0 57:0 58:0 59:0 60:0 61:0 62:0 63:0 64:0 65:0 66:0 67:0 68:0 69:0 70:0 71:0 72:0 73:0 74:0 75:0 76:0 77:0 78:0 79:0 80:0 81:0 82:0 83:0 84:0 85:0 86:0 87:0 88:0 89:0 90:0 91:0 92:0 93:0 94:0 95:0 96:0 97:0 98:0 99:0 100:0 101:0 102:38 103:46 104:46 105:46 106:46 107:46 108:46 109:46 110:46 111:46 112:46 113:46 114:46 115:46 116:46 117:46 118:46 119:47 120:34 121:0 122:231 123:242 124:241 125:241 126:241 127:241 128:241 129:241 130:241 131:241 132:241 133:241 134:241 135:241 136:241 137:241 138:241 139:249 140:182 141:9 142:255 143:254 144:255 145:255 146:255 147:255 148:255 149:255 150:255 151:255 152:254 153:255 154:255 155:255 156:255 157:255 158:255 159:255 160:205 161:39 162:255 163:255 164:29 165:56 166:56 167:56 168:56 169:56 170:50 171:147 172:255 173:197 174:46 175:56 176:56 177:56 178:56 179:58 180:42 181:60 182:255 183:251 184:0 185:0 186:0 187:0 188:0 189:0 190:0 191:127 192:255 193:177 194:0 195:0 196:0 197:0 198:0 199:0 200:0 201:46 202:255 203:255 204:0 205:0 206:0 207:0 208:0 209:0 210:0 211:161 212:255 213:163 214:0 215:0 216:0 217:0 218:0 219:0 220:0 221:0 222:255 223:255 224:64 225:0 226:0 227:0 228:0 229:0 230:18 231:225 232:255 233:110 234:0 235:0 236:0 237:0 238:0 239:0 240:0 241:0 242:213 243:255 244:232 245:54 246:0 247:0 248:0 249:0 250:192 251:255 252:252 253:60 254:0 255:0 256:0 257:0 258:0 259:0 260:0 261:0 262:81 263:254 264:255 265:255 266:255 267:216 268:253 269:255 270:255 271:255 272:182 273:0 274:0 275:0 276:0 277:0 278:0 279:0 280:0 281:0 282:0 283:120 284:255 285:255 286:255 287:255 288:255 289:255 290:255 291:222 292:2 293:0 294:0 295:0 296:0 297:0 298:0 299:0 300:0 301:0 302:1 303:0 304:15 305:142 306:229 307:232 308:230 309:190 310:66 311:0 312:1 313:0 314:0 315:0 316:0 317:0 318:0 319:0 320:0 321:0 322:0 323:0 324:0 325:0 326:0 327:0 328:0 329:0 330:0 331:0 332:0 333:0 334:0 335:0 336:0 337:0 338:0 339:0 340:0 341:0 342:0 343:0 344:0 345:0 346:0 347:0 348:0 349:0 350:0 351:0 352:0 353:0 354:0 355:0 356:0 357:0 358:0 359:0 360:0 361:0 362:0 363:0 364:0 365:0 366:0 367:0 368:0 369:0 370:0 371:0 372:0 373:0 374:0 375:0 376:0 377:0 378:0 379:0 380:0 381:0 382:0 383:0 384:0 385:0 386:0 387:0 388:0 389:0 390:0 391:0 392:0 393:0 394:0 395:0 396:0 397:0 398:0 399:0 400:0 
-0.5965433484707435 2.851788548745546 0 2.3401366967689 1.580063814751943 0.59120030757222 1.300023627152886 1.394447727111114 1.307610373375819 2.284167357490801 2.139879930320079 0.9401879336542478 1.886282204940706 0.9135094780030781 1.135399825601183 2.063078437679535 2.493516604477852 1.785817219600982 1.146252740092614 2.690381513940937 2.297053659424338 2.980792305210962 1.307496926774378 2.19605790532306 2.388317580119621 1:0 2:0 3:0 4:129 5:246 6:0 7:0 8:0 9:0 10:0 11:0 12:0 13:0 14:0 15:0 16:0 17:0 18:0 19:0 20:0 21:0 22:0 23:0 24:129 25:248 26:8 27:28 28:30 29:30 30:30 31:30 32:30 33:30 34:30 35:30 36:30 37:30 38:30 39:30 40:30 41:0 42:0 43:0 44:129 45:255 46:227 47:229 48:229 49:229 50:229 51:229 52:229 53:229 54:221 55:216 56:229 57:229 58:229 59:229 60:229 61:0 62:0 63:0 64:129 65:255 66:183 67:189 68:190 69:190 70:190 71:190 72:190 73:190 74:228 75:254 76:192 77:190 78:190 79:190 80:190 81:0 82:0 83:0 84:129 85:246 86:0 87:0 88:0 89:0 90:0 91:0 92:0 93:0 94:136 95:235 96:2 97:0 98:0 99:0 100:0 101:0 102:0 103:0 104:129 105:246 106:0 107:0 108:0 109:0 110:0 111:0 112:0 113:0 114:139 115:236 116:9 117:0 118:0 119:0 120:0 121:0 122:0 123:0 124:129 125:246 126:0 127:0 128:0 129:0 130:0 131:0 132:0 133:0 134:139 135:236 136:9 137:0 138:0 139:0 140:0 141:0 142:0 143:0 144:129 145:246 146:0 147:0 148:0 149:0 150:0 151:0 152:0 153:0 154:139 155:236 156:9 157:0 158:0 159:0 160:0 161:0 162:0 163:0 164:129 165:246 166:0 167:0 168:0 169:0 170:0 171:0 172:0 173:0 174:139 175:236 176:9 177:0 178:0 179:0 180:0 181:0 182:0 183:0 184:130 185:246 186:0 187:0 188:0 189:0 190:0 191:0 192:0 193:1 194:143 195:236 196:9 197:0 198:0 199:0 200:0 201:0 202:0 203:0 204:112 205:249 206:10 207:0 208:0 209:0 210:0 211:0 212:0 213:7 214:170 215:217 216:8 217:0 218:0 219:0 220:0 221:0 222:0 223:0 224:68 225:254 226:47 227:0 228:0 229:0 230:0 231:0 232:0 233:15 234:203 235:176 236:5 237:0 238:0 239:0 240:0 241:0 242:0 243:0 244:18 245:255 246:121 247:0 248:0 249:0 250:0 251:0 252:0 253:34 254:255 255:125 256:2 257:0 258:0 259:0 260:0 261:0 262:0 263:0 264:0 265:235 266:216 267:3 268:0 269:0 270:0 271:2 272:0 273:124 274:255 275:68 276:0 277:0 278:0 279:0 280:0 281:0 282:0 283:0 284:0 285:83 286:255 287:119 288:0 289:0 290:1 291:0 292:26 293:255 294:190 295:3 296:0 297:0 298:0 299:0 300:0 301:0 302:0 303:0 304:0 305:9 306:212 307:255 308:129 309:0 310:0 311:50 312:231 313:246 314:63 315:0 316:0 317:0 318:0 319:0 320:0 321:0 322:0 323:0 324:0 325:0 326:6 327:178 328:255 329:255 330:255 331:255 332:242 333:51 334:0 335:1 336:0 337:0 338:0 339:0 340:0 341:0 342:0 343:0 344:0 345:0 346:0 347:2 348:96 349:160 350:182 351:132 352:43 353:0 354:2 355:0 356:0 357:0 358:0 359:0 360:0 361:0 362:0 363:0 364:0 365:0 366:0 367:0 368:0 369:0 370:8 371:0 372:0 373:1 374:0 375:0 376:0 377:0 378:0 379:0 380:0 381:0 382:0 383:0 384:0 385:0 386:0 387:0 388:0 389:0 390:0 391:0 392:0 393:0 394:0 395:0 396:0 397:0 398:0 399:0 400:0 
-0.8833332978600599 0 1.893783475637215 0 1.71578076553552 1.561956366450292 0.5750232956919777 0 0.9334732763810161 2.081504905526019 1.284573211825844 0.963089503987582 0.3544927260005031 2.155391478529193 1.868858683147231 0 0 0.7029327083513852 1.371927721198012 0.7444544100443927 0.5977728656298783 0.7843855318339961 0 0 0 1:0 2:0 3:0 4:0 5:0 6:0 7:0 8:0 9:0 10:0 11:0 12:0 13:0 14:0 15:0 16:0 17:0 18:0 19:0 20:0 21:7 22:7 23:0 24:0 25:0 26:0 27:0 28:0 29:0 30:0 31:0 32:0 33:0 34:0 35:0 36:0 37:0 38:0 39:8 40:6 41:108 42:108 43:0 44:0 45:0 46:0 47:0 48:0 49:0 50:0 51:0 52:0 53:0 54:0 55:0 56:0 57:0 58:0 59:112 60:101 61:211 62:200 63:0 64:0 65:0 66:0 67:0 68:0 69:0 70:0 71:0 72:0 73:0 74:0 75:0 76:0 77:0 78:0 79:202 80:203 81:201 82:198 83:0 84:21 85:21 86:21 87:21 88:21 89:21 90:21 91:21 92:21 93:21 94:21 95:21 96:21 97:21 98:0 99:198 100:193 101:200 102:255 103:240 104:242 105:242 106:242 107:242 108:242 109:242 110:243 111:226 112:225 113:241 114:242 115:242 116:242 117:242 118:240 119:255 120:192 121:200 122:218 123:78 124:98 125:98 126:98 127:98 128:98 129:97 130:92 131:211 132:216 133:106 134:98 135:98 136:98 137:98 138:78 139:219 140:192 141:200 142:189 143:0 144:0 145:0 146:0 147:0 148:0 149:0 150:0 151:180 152:189 153:5 154:0 155:0 156:0 157:0 158:0 159:190 160:192 161:200 162:191 163:0 164:0 165:0 166:0 167:0 168:0 169:0 170:0 171:182 172:191 173:12 174:0 175:0 176:0 177:0 178:0 179:192 180:192 181:200 182:191 183:0 184:0 185:0 186:0 187:0 188:0 189:0 190:0 191:182 192:191 193:12 194:0 195:0 196:0 197:0 198:0 199:192 200:192 201:202 202:190 203:0 204:0 205:0 206:0 207:0 208:0 209:0 210:0 211:180 212:193 213:12 214:0 215:0 216:0 217:0 218:0 219:198 220:201 221:194 222:196 223:0 224:0 225:0 226:0 227:0 228:0 229:0 230:0 231:195 232:170 233:10 234:0 235:0 236:0 237:0 238:0 239:177 240:160 241:145 242:227 243:0 244:0 245:0 246:0 247:0 248:0 249:0 250:24 251:226 252:126 253:4 254:0 255:0 256:0 257:0 258:0 259:15 260:13 261:86 262:248 263:33 264:0 265:0 266:0 267:0 268:0 269:0 270:76 271:255 272:75 273:0 274:0 275:0 276:0 277:0 278:0 279:0 280:0 281:7 282:248 283:177 284:0 285:0 286:0 287:0 288:0 289:21 290:204 291:210 292:20 293:0 294:0 295:0 296:0 297:0 298:0 299:0 300:0 301:0 302:98 303:255 304:141 305:17 306:0 307:0 308:34 309:174 310:255 311:71 312:0 313:0 314:0 315:0 316:0 317:0 318:0 319:0 320:0 321:0 322:2 323:146 324:255 325:229 326:156 327:164 328:229 329:255 330:91 331:0 332:0 333:0 334:0 335:0 336:0 337:0 338:0 339:0 340:0 341:0 342:0 343:0 344:77 345:157 346:222 347:216 348:145 349:56 350:0 351:0 352:0 353:0 354:0 355:0 356:0 357:0 358:0 359:0 360:0 361:0 362:0 363:0 364:0 365:8 366:22 367:20 368:7 369:0 370:0 371:0 372:0 373:0 374:0 375:0 376:0 377:0 378:0 379:0 380:0 381:0 382:0 383:0 384:0 385:0 386:0 387:0 388:0 389:0 390:0 391:0 392:0 393:0 394:0 395:0 396:0 397:0 398:0 399:0 400:0 
-8.369745028046916 3.368268200593613 5.601608525235961 3.734108457224592 3.01197004521836 5.921613447913491 5.563031913661022 6.032617169381266 3.307392285022697 6.798130404776139 2.891636658709588 2.502921328250522 4.267347302814106 3.561843961181098 5.107019635867753 3.207475364585355 2.97298642009869 2.7466067709983 3.726279986554259 5.01843506731071 4.986305977666382 4.47190324944159 5.780304026558601 4.211708160336593 5.521797161028966 1:0 2:0 3:0 4:0 5:0 6:0 7:0 8:0 9:0 10:0 11:0 12:0 13:0 14:0 15:0 16:0 17:0 18:0 19:0 20:0 21:0 22:0 23:0 24:0 25:0 26:0 27:0 28:0 29:0 30:0 31:0 32:0 33:0 34:79 35:136 36:221 37:0 38:0 39:0 40:0 41:0 42:0 43:0 44:0 45:0 46:0 47:0 48:0 49:0 50:0 51:0 52:0 53:0 54:155 55:10 56:67 57:0 58:0 59:0 60:0 61:0 62:0 63:0 64:0 65:0 66:0 67:0 68:0 69:0 70:222 71:191 72:0 73:0 74:0 75:0 76:44 77:0 78:0 79:0 80:0 81:0 82:0 83:0 84:0 85:0 86:0 87:0 88:85 89:32 90:1 91:0 92:178 93:0 94:0 95:0 96:166 97:0 98:0 99:0 100:0 101:0 102:0 103:0 104:0 105:0 106:0 107:46 108:0 109:1 110:0 111:0 112:128 113:0 114:0 115:0 116:208 117:0 118:0 119:0 120:0 121:0 122:0 123:0 124:0 125:0 126:0 127:152 128:0 129:0 130:0 131:40 132:0 133:0 134:1 135:86 136:50 137:0 138:0 139:0 140:0 141:0 142:0 143:0 144:0 145:0 146:80 147:0 148:0 149:0 150:0 151:164 152:0 153:0 154:0 155:255 156:0 157:0 158:0 159:0 160:0 161:0 162:0 163:0 164:0 165:0 166:132 167:0 168:0 169:0 170:253 171:0 172:0 173:0 174:255 175:6 176:0 177:0 178:0 179:0 180:0 181:0 182:0 183:0 184:0 185:5 186:15 187:30 188:106 189:249 190:0 191:118 192:0 193:255 194:166 195:1 196:0 197:0 198:0 199:0 200:0 201:0 202:0 203:0 204:0 205:66 206:2 207:75 208:29 209:0 210:156 211:11 212:255 213:220 214:0 215:0 216:0 217:0 218:0 219:0 220:0 221:0 222:0 223:0 224:0 225:89 226:0 227:0 228:0 229:0 230:70 231:255 232:182 233:0 234:0 235:0 236:0 237:0 238:0 239:0 240:0 241:0 242:0 243:0 244:0 245:80 246:1 247:0 248:0 249:117 250:255 251:68 252:171 253:0 254:0 255:0 256:0 257:0 258:0 259:0 260:0 261:0 262:0 263:0 264:0 265:50 266:11 267:0 268:122 269:255 270:8 271:0 272:78 273:0 274:0 275:0 276:0 277:0 278:0 279:0 280:0 281:0 282:0 283:0 284:0 285:0 286:60 287:59 288:255 289:0 290:0 291:203 292:0 293:0 294:0 295:0 296:0 297:0 298:0 299:0 300:0 301:0 302:0 303:0 304:0 305:0 306:228 307:246 308:0 309:0 310:244 311:157 312:0 313:0 314:0 315:0 316:0 317:0 318:0 319:0 320:0 321:0 322:0 323:0 324:0 325:0 326:235 327:255 328:255 329:255 330:158 331:0 332:0 333:0 334:0 335:0 336:0 337:0 338:0 339:0 340:0 341:0 342:0 343:0 344:0 345:2 346:0 347:0 348:41 349:0 350:0 351:0 352:0 353:0 354:0 355:0 356:0 357:0 358:0 359:0 360:0 361:0 362:0 363:0 364:0 365:0 366:0 367:0 368:0 369:0 370:0 371:0 372:0 373:0 374:0 375:0 376:0 377:0 378:0 379:0 380:0 381:55 382:55 383:55 384:55 385:55 386:55 387:55 388:55 389:55 390:55 391:55 392:55 393:55 394:55 395:55 396:55 397:55 398:55 399:55 400:55 
-0.6475385724569048 1.801944334539932 8.314205195548743 2.906388594538834 4.926745296801182 1.521364411443011 1.687494134470371 2.319446037972167 1.488211087719997 1.154328442904705 2.852483553046778 2.624175868431287 3.543036450081399 0.5503608923771167 1.31248030465776 2.810712231110129 2.602726481272086 3.764352802485392 2.583750846367091 2.577205885176718 1.691174548148382 1.989440201042275 2.843009161098917 2.565577578973266 1.645507812611311 1:0 2:0 3:0 4:0 5:0 6:0 7:0 8:0 9:0 10:0 11:0 12:0 13:0 14:0 15:0 16:0 17:0 18:0 19:0 20:0 21:0 22:0 23:0 24:0 25:0 26:0 27:0 28:0 29:0 30:0 31:0 32:0 33:0 34:0 35:0 36:0 37:0 38:0 39:0 40:0 41:0 42:0 43:0 44:0 45:0 46:0 47:0 48:0 49:0 50:0 51:0 52:0 53:0 54:0 55:0 56:0 57:0 58:0 59:0 60:0 61:0 62:0 63:0 64:0 65:0 66:0 67:0 68:0 69:0 70:0 71:0 72:0 73:0 74:0 75:0 76:0 77:0 78:0 79:0 80:0 81:0 82:0 83:0 84:0 85:0 86:0 87:0 88:0 89:0 90:0 91:0 92:0 93:0 94:0 95:0 96:0 97:0 98:0 99:0 100:0 101:48 102:118 103:110 104:110 105:110 106:110 107:110 108:110 109:110 110:110 111:110 112:110 113:110 114:110 115:110 116:110 117:110 118:110 119:114 120:83 121:115 122:255 123:222 124:222 125:222 126:222 127:222 128:222 129:221 130:244 131:254 132:221 133:222 134:222 135:222 136:222 137:222 138:222 139:229 140:167 141:112 142:179 143:0 144:0 145:0 146:0 147:0 148:0 149:0 150:132 151:197 152:0 153:0 154:0 155:0 156:0 157:0 158:0 159:0 160:0 161:112 162:185 163:0 164:0 165:0 166:0 167:0 168:0 169:0 170:140 171:201 172:0 173:0 174:0 175:0 176:0 177:0 178:0 179:0 180:0 181:112 182:185 183:0 184:0 185:0 186:0 187:0 188:0 189:0 190:140 191:201 192:0 193:0 194:0 195:0 196:0 197:0 198:0 199:0 200:0 201:112 202:185 203:0 204:0 205:0 206:0 207:0 208:0 209:0 210:140 211:201 212:0 213:0 214:0 215:0 216:0 217:0 218:0 219:0 220:0 221:113 222:185 223:0 224:0 225:0 226:0 227:0 228:0 229:0 230:139 231:201 232:0 233:0 234:0 235:0 236:0 237:0 238:0 239:0 240:0 241:97 242:196 243:0 244:0 245:0 246:0 247:0 248:0 249:0 250:151 251:192 252:0 253:0 254:0 255:0 256:0 257:0 258:0 259:0 260:0 261:27 262:254 263:0 264:1 265:0 266:0 267:0 268:0 269:0 270:202 271:134 272:0 273:0 274:0 275:0 276:0 277:0 278:0 279:0 280:0 281:0 282:252 283:114 284:0 285:0 286:0 287:0 288:0 289:76 290:255 291:22 292:0 293:0 294:0 295:0 296:0 297:0 298:0 299:0 300:0 301:0 302:65 303:255 304:145 305:0 306:0 307:0 308:95 309:255 310:119 311:0 312:0 313:0 314:0 315:0 316:0 317:0 318:0 319:0 320:0 321:0 322:0 323:44 324:213 325:255 326:255 327:255 328:246 329:67 330:0 331:1 332:0 333:0 334:0 335:0 336:0 337:0 338:0 339:0 340:0 341:0 342:0 343:0 344:4 345:11 346:29 347:10 348:7 349:0 350:0 351:0 352:0 353:0 354:0 355:0 356:0 357:0 358:0 359:0 360:0 361:0 362:0 363:0 364:0 365:0 366:0 367:0 368:0 369:0 370:0 371:0 372:0 373:0 374:0 375:0 376:0 377:0 378:0 379:0 380:0 381:0 382:0 383:0 384:0 385:0 386:0 387:0 388:0 389:0 390:0 391:0 392:0 393:0 394:0 395:0 396:0 397:0 398:0 399:0 400:0 
-1.748020826163846 0.5997723447840091 2.262677875803123 1.107701730290393 1.54775437844638 2.903561256785322 2.198594662278051 1.501464452304214 1.241989518542131 2.631117112603373 1.644827161339019 1.026183408229281 0.8356406191493981 2.27477682880961 1.321960013084068 1.608040195938722 0.9744193961636275 1.117317257823998 1.80826522133709 1.762281732010389 1.505857605259149 1.777107485937259 1.808494437178977 1.394236291151286 0.8786536427620171 1:0 2:0 3:0 4:0 5:0 6:0 7:0 8:0 9:0 10:0 11:0 12:0 13:0 14:0 15:0 16:0 17:0 18:0 19:0 20:0 21:0 22:0 23:0 24:0 25:0 26:0 27:5 28:3 29:0 30:0 31:0 32:0 33:0 34:0 35:0 36:0 37:0 38:0 39:0 40:0 41:0 42:0 43:0 44:0 45:7 46:138 47:238 48:2 49:0 50:0 51:0 52:0 53:0 54:0 55:0 56:0 57:0 58:0 59:0 60:0 61:0 62:0 63:0 64:0 65:198 66:255 67:81 68:0 69:0 70:0 71:0 72:0 73:0 74:0 75:0 76:0 77:0 78:0 79:1 80:0 81:0 82:0 83:0 84:141 85:223 86:49 87:0 88:0 89:0 90:0 91:0 92:0 93:0 94:0 95:0 96:0 97:0 98:0 99:11 100:66 101:0 102:1 103:2 104:255 105:0 106:0 107:0 108:0 109:0 110:0 111:0 112:0 113:0 114:0 115:0 116:0 117:54 118:158 119:232 120:255 121:0 122:0 123:118 124:168 125:0 126:0 127:0 128:0 129:0 130:0 131:0 132:4 133:23 134:57 135:175 136:255 137:255 138:255 139:237 140:177 141:0 142:0 143:236 144:97 145:0 146:0 147:0 148:0 149:28 150:86 151:161 152:195 153:239 154:255 155:255 156:255 157:198 158:86 159:20 160:0 161:0 162:4 163:255 164:149 165:146 166:189 167:240 168:255 169:255 170:255 171:255 172:255 173:231 174:197 175:99 176:0 177:0 178:0 179:0 180:0 181:0 182:36 183:255 184:255 185:255 186:255 187:255 188:255 189:255 190:214 191:125 192:66 193:13 194:96 195:63 196:0 197:0 198:0 199:0 200:0 201:0 202:58 203:255 204:220 205:183 206:138 207:82 208:36 209:0 210:0 211:0 212:0 213:30 214:255 215:43 216:0 217:0 218:0 219:0 220:0 221:0 222:61 223:255 224:80 225:0 226:0 227:0 228:0 229:0 230:0 231:0 232:0 233:65 234:255 235:7 236:0 237:0 238:0 239:0 240:0 241:0 242:61 243:255 244:84 245:0 246:0 247:0 248:0 249:0 250:0 251:0 252:0 253:85 254:252 255:0 256:0 257:0 258:0 259:0 260:0 261:0 262:62 263:255 264:99 265:0 266:0 267:0 268:0 269:0 270:0 271:0 272:0 273:151 274:137 275:0 276:0 277:0 278:0 279:0 280:0 281:0 282:49 283:255 284:151 285:0 286:0 287:0 288:0 289:0 290:0 291:0 292:0 293:255 294:20 295:1 296:0 297:0 298:0 299:0 300:0 301:0 302:26 303:255 304:232 305:0 306:0 307:0 308:0 309:0 310:0 311:0 312:113 313:178 314:0 315:0 316:0 317:0 318:0 319:0 320:0 321:0 322:0 323:255 324:255 325:78 326:0 327:0 328:0 329:0 330:0 331:92 332:255 333:0 334:0 335:0 336:0 337:0 338:0 339:0 340:0 341:0 342:0 343:169 344:255 345:244 346:53 347:0 348:0 349:0 350:140 351:255 352:51 353:0 354:0 355:0 356:0 357:0 358:0 359:0 360:0 361:0 362:0 363:33 364:255 365:255 366:255 367:217 368:210 369:255 370:255 371:69 372:0 373:0 374:0 375:0 376:0 377:0 378:0 379:0 380:0 381:0 382:0 383:0 384:122 385:255 386:255 387:255 388:255 389:234 390:41 391:0 392:0 393:0 394:0 395:0 396:0 397:0 398:0 399:0 400:0 
-0.6752905845446344 0.780347952158875 7.237951277985256 1.238732435072714 4.536746277226416 2.968410668862521 1.025639371742873 0 1.926332445552289 1.36440413967049 3.03329726419724 2.643429605343764 1.057789488734283 1.679275116426273 0.3383764154531496 2.238210123912639 0.9598612378355961 1.336685372716344 1.403472745694398 1.737121638261755 0.487282162709421 0.6901222976673014 1.566251030564365 1.699509545281667 1.622467753606329 1:0 2:0 3:0 4:0 5:0 6:0 7:0 8:0 9:0 10:0 11:0 12:0 13:0 14:0 15:0 16:0 17:0 18:0 19:0 20:0 21:0 22:0 23:0 24:0 25:0 26:0 27:0 28:0 29:0 30:0 31:0 32:0 33:0 34:0 35:0 36:0 37:0 38:0 39:0 40:0 41:0 42:0 43:0 44:0 45:0 46:0 47:0 48:0 49:0 50:0 51:0 52:0 53:0 54:0 55:0 56:0 57:0 58:0 59:0 60:0 61:0 62:0 63:0 64:0 65:0 66:0 67:0 68:0 69:0 70:0 71:0 72:0 73:0 74:0 75:0 76:0 77:0 78:0 79:0 80:0 81:0 82:1 83:0 84:147 85:25 86:0 87:0 88:0 89:0 90:0 91:0 92:0 93:0 94:0 95:0 96:0 97:0 98:0 99:0 100:0 101:0 102:3 103:255 104:255 105:0 106:0 107:0 108:0 109:0 110:0 111:0 112:0 113:0 114:0 115:0 116:0 117:0 118:0 119:0 120:0 121:0 122:242 123:255 124:255 125:255 126:255 127:255 128:253 129:237 130:206 131:174 132:143 133:111 134:78 135:45 136:14 137:11 138:8 139:5 140:0 141:28 142:255 143:253 144:255 145:243 146:255 147:255 148:255 149:255 150:255 151:255 152:255 153:255 154:255 155:255 156:255 157:252 158:246 159:244 160:72 161:24 162:255 163:222 164:0 165:0 166:0 167:0 168:1 169:9 170:242 171:215 172:38 173:60 174:69 175:90 176:106 177:121 178:126 179:91 180:0 181:71 182:255 183:95 184:0 185:0 186:0 187:0 188:0 189:0 190:255 191:205 192:0 193:0 194:0 195:0 196:0 197:0 198:0 199:0 200:0 201:123 202:255 203:56 204:0 205:0 206:0 207:0 208:0 209:0 210:255 211:180 212:0 213:0 214:0 215:0 216:0 217:0 218:0 219:0 220:0 221:175 222:255 223:32 224:0 225:0 226:0 227:0 228:0 229:151 230:255 231:28 232:0 233:0 234:0 235:0 236:0 237:0 238:0 239:0 240:0 241:147 242:255 243:60 244:0 245:0 246:0 247:0 248:0 249:236 250:202 251:0 252:0 253:0 254:0 255:0 256:0 257:0 258:0 259:0 260:0 261:79 262:255 263:120 264:0 265:0 266:0 267:13 268:227 269:255 270:13 271:0 272:0 273:0 274:0 275:0 276:0 277:0 278:0 279:0 280:0 281:2 282:255 283:255 284:0 285:0 286:203 287:255 288:255 289:40 290:0 291:0 292:0 293:0 294:0 295:0 296:0 297:0 298:0 299:0 300:0 301:0 302:164 303:255 304:255 305:255 306:255 307:148 308:7 309:0 310:0 311:0 312:0 313:0 314:0 315:0 316:0 317:0 318:0 319:0 320:0 321:0 322:0 323:34 324:78 325:41 326:0 327:0 328:0 329:0 330:0 331:0 332:0 333:0 334:0 335:0 336:0 337:0 338:0 339:0 340:0 341:0 342:0 343:0 344:0 345:0 346:0 347:0 348:0 349:0 350:0 351:0 352:0 353:0 354:0 355:0 356:0 357:0 358:0 359:0 360:0 361:0 362:0 363:0 364:0 365:0 366:0 367:0 368:0 369:0 370:0 371:0 372:0 373:0 374:0 375:0 376:0 377:0 378:0 379:0 380:0 381:0 382:0 383:0 384:0 385:0 386:0 387:0 388:0 389:0 390:0 391:0 392:0 393:0 394:0 395:0 396:0 397:0 398:0 399:0 400:0 
-0 0 0 0 0 0 0 0 0 0 0 0 0.4329691887979452 0 0 0 0 0 0 0 0 0 0 3.903640160088209 0 1:0 2:0 3:0 4:0 5:0 6:0 7:0 8:0 9:0 10:0 11:0 12:0 13:0 14:0 15:0 16:0 17:0 18:0 19:0 20:0 21:0 22:0 23:0 24:0 25:0 26:0 27:0 28:0 29:0 30:0 31:0 32:0 33:0 34:0 35:0 36:0 37:0 38:0 39:0 40:0 41:0 42:0 43:0 44:0 45:0 46:0 47:0 48:0 49:0 50:0 51:0 52:0 53:0 54:0 55:0 56:0 57:0 58:0 59:0 60:0 61:0 62:0 63:0 64:0 65:0 66:0 67:0 68:0 69:0 70:0 71:0 72:0 73:0 74:0 75:0 76:0 77:0 78:0 79:0 80:0 81:150 82:189 83:184 84:184 85:184 86:184 87:184 88:184 89:184 90:184 91:184 92:184 93:184 94:184 95:184 96:184 97:184 98:184 99:190 100:139 101:213 102:255 103:255 104:255 105:255 106:255 107:255 108:255 109:255 110:255 111:255 112:255 113:255 114:255 115:255 116:255 117:255 118:255 119:255 120:200 121:208 122:255 123:242 124:235 125:236 126:236 127:236 128:236 129:236 130:238 131:253 132:254 133:239 134:236 135:236 136:236 137:236 138:236 139:244 140:176 141:208 142:255 143:74 144:0 145:0 146:0 147:0 148:0 149:0 150:0 151:219 152:239 153:19 154:0 155:0 156:0 157:0 158:0 159:0 160:0 161:208 162:255 163:93 164:0 165:0 166:0 167:0 168:0 169:0 170:22 171:223 172:241 173:44 174:0 175:0 176:0 177:0 178:0 179:0 180:0 181:207 182:255 183:98 184:0 185:0 186:0 187:0 188:0 189:0 190:28 191:229 192:239 193:42 194:0 195:0 196:0 197:0 198:0 199:0 200:0 201:194 202:255 203:134 204:0 205:0 206:0 207:0 208:0 209:0 210:40 211:241 212:236 213:37 214:0 215:0 216:0 217:0 218:0 219:0 220:0 221:157 222:255 223:205 224:0 225:0 226:0 227:0 228:0 229:0 230:72 231:255 232:223 233:14 234:0 235:0 236:0 237:0 238:0 239:0 240:0 241:86 242:255 243:255 244:25 245:0 246:1 247:0 248:0 249:0 250:212 251:255 252:195 253:0 254:0 255:0 256:0 257:0 258:0 259:0 260:0 261:0 262:255 263:255 264:255 265:81 266:28 267:29 268:46 269:214 270:255 271:255 272:45 273:0 274:0 275:0 276:0 277:0 278:0 279:0 280:0 281:0 282:128 283:255 284:255 285:255 286:254 287:249 288:255 289:255 290:255 291:170 292:0 293:0 294:0 295:0 296:0 297:0 298:0 299:0 300:0 301:0 302:0 303:136 304:252 305:254 306:255 307:255 308:253 309:248 310:128 311:0 312:1 313:0 314:0 315:0 316:0 317:0 318:0 319:0 320:0 321:0 322:2 323:0 324:32 325:92 326:120 327:116 328:86 329:32 330:0 331:0 332:0 333:0 334:0 335:0 336:0 337:0 338:0 339:0 340:0 341:0 342:0 343:0 344:0 345:0 346:0 347:0 348:0 349:0 350:0 351:0 352:0 353:0 354:0 355:0 356:0 357:0 358:0 359:0 360:0 361:0 362:0 363:0 364:0 365:0 366:0 367:0 368:0 369:0 370:0 371:0 372:0 373:0 374:0 375:0 376:0 377:0 378:0 379:0 380:0 381:0 382:0 383:0 384:0 385:0 386:0 387:0 388:0 389:0 390:0 391:0 392:0 393:0 394:0 395:0 396:0 397:0 398:0 399:0 400:0 
-0.784927371160668 0.2034474187793969 0.2078675564151124 0 0.5998870241183701 1.216553910703586 0.4775630081269439 0.05486711666480713 0.04543618797024565 0 0.5215785266269591 0 0.00791741037244712 1.233122520041358 0.101703923184398 0.1240642113271209 0.458152035449899 0.6466464701047541 0 0.9234140840374148 0.4386981799434655 0.7498067070401589 0.5816427046212927 0 1.014166799426725 1:0 2:0 3:0 4:0 5:0 6:0 7:0 8:0 9:0 10:3 11:5 12:0 13:0 14:0 15:0 16:0 17:0 18:0 19:0 20:95 21:0 22:0 23:0 24:0 25:0 26:0 27:15 28:105 29:235 30:255 31:255 32:249 33:136 34:0 35:0 36:0 37:0 38:0 39:0 40:255 41:0 42:0 43:0 44:0 45:0 46:31 47:214 48:255 49:255 50:255 51:255 52:255 53:51 54:0 55:0 56:0 57:0 58:0 59:0 60:240 61:0 62:0 63:0 64:1 65:0 66:246 67:255 68:158 69:84 70:68 71:141 72:130 73:0 74:0 75:0 76:0 77:0 78:0 79:0 80:240 81:0 82:0 83:0 84:0 85:188 86:184 87:3 88:0 89:0 90:0 91:0 92:0 93:0 94:0 95:0 96:0 97:0 98:0 99:0 100:240 101:0 102:0 103:0 104:53 105:206 106:0 107:0 108:0 109:0 110:0 111:0 112:0 113:0 114:0 115:0 116:0 117:21 118:49 119:66 120:247 121:0 122:0 123:0 124:197 125:26 126:0 127:0 128:0 129:0 130:0 131:0 132:0 133:0 134:43 135:96 136:153 137:200 138:241 139:255 140:255 141:0 142:0 143:25 144:188 145:0 146:0 147:0 148:0 149:0 150:6 151:81 152:160 153:224 154:234 155:248 156:255 157:255 158:255 159:255 160:255 161:0 162:0 163:80 164:140 165:9 166:25 167:72 168:151 169:239 170:255 171:255 172:255 173:254 174:246 175:239 176:219 177:142 178:75 179:0 180:246 181:0 182:0 183:107 184:192 185:209 186:255 187:255 188:255 189:255 190:255 191:223 192:213 193:240 194:73 195:22 196:0 197:0 198:0 199:0 200:255 201:0 202:0 203:150 204:255 205:255 206:255 207:255 208:196 209:126 210:75 211:33 212:61 213:218 214:0 215:0 216:0 217:0 218:0 219:0 220:255 221:0 222:52 223:255 224:218 225:128 226:50 227:18 228:12 229:2 230:0 231:0 232:86 233:167 234:0 235:0 236:0 237:0 238:0 239:0 240:252 241:0 242:33 243:206 244:35 245:0 246:0 247:0 248:0 249:0 250:0 251:0 252:171 253:82 254:0 255:0 256:0 257:0 258:0 259:27 260:119 261:0 262:11 263:201 264:48 265:0 266:0 267:0 268:0 269:0 270:0 271:25 272:234 273:0 274:0 275:0 276:0 277:0 278:0 279:16 280:4 281:0 282:7 283:201 284:92 285:0 286:1 287:1 288:0 289:0 290:2 291:223 292:136 293:0 294:0 295:0 296:0 297:0 298:0 299:0 300:0 301:0 302:0 303:160 304:255 305:36 306:0 307:0 308:1 309:98 310:253 311:248 312:24 313:0 314:0 315:0 316:0 317:0 318:0 319:0 320:0 321:0 322:0 323:100 324:254 325:255 326:248 327:253 328:255 329:255 330:249 331:65 332:0 333:0 334:0 335:0 336:0 337:0 338:0 339:0 340:0 341:0 342:0 343:13 344:216 345:255 346:255 347:255 348:255 349:221 350:67 351:0 352:0 353:0 354:0 355:0 356:0 357:0 358:0 359:0 360:0 361:0 362:0 363:0 364:40 365:179 366:229 367:199 368:115 369:31 370:0 371:0 372:0 373:0 374:0 375:0 376:0 377:0 378:0 379:0 380:0 381:0 382:0 383:0 384:0 385:0 386:0 387:0 388:0 389:0 390:0 391:0 392:0 393:0 394:0 395:0 396:0 397:0 398:0 399:0 400:0 
-0 0 1.422434589837466 0 0 0 0 0 0 0 0 0 0 0 0 0 0 0 0 0 0 0 0 0 0 1:0 2:0 3:0 4:0 5:0 6:0 7:0 8:0 9:0 10:0 11:0 12:0 13:0 14:0 15:0 16:0 17:0 18:0 19:0 20:0 21:0 22:0 23:0 24:0 25:0 26:0 27:0 28:0 29:0 30:0 31:0 32:0 33:0 34:0 35:0 36:0 37:0 38:0 39:0 40:0 41:52 42:36 43:0 44:0 45:0 46:0 47:0 48:0 49:0 50:0 51:0 52:0 53:0 54:0 55:0 56:0 57:0 58:0 59:23 60:69 61:154 62:117 63:0 64:0 65:0 66:0 67:0 68:0 69:0 70:0 71:0 72:0 73:0 74:0 75:0 76:0 77:0 78:0 79:79 80:198 81:144 82:135 83:0 84:0 85:0 86:0 87:0 88:0 89:0 90:0 91:0 92:0 93:0 94:0 95:0 96:0 97:0 98:0 99:96 100:177 101:144 102:255 103:142 104:117 105:119 106:119 107:119 108:119 109:119 110:119 111:119 112:119 113:119 114:119 115:119 116:119 117:118 118:133 119:242 120:169 121:144 122:255 123:255 124:255 125:255 126:255 127:255 128:255 129:255 130:255 131:255 132:255 133:255 134:255 135:255 136:255 137:255 138:255 139:255 140:161 141:144 142:255 143:255 144:255 145:255 146:255 147:255 148:255 149:255 150:255 151:255 152:255 153:255 154:255 155:255 156:255 157:255 158:255 159:255 160:165 161:144 162:146 163:0 164:0 165:0 166:0 167:0 168:0 169:0 170:0 171:231 172:0 173:1 174:1 175:1 176:1 177:0 178:7 179:160 180:173 181:144 182:102 183:0 184:0 185:0 186:0 187:0 188:0 189:0 190:0 191:229 192:0 193:0 194:0 195:0 196:0 197:0 198:0 199:92 200:180 201:144 202:101 203:0 204:0 205:0 206:0 207:0 208:0 209:0 210:0 211:229 212:0 213:0 214:0 215:0 216:0 217:0 218:0 219:55 220:162 221:144 222:98 223:0 224:0 225:0 226:0 227:0 228:0 229:0 230:0 231:230 232:0 233:0 234:0 235:0 236:0 237:0 238:0 239:3 240:8 241:139 242:138 243:0 244:0 245:0 246:0 247:0 248:0 249:0 250:0 251:238 252:0 253:0 254:0 255:0 256:0 257:0 258:0 259:0 260:0 261:89 262:186 263:0 264:0 265:0 266:0 267:0 268:0 269:0 270:55 271:211 272:0 273:0 274:0 275:0 276:0 277:0 278:0 279:0 280:0 281:34 282:254 283:10 284:1 285:0 286:0 287:0 288:0 289:0 290:157 291:143 292:0 293:0 294:0 295:0 296:0 297:0 298:0 299:0 300:0 301:0 302:255 303:212 304:25 305:0 306:0 307:0 308:24 309:132 310:255 311:32 312:0 313:0 314:0 315:0 316:0 317:0 318:0 319:0 320:0 321:0 322:111 323:255 324:235 325:202 326:194 327:195 328:222 329:255 330:196 331:0 332:0 333:0 334:0 335:0 336:0 337:0 338:0 339:0 340:0 341:0 342:0 343:169 344:255 345:255 346:255 347:255 348:255 349:217 350:21 351:1 352:0 353:0 354:0 355:0 356:0 357:0 358:0 359:0 360:0 361:0 362:0 363:0 364:132 365:224 366:255 367:253 368:177 369:10 370:0 371:0 372:0 373:0 374:0 375:0 376:0 377:0 378:0 379:0 380:0 381:0 382:0 383:0 384:0 385:0 386:3 387:0 388:0 389:0 390:0 391:0 392:0 393:0 394:0 395:0 396:0 397:0 398:0 399:0 400:0 
