svm_type c_svc
kernel_type rbf
gamma 1.04538e-07
nr_class 26
total_sv 1129
rho 0.877904 0.685795 0.624266 0.732605 0.952358 1.16923 0.836313 0.911529 0.674034 0.866287 0.725196 0.647536 0.700806 0.922596 0.747038 0.83381 0.628786 0.806368 0.794506 0.88415 0.870529 0.953435 1.02206 1.0142 0.866436 -0.0132133 -0.568607 -0.165556 0.357655 -0.118871 -0.101225 -0.495522 -0.354462 0.150931 0.360657 -0.455999 0.203772 -0.286578 -0.231449 -0.027379 -0.116427 0.0961516 -0.235628 0.153072 0.0397765 0.241223 0.0278866 0.706596 0.482245 -0.220985 0.0118485 0.0575224 -0.139691 -0.0446705 -0.479586 -0.281694 0.437597 0.31357 -0.779164 0.153126 -0.4846 -0.220652 -0.137686 -0.333804 0.135125 -0.205835 0.274423 0.0795694 0.286576 0.0737822 0.391959 0.428802 0.0350693 0.852352 0.507062 0.417336 -0.277565 0.083786 0.181809 0.576741 -0.0530192 0.369247 0.146998 0.307578 0.278296 0.116975 0.361204 -0.0959861 0.230022 0.231468 0.558935 0.357348 0.767884 0.618769 0.284195 0.0163623 0.00525708 -0.750532 0.0276065 0.484007 0.590355 -0.523309 0.319842 -0.475124 -0.148658 0.0663818 -0.15543 0.299819 -0.195618 0.170214 0.0102371 0.256747 0.0858109 0.462091 0.583798 -0.220054 -0.261107 -0.41446 -0.596778 0.0831416 0.054369 -0.641771 0.0268255 -0.342046 -0.435284 -0.0238931 -0.205292 0.143248 -0.363382 0.113726 -0.222019 0.285394 -0.0707099 0.606731 0.345183 -0.0188223 -0.525487 -0.0740209 0.342149 0.354212 -0.331451 0.250989 -0.285749 -0.100265 0.160421 0.100198 0.230199 -0.170458 0.353498 0.174307 0.405268 -0.161175 0.423699 0.60331 -0.494109 -0.16305 0.248458 0.19132 -0.409674 0.165386 -0.410477 -0.292817 0.158835 0.0360443 0.107109 -0.229868 0.306528 -0.0204739 0.437254 -0.0865436 0.462431 0.35494 0.280441 0.628941 0.639628 0.0412435 0.612324 -0.242621 0.425344 0.482247 0.368023 0.41145 0.327728 0.47215 0.225775 0.790146 0.606569 0.792578 0.996766 0.715276 0.526285 -0.174336 0.446707 -0.0947161 0.260169 0.441545 0.244168 0.549023 -0.0643849 0.555784 0.506525 0.56538 0.261196 0.644344 0.711263 0.107573 -0.779792 -0.187889 -0.466301 -0.448343 -0.243433 -0.848235 -0.0507825 -0.456839 -0.0885836 -0.131678 0.0915264 -0.0364741 0.266105 0.14639 -0.734236 -0.357769 -0.438809 -0.393231 -0.246536 -0.634146 -0.0161592 -0.524447 -0.164089 -0.129664 0.135896 -0.194235 0.115005 0.130724 0.549445 0.0747107 0.191539 1.10233 0.958095 0.638068 0.184649 0.574664 0.36085 0.757089 0.615264 0.75754 0.826839 -0.500061 -0.328603 -0.0987267 -0.433603 -0.000345307 -0.249529 -0.0417006 -0.211072 0.377846 -0.115872 0.300967 0.331173 0.0030261 0.436604 0.312415 0.298661 0.0990454 0.565797 0.239558 0.456861 0.317994 0.644715 0.589452 0.457549 0.167087 0.124383 0.0537588 0.217291 0.23805 0.474141 0.166878 0.583254 0.46316 -0.476387 0.169073 -0.43375 -0.0229654 -0.0814468 0.32798 0.0023732 0.321388 0.367143 0.318777 -0.153602 0.243739 0.0613591 0.428424 0.18601 0.519263 0.496631 -0.331332 0.030009 -0.404965 0.275099 -0.0192016 0.319451 0.268519 0.108887 0.214365 0.558166 0.295528 0.58247 0.560038 -0.344557 0.159968 -0.42511 0.177035 0.146644 0.610128 -0.0361407 0.483734 0.364385 -0.176446 0.0967519 0.0177585 0.339303 0.667997 -0.0633376
label 9 16 17 6 21 5 25 24 10 12 4 2 3 8 20 26 7 15 11 19 14 1 23 22 18 13
nr_sv 29 36 39 46 55 49 36 42 41 33 50 36 41 49 37 38 52 49 47 43 50 39 48 47 52 45
SV
0 0 0 0 0 0 0 10.91938864158174 0 0 0 0 0 0 0 0 0 0 0 0 0 0 0 0 0 1:0 2:0 3:0 4:0 5:0 6:0 7:0 8:0 9:0 10:0 11:0 12:0 13:0 14:0 15:0 16:0 17:0 18:0 19:0 20:0 21:0 22:0 23:0 24:0 25:0 26:0 27:0 28:0 29:0 30:0 31:0 32:0 33:0 34:0 35:0 36:0 37:0 38:0 39:0 40:0 41:0 42:0 43:0 44:0 45:0 46:0 47:0 48:0 49:0 50:0 51:0 52:0 53:0 54:0 55:0 56:0 57:0 58:0 59:0 60:0 61:0 62:0 63:0 64:0 65:0 66:0 67:0 68:0 69:0 70:0 71:0 72:0 73:0 74:0 75:0 76:0 77:0 78:0 79:0 80:0 81:0 82:0 83:0 84:0 85:0 86:0 87:0 88:0 89:0 90:0 91:0 92:0 93:0 94:0 95:0 96:0 97:0 98:0 99:0 100:0 101:0 102:0 103:0 104:0 105:0 106:0 107:0 108:0 109:0 110:0 111:0 112:0 113:0 114:0 115:0 116:0 117:0 118:0 119:0 120:0 121:57 122:7 123:0 124:0 125:0 126:0 127:0 128:0 129:0 130:0 131:0 132:0 133:0 134:0 135:0 136:0 137:0 138:0 139:22 140:34 141:188 142:34 143:0 144:0 145:0 146:0 147:0 148:0 149:0 150:0 151:0 152:0 153:0 154:0 155:0 156:0 157:0 158:0 159:87 160:113 161:167 162:135 163:20 164:12 165:10 166:10 167:10 168:10 169:10 170:10 171:10 172:10 173:10 174:10 175:10 176:10 177:14 178:26 179:196 180:104 181:168 182:255 183:225 184:214 185:213 186:213 187:213 188:213 189:213 190:213 191:213 192:213 193:213 194:213 195:213 196:213 197:217 198:235 199:255 200:104 201:168 202:255 203:219 204:211 205:211 206:211 207:211 208:211 209:211 210:211 211:211 212:211 213:211 214:211 215:211 216:210 217:214 218:230 219:255 220:106 221:167 222:129 223:15 224:9 225:9 226:9 227:9 228:9 229:9 230:9 231:9 232:9 233:9 234:9 235:9 236:9 237:12 238:22 239:189 240:109 241:190 242:33 243:0 244:0 245:0 246:0 247:0 248:0 249:0 250:0 251:0 252:0 253:0 254:0 255:0 256:0 257:0 258:0 259:86 260:119 261:46 262:6 263:0 264:0 265:0 266:0 267:0 268:0 269:0 270:0 271:0 272:0 273:0 274:0 275:0 276:0 277:0 278:0 279:17 280:27 281:0 282:0 283:0 284:0 285:0 286:0 287:0 288:0 289:0 290:0 291:0 292:0 293:0 294:0 295:0 296:0 297:0 298:0 299:0 300:0 301:0 302:0 303:0 304:0 305:0 306:0 307:0 308:0 309:0 310:0 311:0 312:0 313:0 314:0 315:0 316:0 317:0 318:0 319:0 320:0 321:0 322:0 323:0 324:0 325:0 326:0 327:0 328:0 329:0 330:0 331:0 332:0 333:0 334:0 335:0 336:0 337:0 338:0 339:0 340:0 341:0 342:0 343:0 344:0 345:0 346:0 347:0 348:0 349:0 350:0 351:0 352:0 353:0 354:0 355:0 356:0 357:0 358:0 359:0 360:0 361:0 362:0 363:0 364:0 365:0 366:0 367:0 368:0 369:0 370:0 371:0 372:0 373:0 374:0 375:0 376:0 377:0 378:0 379:0 380:0 381:0 382:0 383:0 384:0 385:0 386:0 387:0 388:0 389:0 390:0 391:0 392:0 393:0 394:0 395:0 396:0 397:0 398:0 399:0 400:0 
6.023595243175047 1.161283531105881 6.55243379948021 4.174551744883376 7.666827825247521 7.875688984941377 3.584025029855479 0 8.346276271773551 4.452541283333845 5.359708023849612 4.438466702588389 2.243908433374523 12.91572092935234 7.002621903848016 2.228698685395273 2.894875502232946 3.652031291568913 5.858217710768526 2.489129482046073 6.047047810391295 1.575699939789496 2.845790519918793 2.926495518223465 2.019533027403187 1:0 2:0 3:0 4:0 5:0 6:0 7:0 8:0 9:0 10:0 11:0 12:0 13:0 14:0 15:0 16:0 17:0 18:0 19:0 20:0 21:0 22:0 23:0 24:0 25:0 26:0 27:0 28:0 29:0 30:0 31:0 32:0 33:0 34:0 35:0 36:0 37:0 38:0 39:0 40:0 41:0 42:0 43:0 44:0 45:0 46:0 47:0 48:0 49:0 50:0 51:0 52:0 53:0 54:0 55:0 56:0 57:0 58:0 59:0 60:0 61:0 62:0 63:0 64:0 65:0 66:0 67:0 68:0 69:0 70:0 71:0 72:0 73:0 74:0 75:0 76:0 77:0 78:0 79:0 80:0 81:0 82:0 83:0 84:0 85:0 86:0 87:0 88:0 89:0 90:0 91:0 92:0 93:0 94:0 95:0 96:0 97:0 98:0 99:0 100:0 101:0 102:0 103:0 104:0 105:0 106:0 107:0 108:0 109:0 110:0 111:0 112:0 113:0 114:0 115:0 116:211 117:0 118:0 119:0 120:0 121:0 122:0 123:0 124:0 125:0 126:0 127:0 128:0 129:0 130:0 131:0 132:0 133:0 134:0 135:0 136:251 137:0 138:0 139:0 140:0 141:0 142:0 143:0 144:0 145:0 146:105 147:0 148:0 149:0 150:0 151:15 152:53 153:174 154:255 155:147 156:220 157:0 158:0 159:0 160:0 161:0 162:0 163:0 164:0 165:0 166:247 167:32 168:88 169:192 170:249 171:168 172:27 173:0 174:0 175:0 176:224 177:0 178:0 179:0 180:0 181:0 182:0 183:0 184:0 185:0 186:229 187:136 188:28 189:0 190:0 191:0 192:0 193:41 194:125 195:213 196:237 197:0 198:0 199:0 200:0 201:0 202:0 203:0 204:0 205:0 206:207 207:0 208:0 209:43 210:162 211:230 212:202 213:108 214:25 215:0 216:241 217:0 218:0 219:0 220:0 221:0 222:0 223:0 224:0 225:0 226:219 227:249 228:178 229:74 230:21 231:0 232:0 233:0 234:0 235:0 236:51 237:0 238:0 239:0 240:0 241:0 242:0 243:0 244:0 245:0 246:252 247:0 248:0 249:0 250:0 251:0 252:0 253:0 254:0 255:0 256:0 257:0 258:0 259:0 260:0 261:0 262:0 263:0 264:0 265:0 266:184 267:0 268:0 269:0 270:0 271:0 272:0 273:0 274:0 275:0 276:0 277:0 278:0 279:0 280:0 281:0 282:0 283:0 284:0 285:0 286:0 287:0 288:0 289:0 290:0 291:0 292:0 293:0 294:0 295:0 296:0 297:0 298:0 299:0 300:0 301:0 302:0 303:0 304:0 305:0 306:0 307:0 308:0 309:0 310:0 311:0 312:0 313:0 314:0 315:0 316:0 317:0 318:0 319:0 320:0 321:0 322:0 323:0 324:0 325:0 326:0 327:0 328:0 329:0 330:0 331:0 332:0 333:0 334:0 335:0 336:0 337:0 338:0 339:0 340:0 341:0 342:0 343:0 344:0 345:0 346:0 347:0 348:0 349:0 350:0 351:0 352:0 353:0 354:0 355:0 356:0 357:0 358:0 359:0 360:0 361:0 362:0 363:0 364:0 365:0 366:0 367:0 368:0 369:0 370:0 371:0 372:0 373:0 374:0 375:0 376:0 377:0 378:0 379:0 380:0 381:15 382:15 383:15 384:15 385:15 386:15 387:15 388:15 389:15 390:15 391:15 392:15 393:15 394:15 395:15 396:15 397:15 398:15 399:15 400:15 
0 0 0 0 0 0 0 0 0 0 0 0 0 1.753402515886931 0 0 0 0 0 0 0 0 0 0 0 1:0 2:0 3:0 4:0 5:0 6:0 7:0 8:0 9:0 10:0 11:0 12:0 13:0 14:0 15:0 16:0 17:0 18:0 19:0 20:0 21:0 22:0 23:0 24:0 25:0 26:0 27:0 28:0 29:0 30:0 31:0 32:0 33:0 34:0 35:0 36:0 37:0 38:0 39:0 40:0 41:0 42:0 43:0 44:0 45:0 46:0 47:0 48:0 49:0 50:0 51:0 52:0 53:0 54:0 55:0 56:0 57:0 58:0 59:0 60:0 61:0 62:0 63:0 64:0 65:0 66:0 67:0 68:0 69:0 70:0 71:0 72:0 73:0 74:0 75:0 76:0 77:0 78:0 79:0 80:0 81:125 82:122 83:43 84:0 85:0 86:0 87:0 88:0 89:0 90:0 91:0 92:0 93:0 94:0 95:0 96:0 97:0 98:64 99:135 100:94 101:255 102:255 103:96 104:0 105:0 106:0 107:0 108:0 109:0 110:0 111:0 112:0 113:0 114:0 115:0 116:0 117:0 118:142 119:255 120:208 121:255 122:251 123:88 124:0 125:0 126:0 127:0 128:0 129:0 130:0 131:0 132:0 133:0 134:0 135:0 136:0 137:0 138:131 139:255 140:192 141:255 142:250 143:76 144:0 145:0 146:0 147:0 148:0 149:0 150:0 151:0 152:0 153:0 154:0 155:0 156:0 157:0 158:123 159:255 160:192 161:255 162:254 163:209 164:182 165:183 166:183 167:183 168:183 169:183 170:183 171:183 172:183 173:183 174:183 175:183 176:183 177:182 178:220 179:255 180:192 181:255 182:255 183:255 184:255 185:255 186:255 187:255 188:255 189:255 190:255 191:255 192:255 193:255 194:255 195:255 196:255 197:255 198:255 199:255 200:192 201:255 202:255 203:231 204:217 205:219 206:219 207:219 208:219 209:219 210:219 211:219 212:219 213:219 214:219 215:219 216:219 217:218 218:237 219:255 220:192 221:255 222:251 223:99 224:9 225:16 226:16 227:16 228:16 229:16 230:16 231:16 232:16 233:16 234:16 235:16 236:16 237:11 238:139 239:255 240:192 241:255 242:251 243:88 244:0 245:0 246:0 247:0 248:0 249:0 250:0 251:0 252:0 253:0 254:0 255:0 256:0 257:0 258:131 259:255 260:192 261:255 262:255 263:93 264:0 265:0 266:0 267:0 268:0 269:0 270:0 271:0 272:0 273:0 274:0 275:0 276:0 277:0 278:139 279:255 280:203 281:174 282:171 283:60 284:0 285:0 286:0 287:0 288:0 289:0 290:0 291:0 292:0 293:0 294:0 295:0 296:0 297:0 298:89 299:188 300:131 301:6 302:5 303:2 304:0 305:0 306:0 307:0 308:0 309:0 310:0 311:0 312:0 313:0 314:0 315:0 316:0 317:0 318:3 319:6 320:4 321:0 322:0 323:0 324:0 325:0 326:0 327:0 328:0 329:0 330:0 331:0 332:0 333:0 334:0 335:0 336:0 337:0 338:0 339:0 340:0 341:0 342:0 343:0 344:0 345:0 346:0 347:0 348:0 349:0 350:0 351:0 352:0 353:0 354:0 355:0 356:0 357:0 358:0 359:0 360:0 361:0 362:0 363:0 364:0 365:0 366:0 367:0 368:0 369:0 370:0 371:0 372:0 373:0 374:0 375:0 376:0 377:0 378:0 379:0 380:0 381:0 382:0 383:0 384:0 385:0 386:0 387:0 388:0 389:0 390:0 391:0 392:0 393:0 394:0 395:0 396:0 397:0 398:0 399:0 400:0 
1.848926564398779 0 2.389849156930457 0.1178849499025465 1.82020961689748 0.9637794652596662 1.040780975169345 0 1.935867634655214 0.9354410370609941 0.7661746063251961 0.8582713009986144 0.5365736308084181 1.514409237436435 0.8767866076452077 0 0 0.3242374982379322 0.6427145071078205 0.1595615459471817 0.1655906454592598 0.3777405831788757 0.07653932532236603 0.2512631655612642 0.09519779890283397 1:0 2:0 3:0 4:0 5:0 6:0 7:0 8:0 9:0 10:0 11:0 12:0 13:0 14:0 15:0 16:0 17:0 18:0 19:27 20:2 21:0 22:0 23:0 24:0 25:0 26:0 27:0 28:0 29:0 30:0 31:0 32:0 33:0 34:0 35:0 36:0 37:0 38:90 39:255 40:178 41:0 42:0 43:0 44:0 45:0 46:0 47:0 48:0 49:0 50:0 51:0 52:0 53:0 54:0 55:0 56:0 57:0 58:140 59:255 60:198 61:0 62:0 63:0 64:1 65:0 66:0 67:0 68:0 69:0 70:0 71:0 72:0 73:0 74:0 75:0 76:0 77:0 78:138 79:255 80:192 81:2 82:190 83:121 84:0 85:0 86:0 87:0 88:0 89:0 90:0 91:0 92:0 93:0 94:0 95:0 96:0 97:0 98:137 99:255 100:192 101:84 102:255 103:186 104:11 105:0 106:0 107:0 108:0 109:0 110:0 111:0 112:0 113:0 114:0 115:0 116:0 117:0 118:139 119:255 120:192 121:107 122:255 123:185 124:11 125:0 126:0 127:0 128:0 129:0 130:0 131:0 132:0 133:1 134:22 135:44 136:71 137:118 138:213 139:255 140:192 141:104 142:255 143:185 144:11 145:0 146:0 147:0 148:0 149:0 150:29 151:74 152:114 153:153 154:194 155:240 156:255 157:255 158:255 159:255 160:192 161:104 162:255 163:178 164:0 165:0 166:42 167:99 168:152 169:188 170:213 171:242 172:255 173:255 174:255 175:255 176:255 177:241 178:232 179:255 180:192 181:104 182:255 183:225 184:191 185:228 186:239 187:247 188:254 189:255 190:255 191:255 192:255 193:238 194:173 195:105 196:38 197:0 198:144 199:255 200:192 201:104 202:255 203:255 204:255 205:255 206:247 207:239 208:234 209:199 210:133 211:60 212:0 213:0 214:0 215:0 216:0 217:0 218:137 219:255 220:192 221:104 222:255 223:242 224:197 225:157 226:97 227:39 228:0 229:0 230:0 231:0 232:0 233:1 234:0 235:0 236:0 237:0 238:137 239:255 240:194 241:104 242:255 243:191 244:4 245:0 246:0 247:0 248:0 249:0 250:0 251:0 252:0 253:0 254:0 255:0 256:0 257:0 258:144 259:255 260:192 261:104 262:255 263:184 264:9 265:0 266:0 267:0 268:0 269:0 270:0 271:0 272:0 273:0 274:0 275:0 276:0 277:0 278:104 279:255 280:94 281:104 282:255 283:185 284:11 285:0 286:0 287:0 288:0 289:0 290:0 291:0 292:0 293:0 294:0 295:0 296:0 297:0 298:4 299:12 300:3 301:105 302:255 303:185 304:10 305:0 306:0 307:0 308:0 309:0 310:0 311:0 312:0 313:0 314:0 315:0 316:0 317:0 318:0 319:0 320:0 321:94 322:255 323:168 324:0 325:0 326:0 327:0 328:0 329:0 330:0 331:0 332:0 333:0 334:0 335:0 336:0 337:0 338:0 339:0 340:0 341:22 342:137 343:46 344:0 345:0 346:0 347:0 348:0 349:0 350:0 351:0 352:0 353:0 354:0 355:0 356:0 357:0 358:0 359:0 360:0 361:0 362:0 363:0 364:1 365:0 366:0 367:0 368:0 369:0 370:0 371:0 372:0 373:0 374:0 375:0 376:0 377:0 378:0 379:0 380:0 381:0 382:0 383:0 384:0 385:0 386:0 387:0 388:0 389:0 390:0 391:0 392:0 393:0 394:0 395:0 396:0 397:0 398:0 399:0 400:0 
0 0 0 0 0 0 1.591566515644741 4.153946819996694 0 0 0 0 0 1.394888988291843 0 0 0 0 0 0 1.366940871818906 0 0 1.485233367594671 0 1:0 2:0 3:0 4:0 5:0 6:0 7:0 8:0 9:0 10:0 11:0 12:0 13:0 14:0 15:0 16:0 17:0 18:0 19:0 20:0 21:0 22:0 23:0 24:0 25:0 26:0 27:0 28:0 29:0 30:0 31:0 32:0 33:0 34:0 35:0 36:0 37:0 38:0 39:0 40:0 41:0 42:0 43:0 44:0 45:0 46:0 47:0 48:0 49:0 50:0 51:0 52:0 53:0 54:0 55:0 56:0 57:0 58:0 59:0 60:0 61:0 62:0 63:0 64:0 65:0 66:0 67:0 68:0 69:0 70:0 71:0 72:0 73:0 74:0 75:0 76:0 77:0 78:0 79:0 80:0 81:0 82:0 83:0 84:0 85:0 86:0 87:0 88:0 89:0 90:0 91:0 92:0 93:0 94:0 95:0 96:0 97:0 98:0 99:0 100:0 101:0 102:0 103:0 104:0 105:0 106:0 107:0 108:0 109:0 110:0 111:0 112:0 113:0 114:0 115:0 116:0 117:0 118:0 119:0 120:0 121:0 122:0 123:0 124:0 125:0 126:0 127:0 128:0 129:0 130:0 131:0 132:0 133:0 134:0 135:0 136:0 137:0 138:0 139:0 140:0 141:0 142:0 143:0 144:0 145:0 146:0 147:0 148:0 149:0 150:0 151:0 152:0 153:0 154:0 155:0 156:0 157:0 158:0 159:0 160:0 161:0 162:0 163:5 164:5 165:5 166:5 167:5 168:5 169:5 170:5 171:5 172:5 173:5 174:5 175:5 176:5 177:5 178:5 179:7 180:0 181:28 182:255 183:255 184:255 185:255 186:255 187:255 188:255 189:255 190:255 191:255 192:255 193:255 194:255 195:255 196:255 197:255 198:255 199:255 200:123 201:17 202:255 203:253 204:253 205:253 206:253 207:253 208:253 209:253 210:253 211:253 212:253 213:253 214:253 215:253 216:253 217:253 218:253 219:255 220:82 221:0 222:0 223:0 224:0 225:0 226:0 227:0 228:0 229:0 230:0 231:0 232:0 233:0 234:0 235:0 236:0 237:0 238:0 239:0 240:0 241:0 242:0 243:0 244:0 245:0 246:0 247:0 248:0 249:0 250:0 251:0 252:0 253:0 254:0 255:0 256:0 257:0 258:0 259:0 260:0 261:0 262:0 263:0 264:0 265:0 266:0 267:0 268:0 269:0 270:0 271:0 272:0 273:0 274:0 275:0 276:0 277:0 278:0 279:0 280:0 281:0 282:0 283:0 284:0 285:0 286:0 287:0 288:0 289:0 290:0 291:0 292:0 293:0 294:0 295:0 296:0 297:0 298:0 299:0 300:0 301:0 302:0 303:0 304:0 305:0 306:0 307:0 308:0 309:0 310:0 311:0 312:0 313:0 314:0 315:0 316:0 317:0 318:0 319:0 320:0 321:0 322:0 323:0 324:0 325:0 326:0 327:0 328:0 329:0 330:0 331:0 332:0 333:0 334:0 335:0 336:0 337:0 338:0 339:0 340:0 341:0 342:0 343:0 344:0 345:0 346:0 347:0 348:0 349:0 350:0 351:0 352:0 353:0 354:0 355:0 356:0 357:0 358:0 359:0 360:0 361:0 362:0 363:0 364:0 365:0 366:0 367:0 368:0 369:0 370:0 371:0 372:0 373:0 374:0 375:0 376:0 377:0 378:0 379:0 380:0 381:0 382:0 383:0 384:0 385:0 386:0 387:0 388:0 389:0 390:0 391:0 392:0 393:0 394:0 395:0 396:0 397:0 398:0 399:0 400:0 
9.421798795893785 2.258421727093621 9.265284205259688 2.654384319090419 3.151470065307538 5.598234603682645 7.082267411436483 6.323752849270227 3.278749521797928 4.776251863662579 3.726147124920168 2.076883619884024 3.12666240688816 3.605908850435089 5.847359724546291 3.43107665261339 1.910657494138894 3.16750729528783 7.187210540357384 4.416599656667799 4.485416974108803 3.182705368580341 6.390006270429449 3.540565244916549 4.074035609629316 1:0 2:0 3:0 4:0 5:0 6:0 7:0 8:0 9:0 10:0 11:0 12:0 13:0 14:0 15:0 16:0 17:0 18:0 19:0 20:0 21:0 22:0 23:0 24:0 25:0 26:0 27:0 28:0 29:0 30:0 31:0 32:0 33:0 34:0 35:195 36:52 37:0 38:0 39:0 40:0 41:0 42:0 43:0 44:0 45:0 46:0 47:0 48:0 49:0 50:0 51:0 52:0 53:0 54:182 55:89 56:177 57:0 58:0 59:0 60:0 61:0 62:0 63:0 64:0 65:0 66:0 67:0 68:0 69:0 70:0 71:0 72:0 73:0 74:42 75:0 76:98 77:0 78:0 79:0 80:0 81:0 82:0 83:0 84:0 85:0 86:0 87:0 88:0 89:0 90:0 91:0 92:0 93:0 94:0 95:0 96:155 97:0 98:0 99:0 100:0 101:0 102:0 103:0 104:0 105:0 106:0 107:0 108:0 109:0 110:0 111:0 112:0 113:0 114:0 115:0 116:242 117:0 118:0 119:0 120:0 121:0 122:0 123:0 124:0 125:0 126:0 127:0 128:0 129:0 130:0 131:0 132:0 133:0 134:1 135:21 136:108 137:0 138:0 139:0 140:0 141:0 142:0 143:0 144:0 145:0 146:0 147:0 148:0 149:2 150:0 151:0 152:1 153:0 154:0 155:255 156:0 157:0 158:0 159:0 160:0 161:0 162:0 163:0 164:0 165:0 166:0 167:0 168:0 169:134 170:255 171:218 172:129 173:0 174:244 175:148 176:0 177:0 178:0 179:0 180:0 181:0 182:0 183:0 184:0 185:0 186:0 187:0 188:190 189:181 190:2 191:0 192:119 193:241 194:255 195:0 196:0 197:0 198:0 199:0 200:0 201:0 202:0 203:0 204:0 205:0 206:0 207:31 208:170 209:0 210:0 211:20 212:255 213:252 214:0 215:0 216:0 217:0 218:0 219:0 220:0 221:0 222:0 223:0 224:0 225:0 226:0 227:240 228:0 229:0 230:123 231:255 232:221 233:0 234:0 235:0 236:0 237:0 238:0 239:0 240:0 241:0 242:0 243:0 244:0 245:0 246:0 247:146 248:0 249:204 250:205 251:0 252:152 253:0 254:0 255:0 256:0 257:0 258:0 259:0 260:0 261:0 262:0 263:0 264:0 265:0 266:0 267:0 268:209 269:128 270:0 271:0 272:49 273:0 274:0 275:0 276:0 277:0 278:0 279:0 280:0 281:0 282:0 283:0 284:0 285:0 286:153 287:105 288:102 289:0 290:78 291:178 292:0 293:0 294:0 295:0 296:0 297:0 298:0 299:0 300:0 301:0 302:0 303:0 304:0 305:0 306:176 307:207 308:0 309:123 310:49 311:0 312:0 313:0 314:0 315:0 316:0 317:0 318:0 319:0 320:0 321:0 322:0 323:0 324:0 325:0 326:255 327:0 328:0 329:0 330:0 331:0 332:0 333:0 334:0 335:0 336:0 337:0 338:0 339:0 340:0 341:0 342:0 343:0 344:0 345:39 346:50 347:0 348:0 349:0 350:0 351:0 352:0 353:0 354:0 355:0 356:0 357:0 358:0 359:0 360:0 361:0 362:0 363:0 364:0 365:6 366:0 367:0 368:0 369:0 370:0 371:0 372:0 373:0 374:0 375:0 376:0 377:0 378:0 379:0 380:0 381:55 382:55 383:55 384:55 385:55 386:55 387:55 388:55 389:55 390:55 391:55 392:55 393:55 394:55 395:55 396:55 397:55 398:55 399:55 400:55 
1.646589928239943 3.411764409898988 3.521576501631346 2.885165561814036 1.710393156873479 3.045721826653837 3.597379188461104 11.65311303402392 0.6850334776119384 2.934278891172691 2.657104799072686 1.872483831098684 3.000571015753525 4.551263923693626 8.302085246029758 3.40608173537961 3.259008346375256 1.947937167501896 4.740233152590075 4.460382062696668 4.513041916796624 2.794473645588813 2.426674806047131 3.469079820134407 2.354211870597021 1:0 2:0 3:0 4:0 5:0 6:0 7:0 8:0 9:0 10:0 11:0 12:0 13:0 14:0 15:0 16:0 17:0 18:0 19:0 20:0 21:0 22:0 23:0 24:0 25:0 26:0 27:0 28:0 29:0 30:0 31:0 32:0 33:0 34:0 35:0 36:0 37:0 38:0 39:0 40:0 41:0 42:0 43:0 44:0 45:0 46:161 47:48 48:0 49:0 50:0 51:0 52:0 53:0 54:0 55:0 56:0 57:0 58:0 59:41 60:32 61:0 62:0 63:49 64:193 65:224 66:55 67:0 68:0 69:0 70:0 71:0 72:0 73:0 74:0 75:0 76:0 77:0 78:90 79:207 80:0 81:0 82:71 83:243 84:166 85:8 86:0 87:0 88:0 89:0 90:0 91:0 92:0 93:0 94:0 95:0 96:0 97:82 98:255 99:184 100:0 101:27 102:255 103:255 104:0 105:0 106:0 107:0 108:0 109:0 110:0 111:0 112:0 113:0 114:0 115:0 116:52 117:255 118:255 119:255 120:83 121:135 122:255 123:211 124:0 125:0 126:0 127:0 128:0 129:0 130:0 131:0 132:0 133:0 134:0 135:0 136:11 137:52 138:235 139:255 140:188 141:155 142:255 143:255 144:0 145:0 146:0 147:0 148:0 149:0 150:0 151:0 152:0 153:0 154:0 155:0 156:0 157:0 158:0 159:230 160:176 161:77 162:255 163:255 164:14 165:0 166:0 167:0 168:0 169:0 170:0 171:0 172:0 173:0 174:0 175:0 176:0 177:0 178:1 179:179 180:108 181:0 182:255 183:255 184:119 185:0 186:0 187:0 188:0 189:0 190:0 191:0 192:0 193:0 194:0 195:0 196:0 197:0 198:0 199:216 200:0 201:0 202:157 203:255 204:192 205:7 206:1 207:0 208:0 209:0 210:0 211:0 212:0 213:0 214:0 215:0 216:0 217:0 218:158 219:150 220:0 221:0 222:47 223:249 224:255 225:23 226:10 227:175 228:212 229:188 230:158 231:133 232:99 233:72 234:56 235:91 236:141 237:255 238:205 239:0 240:0 241:0 242:0 243:240 244:205 245:0 246:215 247:255 248:255 249:255 250:255 251:255 252:255 253:255 254:255 255:255 256:255 257:219 258:7 259:0 260:0 261:0 262:7 263:248 264:23 265:201 266:217 267:130 268:142 269:176 270:219 271:225 272:231 273:234 274:228 275:213 276:95 277:0 278:0 279:0 280:0 281:0 282:133 283:100 284:113 285:105 286:0 287:0 288:0 289:0 290:0 291:4 292:20 293:26 294:11 295:0 296:0 297:0 298:0 299:0 300:0 301:0 302:147 303:0 304:4 305:0 306:0 307:0 308:0 309:0 310:0 311:0 312:0 313:0 314:0 315:0 316:0 317:0 318:0 319:0 320:0 321:0 322:0 323:0 324:0 325:0 326:0 327:0 328:0 329:0 330:0 331:0 332:0 333:0 334:0 335:0 336:0 337:0 338:0 339:0 340:0 341:0 342:0 343:0 344:0 345:0 346:0 347:0 348:0 349:0 350:0 351:0 352:0 353:0 354:0 355:0 356:0 357:0 358:0 359:0 360:0 361:0 362:0 363:0 364:0 365:0 366:0 367:0 368:0 369:0 370:0 371:0 372:0 373:0 374:0 375:0 376:0 377:0 378:0 379:0 380:0 381:0 382:0 383:0 384:0 385:0 386:0 387:0 388:0 389:0 390:0 391:0 392:0 393:0 394:0 395:0 396:0 397:0 398:0 399:0 400:0 
0 0 0 0 0 0 0.3904765786765008 1.319977456576336 0 0 0 0 0 6.901385474231867 0.6416049504678829 0 0 0 0 0 0 0 0 0 0 1:0 2:0 3:0 4:0 5:0 6:0 7:0 8:0 9:0 10:0 11:0 12:0 13:0 14:0 15:0 16:0 17:0 18:0 19:0 20:0 21:0 22:0 23:0 24:0 25:0 26:0 27:0 28:0 29:0 30:0 31:0 32:0 33:0 34:0 35:0 36:0 37:0 38:0 39:0 40:0 41:0 42:0 43:0 44:0 45:0 46:0 47:0 48:0 49:0 50:0 51:0 52:0 53:0 54:0 55:0 56:0 57:0 58:0 59:0 60:0 61:0 62:0 63:2 64:0 65:0 66:0 67:0 68:0 69:0 70:0 71:0 72:0 73:0 74:0 75:0 76:0 77:0 78:2 79:0 80:0 81:152 82:181 83:0 84:0 85:0 86:0 87:0 88:0 89:0 90:0 91:0 92:0 93:0 94:0 95:0 96:0 97:0 98:0 99:170 100:164 101:180 102:203 103:0 104:0 105:0 106:0 107:0 108:0 109:0 110:0 111:0 112:0 113:0 114:0 115:0 116:0 117:0 118:0 119:186 120:197 121:175 122:199 123:0 124:0 125:0 126:0 127:0 128:0 129:0 130:0 131:0 132:0 133:0 134:0 135:0 136:0 137:0 138:0 139:183 140:192 141:175 142:199 143:0 144:0 145:0 146:0 147:0 148:0 149:0 150:0 151:0 152:0 153:0 154:0 155:0 156:0 157:0 158:0 159:182 160:192 161:175 162:209 163:11 164:37 165:37 166:37 167:37 168:37 169:37 170:37 171:37 172:37 173:37 174:37 175:37 176:37 177:37 178:12 179:195 180:192 181:175 182:255 183:255 184:255 185:255 186:255 187:255 188:255 189:255 190:255 191:255 192:255 193:255 194:255 195:255 196:255 197:255 198:255 199:255 200:192 201:175 202:225 203:80 204:99 205:99 206:99 207:99 208:99 209:99 210:99 211:99 212:99 213:99 214:99 215:99 216:99 217:99 218:81 219:215 220:192 221:175 222:199 223:0 224:0 225:0 226:0 227:0 228:0 229:0 230:0 231:0 232:0 233:0 234:0 235:0 236:0 237:0 238:0 239:182 240:192 241:175 242:199 243:0 244:0 245:0 246:0 247:0 248:0 249:0 250:0 251:0 252:0 253:0 254:0 255:0 256:0 257:0 258:0 259:183 260:192 261:178 262:202 263:0 264:0 265:0 266:0 267:0 268:0 269:0 270:0 271:0 272:0 273:0 274:0 275:0 276:0 277:0 278:0 279:186 280:195 281:173 282:204 283:0 284:0 285:0 286:0 287:0 288:0 289:0 290:0 291:0 292:0 293:0 294:0 295:0 296:0 297:0 298:0 299:185 300:191 301:7 302:19 303:0 304:0 305:0 306:0 307:0 308:0 309:0 310:0 311:0 312:0 313:0 314:0 315:0 316:0 317:0 318:0 319:15 320:11 321:0 322:0 323:0 324:0 325:0 326:0 327:0 328:0 329:0 330:0 331:0 332:0 333:0 334:0 335:0 336:0 337:0 338:0 339:0 340:0 341:0 342:0 343:0 344:0 345:0 346:0 347:0 348:0 349:0 350:0 351:0 352:0 353:0 354:0 355:0 356:0 357:0 358:0 359:0 360:0 361:0 362:0 363:0 364:0 365:0 366:0 367:0 368:0 369:0 370:0 371:0 372:0 373:0 374:0 375:0 376:0 377:0 378:0 379:0 380:0 381:0 382:0 383:0 384:0 385:0 386:0 387:0 388:0 389:0 390:0 391:0 392:0 393:0 394:0 395:0 396:0 397:0 398:0 399:0 400:0 
2.146753165216861 0.6276905527489179 5.058144511330028 0.9298483267481582 2.341592516820333 4.574946552882539 4.12038917256687 1.432236671121328 1.617843437641539 0.6746935732559292 1.345790911953212 4.144726492647676 1.193220663535334 11.51543857851723 7.726843442521894 2.206667661420546 1.132498750971337 2.482391427124327 2.470580282439586 1.965258540652852 0.9138596847174321 1.496763147522559 3.569315697085419 2.4535754914067 1.641370602724868 1:0 2:0 3:0 4:0 5:0 6:0 7:0 8:0 9:0 10:0 11:0 12:0 13:0 14:0 15:0 16:0 17:0 18:0 19:0 20:0 21:0 22:0 23:0 24:0 25:0 26:0 27:0 28:0 29:0 30:0 31:0 32:0 33:0 34:0 35:0 36:0 37:0 38:0 39:0 40:0 41:0 42:0 43:0 44:0 45:0 46:0 47:0 48:0 49:0 50:0 51:0 52:0 53:0 54:0 55:0 56:0 57:0 58:0 59:0 60:0 61:0 62:0 63:0 64:0 65:0 66:0 67:0 68:0 69:0 70:0 71:0 72:0 73:0 74:0 75:0 76:0 77:0 78:0 79:0 80:0 81:0 82:0 83:0 84:0 85:0 86:0 87:0 88:0 89:0 90:0 91:0 92:0 93:0 94:0 95:0 96:151 97:0 98:0 99:0 100:0 101:0 102:0 103:0 104:0 105:0 106:0 107:0 108:0 109:0 110:0 111:0 112:0 113:0 114:0 115:0 116:232 117:0 118:0 119:0 120:0 121:0 122:0 123:0 124:0 125:0 126:0 127:0 128:0 129:0 130:0 131:0 132:0 133:0 134:0 135:0 136:247 137:0 138:0 139:0 140:0 141:0 142:0 143:0 144:0 145:0 146:0 147:0 148:0 149:0 150:0 151:0 152:1 153:0 154:177 155:255 156:240 157:0 158:0 159:0 160:0 161:0 162:0 163:0 164:0 165:0 166:0 167:0 168:0 169:0 170:0 171:0 172:147 173:252 174:255 175:128 176:240 177:0 178:0 179:0 180:0 181:0 182:0 183:0 184:0 185:0 186:0 187:0 188:0 189:0 190:90 191:251 192:255 193:192 194:1 195:0 196:233 197:0 198:0 199:0 200:0 201:0 202:0 203:0 204:0 205:0 206:246 207:0 208:40 209:255 210:255 211:232 212:0 213:0 214:0 215:0 216:0 217:0 218:0 219:0 220:0 221:0 222:0 223:0 224:0 225:0 226:255 227:255 228:255 229:236 230:0 231:0 232:0 233:0 234:0 235:0 236:0 237:0 238:0 239:0 240:0 241:0 242:0 243:0 244:0 245:0 246:244 247:238 248:52 249:0 250:0 251:0 252:0 253:0 254:0 255:0 256:0 257:0 258:0 259:0 260:0 261:0 262:0 263:0 264:0 265:0 266:255 267:0 268:0 269:0 270:0 271:0 272:0 273:0 274:0 275:0 276:0 277:0 278:0 279:0 280:0 281:0 282:0 283:0 284:0 285:0 286:248 287:0 288:0 289:0 290:0 291:0 292:0 293:0 294:0 295:0 296:0 297:0 298:0 299:0 300:0 301:0 302:0 303:0 304:0 305:0 306:89 307:0 308:0 309:0 310:0 311:0 312:0 313:0 314:0 315:0 316:0 317:0 318:0 319:0 320:0 321:0 322:0 323:0 324:0 325:0 326:0 327:0 328:0 329:0 330:0 331:0 332:0 333:0 334:0 335:0 336:0 337:0 338:0 339:0 340:0 341:0 342:0 343:0 344:0 345:0 346:0 347:0 348:0 349:0 350:0 351:0 352:0 353:0 354:0 355:0 356:0 357:0 358:0 359:0 360:0 361:0 362:0 363:0 364:0 365:0 366:0 367:0 368:0 369:0 370:0 371:0 372:0 373:0 374:0 375:0 376:0 377:0 378:0 379:0 380:0 381:119 382:119 383:119 384:119 385:119 386:119 387:119 388:119 389:119 390:119 391:119 392:119 393:119 394:119 395:119 396:119 397:119 398:119 399:119 400:119 
0 3.115400936322477 1.922509120464089 2.848774009265156 2.434615520528234 4.677015005524638 2.108819202305265 21.85474093936183 0 2.105770542882514 0 5.144868029395621 0.8977279582551068 21.92576579430712 0 3.280027623070469 2.39289535049181 3.084827657925381 5.130963292776197 5.197793062385699 1.024071784127799 2.546279722190807 7.50417022600326 0.07546046700299279 0.9067609982317726 1:0 2:0 3:0 4:0 5:0 6:0 7:0 8:0 9:0 10:0 11:0 12:0 13:0 14:0 15:0 16:0 17:0 18:0 19:0 20:0 21:0 22:0 23:0 24:0 25:0 26:0 27:0 28:0 29:0 30:0 31:0 32:0 33:0 34:0 35:0 36:0 37:0 38:0 39:0 40:0 41:0 42:0 43:0 44:0 45:0 46:0 47:0 48:0 49:0 50:0 51:0 52:0 53:0 54:0 55:0 56:0 57:0 58:0 59:0 60:0 61:0 62:0 63:0 64:0 65:0 66:0 67:0 68:0 69:0 70:0 71:0 72:0 73:0 74:0 75:0 76:0 77:0 78:0 79:0 80:0 81:0 82:0 83:0 84:0 85:0 86:0 87:0 88:0 89:0 90:0 91:0 92:0 93:0 94:0 95:0 96:0 97:0 98:0 99:0 100:0 101:0 102:0 103:0 104:0 105:0 106:0 107:0 108:0 109:0 110:0 111:0 112:0 113:0 114:0 115:0 116:0 117:0 118:0 119:0 120:0 121:0 122:0 123:0 124:0 125:0 126:0 127:0 128:0 129:0 130:0 131:0 132:0 133:0 134:0 135:0 136:0 137:0 138:0 139:0 140:0 141:0 142:0 143:0 144:0 145:0 146:0 147:0 148:0 149:0 150:0 151:0 152:0 153:0 154:0 155:0 156:0 157:0 158:0 159:0 160:0 161:0 162:0 163:0 164:0 165:0 166:0 167:0 168:0 169:0 170:0 171:0 172:0 173:0 174:0 175:0 176:0 177:0 178:0 179:0 180:0 181:65 182:171 183:160 184:160 185:160 186:160 187:160 188:160 189:160 190:160 191:160 192:160 193:160 194:160 195:160 196:160 197:160 198:160 199:165 200:120 201:68 202:181 203:169 204:169 205:169 206:169 207:169 208:169 209:169 210:169 211:169 212:169 213:169 214:169 215:169 216:169 217:169 218:169 219:174 220:127 221:0 222:0 223:0 224:0 225:0 226:0 227:0 228:0 229:0 230:0 231:0 232:0 233:0 234:0 235:0 236:0 237:0 238:0 239:0 240:0 241:0 242:0 243:0 244:0 245:0 246:0 247:0 248:0 249:0 250:0 251:0 252:0 253:0 254:0 255:0 256:0 257:0 258:0 259:0 260:0 261:0 262:0 263:0 264:0 265:0 266:0 267:0 268:0 269:0 270:0 271:0 272:0 273:0 274:0 275:0 276:0 277:0 278:0 279:0 280:0 281:0 282:0 283:0 284:0 285:0 286:0 287:0 288:0 289:0 290:0 291:0 292:0 293:0 294:0 295:0 296:0 297:0 298:0 299:0 300:0 301:0 302:0 303:0 304:0 305:0 306:0 307:0 308:0 309:0 310:0 311:0 312:0 313:0 314:0 315:0 316:0 317:0 318:0 319:0 320:0 321:0 322:0 323:0 324:0 325:0 326:0 327:0 328:0 329:0 330:0 331:0 332:0 333:0 334:0 335:0 336:0 337:0 338:0 339:0 340:0 341:0 342:0 343:0 344:0 345:0 346:0 347:0 348:0 349:0 350:0 351:0 352:0 353:0 354:0 355:0 356:0 357:0 358:0 359:0 360:0 361:0 362:0 363:0 364:0 365:0 366:0 367:0 368:0 369:0 370:0 371:0 372:0 373:0 374:0 375:0 376:0 377:0 378:0 379:0 380:0 381:0 382:0 383:0 384:0 385:0 386:0 387:0 388:0 389:0 390:0 391:0 392:0 393:0 394:0 395:0 396:0 397:0 398:0 399:0 400:0 
0 0.6813452893117254 0 0 0 0.5662385443825595 0.6265285162100814 15.63176783843096 0 0 0 0 0 1.160269203259876 0 0 0 0 0 0 0 0 0.5451696533820196 0.2560472569787234 0 1:0 2:0 3:0 4:0 5:0 6:0 7:0 8:0 9:0 10:0 11:0 12:0 13:0 14:0 15:0 16:0 17:0 18:0 19:0 20:0 21:0 22:0 23:0 24:0 25:0 26:0 27:0 28:0 29:0 30:0 31:0 32:0 33:0 34:0 35:0 36:0 37:0 38:0 39:0 40:0 41:0 42:0 43:0 44:0 45:0 46:0 47:0 48:0 49:0 50:0 51:0 52:0 53:0 54:0 55:0 56:0 57:0 58:0 59:0 60:0 61:0 62:0 63:0 64:0 65:0 66:0 67:0 68:0 69:0 70:0 71:0 72:0 73:0 74:0 75:0 76:0 77:0 78:0 79:0 80:0 81:0 82:2 83:0 84:0 85:0 86:0 87:0 88:0 89:0 90:0 91:0 92:0 93:0 94:0 95:0 96:0 97:0 98:0 99:0 100:0 101:0 102:0 103:255 104:0 105:0 106:0 107:0 108:0 109:0 110:0 111:0 112:0 113:0 114:0 115:0 116:0 117:0 118:11 119:196 120:0 121:0 122:102 123:255 124:0 125:0 126:0 127:0 128:0 129:0 130:0 131:0 132:0 133:0 134:0 135:0 136:0 137:0 138:72 139:255 140:46 141:0 142:197 143:247 144:0 145:0 146:0 147:0 148:0 149:0 150:0 151:0 152:0 153:0 154:0 155:0 156:0 157:0 158:143 159:255 160:104 161:0 162:255 163:199 164:0 165:0 166:0 167:0 168:0 169:0 170:0 171:0 172:0 173:0 174:0 175:0 176:0 177:0 178:234 179:255 180:7 181:74 182:255 183:255 184:255 185:255 186:255 187:255 188:255 189:255 190:255 191:255 192:255 193:241 194:222 195:201 196:178 197:176 198:255 199:224 200:0 201:102 202:255 203:232 204:202 205:205 206:209 207:214 208:222 209:233 210:245 211:254 212:255 213:255 214:255 215:255 216:255 217:255 218:255 219:141 220:0 221:90 222:255 223:96 224:0 225:0 226:0 227:0 228:0 229:0 230:0 231:0 232:0 233:0 234:0 235:7 236:42 237:246 238:255 239:0 240:0 241:48 242:255 243:25 244:0 245:0 246:0 247:0 248:0 249:0 250:0 251:0 252:0 253:0 254:0 255:0 256:19 257:243 258:135 259:0 260:0 261:2 262:36 263:0 264:0 265:0 266:0 267:0 268:0 269:0 270:0 271:0 272:0 273:0 274:0 275:0 276:0 277:19 278:4 279:0 280:0 281:0 282:0 283:0 284:0 285:0 286:0 287:0 288:0 289:0 290:0 291:0 292:0 293:0 294:0 295:0 296:0 297:0 298:0 299:0 300:0 301:0 302:0 303:0 304:0 305:0 306:0 307:0 308:0 309:0 310:0 311:0 312:0 313:0 314:0 315:0 316:0 317:0 318:0 319:0 320:0 321:0 322:0 323:0 324:0 325:0 326:0 327:0 328:0 329:0 330:0 331:0 332:0 333:0 334:0 335:0 336:0 337:0 338:0 339:0 340:0 341:0 342:0 343:0 344:0 345:0 346:0 347:0 348:0 349:0 350:0 351:0 352:0 353:0 354:0 355:0 356:0 357:0 358:0 359:0 360:0 361:0 362:0 363:0 364:0 365:0 366:0 367:0 368:0 369:0 370:0 371:0 372:0 373:0 374:0 375:0 376:0 377:0 378:0 379:0 380:0 381:0 382:0 383:0 384:0 385:0 386:0 387:0 388:0 389:0 390:0 391:0 392:0 393:0 394:0 395:0 396:0 397:0 398:0 399:0 400:0 
0.8078235852457879 0.3896549454524031 1.025170941340264 0.4021161103794377 0.8535596702319425 0.9049081915419238 2.194447926766393 0 0 0.3763691808844045 0.6577422022057734 0.2944771532827977 0.1760163571332973 3.863877539693672 4.496216966635379 0.9660734185785428 0.9437014488262019 0.6941919901732876 0.01756320968473183 0.4219153909224915 0 0.4663281789975036 1.140975391696044 0.6092037566678039 0.8629241019546566 1:0 2:0 3:0 4:0 5:0 6:0 7:0 8:0 9:0 10:0 11:0 12:0 13:0 14:0 15:0 16:0 17:0 18:0 19:10 20:148 21:0 22:0 23:1 24:0 25:56 26:0 27:0 28:0 29:0 30:0 31:0 32:0 33:0 34:0 35:0 36:0 37:0 38:2 39:189 40:198 41:0 42:1 43:0 44:166 45:255 46:0 47:0 48:0 49:0 50:0 51:0 52:0 53:0 54:0 55:0 56:0 57:0 58:22 59:236 60:192 61:0 62:0 63:175 64:255 65:110 66:0 67:0 68:0 69:0 70:0 71:0 72:0 73:0 74:0 75:0 76:0 77:0 78:23 79:240 80:192 81:0 82:65 83:251 84:60 85:0 86:1 87:0 88:0 89:0 90:0 91:0 92:0 93:0 94:0 95:0 96:0 97:0 98:19 99:237 100:192 101:0 102:204 103:119 104:0 105:0 106:0 107:0 108:0 109:0 110:0 111:0 112:0 113:0 114:0 115:0 116:0 117:1 118:81 119:255 120:192 121:0 122:255 123:58 124:0 125:0 126:0 127:0 128:0 129:0 130:0 131:0 132:1 133:0 134:0 135:0 136:76 137:168 138:255 139:255 140:192 141:22 142:255 143:36 144:0 145:0 146:0 147:0 148:0 149:0 150:0 151:0 152:0 153:45 154:153 155:239 156:251 157:255 158:101 159:231 160:192 161:91 162:255 163:33 164:0 165:1 166:0 167:0 168:18 169:70 170:118 171:200 172:255 173:255 174:255 175:255 176:185 177:43 178:8 179:242 180:192 181:110 182:255 183:31 184:0 185:0 186:61 187:184 188:223 189:252 190:255 191:255 192:255 193:255 194:162 195:57 196:3 197:0 198:23 199:240 200:192 201:125 202:255 203:26 204:77 205:235 206:255 207:255 208:253 209:227 210:205 211:122 212:45 213:0 214:0 215:0 216:0 217:0 218:23 219:241 220:187 221:139 222:255 223:166 224:255 225:255 226:206 227:132 228:74 229:25 230:0 231:0 232:0 233:0 234:0 235:0 236:0 237:0 238:23 239:247 240:139 241:144 242:255 243:255 244:144 245:8 246:0 247:0 248:0 249:0 250:0 251:0 252:0 253:0 254:0 255:0 256:0 257:0 258:24 259:255 260:65 261:144 262:255 263:63 264:0 265:0 266:0 267:0 268:0 269:0 270:0 271:0 272:0 273:0 274:0 275:0 276:1 277:0 278:99 279:255 280:0 281:144 282:255 283:29 284:0 285:0 286:0 287:0 288:0 289:0 290:0 291:0 292:0 293:0 294:0 295:0 296:0 297:96 298:255 299:112 300:0 301:144 302:255 303:31 304:0 305:0 306:0 307:0 308:0 309:0 310:0 311:0 312:0 313:0 314:0 315:0 316:15 317:222 318:129 319:0 320:0 321:144 322:255 323:31 324:0 325:0 326:0 327:0 328:0 329:0 330:0 331:0 332:0 333:0 334:0 335:0 336:9 337:44 338:0 339:0 340:0 341:146 342:206 343:10 344:0 345:0 346:0 347:0 348:0 349:0 350:0 351:0 352:0 353:0 354:0 355:0 356:0 357:0 358:0 359:0 360:0 361:112 362:59 363:0 364:0 365:0 366:0 367:0 368:0 369:0 370:0 371:0 372:0 373:0 374:0 375:0 376:0 377:0 378:0 379:0 380:0 381:0 382:0 383:0 384:0 385:0 386:0 387:0 388:0 389:0 390:0 391:0 392:0 393:0 394:0 395:0 396:0 397:0 398:0 399:0 400:0 
1.422273124161817 1.750901835150139 3.998305266108825 0.9039894447924264 2.709620980359451 2.652477754840277 3.808126060768188 2.204910420648007 0 1.42299859266259 1.35689994120645 1.307668977825072 1.364588813418061 4.398823446220993 3.35271592534587 0.9646475133661203 0.6856319757942552 1.19481436446196 2.071958221195608 1.251573271314385 1.505381455092591 1.653967255782969 0.5812686507382179 1.759652102491736 1.594374504741413 1:0 2:0 3:0 4:0 5:0 6:0 7:0 8:0 9:0 10:0 11:0 12:0 13:0 14:0 15:0 16:0 17:0 18:0 19:0 20:0 21:0 22:0 23:0 24:0 25:0 26:0 27:0 28:0 29:0 30:0 31:0 32:0 33:0 34:0 35:0 36:1 37:0 38:1 39:0 40:0 41:0 42:0 43:0 44:0 45:0 46:0 47:0 48:0 49:0 50:0 51:0 52:0 53:0 54:0 55:0 56:16 57:157 58:0 59:0 60:0 61:0 62:0 63:0 64:0 65:0 66:0 67:0 68:0 69:0 70:0 71:0 72:0 73:0 74:0 75:0 76:154 77:167 78:0 79:0 80:0 81:0 82:0 83:0 84:0 85:0 86:0 87:0 88:0 89:0 90:0 91:0 92:0 93:0 94:0 95:0 96:235 97:166 98:0 99:0 100:0 101:0 102:0 103:0 104:12 105:0 106:0 107:0 108:0 109:0 110:0 111:0 112:0 113:0 114:0 115:0 116:233 117:166 118:0 119:0 120:0 121:0 122:0 123:31 124:224 125:0 126:0 127:0 128:0 129:0 130:0 131:0 132:0 133:0 134:0 135:0 136:244 137:166 138:0 139:0 140:0 141:0 142:22 143:255 144:99 145:0 146:0 147:0 148:0 149:0 150:0 151:0 152:0 153:0 154:0 155:142 156:255 157:166 158:0 159:0 160:0 161:0 162:216 163:120 164:0 165:0 166:0 167:0 168:0 169:0 170:0 171:0 172:1 173:21 174:251 175:228 176:223 177:166 178:0 179:0 180:0 181:32 182:204 183:0 184:0 185:0 186:0 187:0 188:0 189:0 190:0 191:19 192:178 193:255 194:239 195:0 196:232 197:166 198:0 199:0 200:0 201:191 202:116 203:0 204:0 205:0 206:0 207:0 208:0 209:64 210:187 211:255 212:255 213:159 214:0 215:0 216:233 217:168 218:0 219:0 220:0 221:251 222:82 223:0 224:0 225:1 226:0 227:53 228:238 229:253 230:255 231:225 232:33 233:0 234:0 235:0 236:236 237:146 238:0 239:0 240:0 241:255 242:76 243:0 244:0 245:63 246:217 247:255 248:255 249:175 250:66 251:0 252:0 253:0 254:0 255:0 256:243 257:75 258:0 259:0 260:0 261:255 262:67 263:13 264:177 265:255 266:242 267:180 268:0 269:0 270:0 271:0 272:0 273:0 274:0 275:0 276:255 277:0 278:0 279:0 280:0 281:255 282:60 283:248 284:255 285:143 286:18 287:0 288:0 289:0 290:0 291:0 292:0 293:0 294:0 295:152 296:184 297:0 298:0 299:0 300:0 301:255 302:255 303:165 304:8 305:0 306:1 307:0 308:0 309:0 310:0 311:0 312:0 313:0 314:70 315:255 316:0 317:0 318:0 319:0 320:0 321:255 322:123 323:0 324:0 325:0 326:0 327:0 328:0 329:0 330:0 331:0 332:0 333:0 334:119 335:9 336:1 337:0 338:0 339:0 340:0 341:255 342:65 343:1 344:0 345:0 346:0 347:0 348:0 349:0 350:0 351:0 352:0 353:1 354:0 355:0 356:0 357:0 358:0 359:0 360:0 361:255 362:69 363:0 364:0 365:0 366:0 367:0 368:0 369:0 370:0 371:0 372:0 373:0 374:0 375:0 376:0 377:0 378:0 379:0 380:0 381:255 382:65 383:0 384:0 385:0 386:0 387:0 388:0 389:0 390:0 391:0 392:0 393:0 394:0 395:0 396:0 397:0 398:0 399:0 400:0 
0 0 0 0 0 0 0 13.89011508805974 0 0 0 0 0 0 0 0 0 0 0 0 0 0 0 0 0 1:0 2:0 3:0 4:0 5:0 6:0 7:0 8:0 9:0 10:0 11:0 12:0 13:0 14:0 15:0 16:0 17:0 18:0 19:0 20:0 21:0 22:0 23:0 24:0 25:0 26:0 27:0 28:0 29:0 30:0 31:0 32:0 33:0 34:0 35:0 36:0 37:0 38:0 39:0 40:0 41:0 42:0 43:0 44:0 45:0 46:0 47:0 48:0 49:0 50:0 51:0 52:0 53:0 54:0 55:0 56:0 57:0 58:0 59:0 60:0 61:0 62:0 63:0 64:0 65:0 66:0 67:0 68:0 69:0 70:0 71:0 72:0 73:0 74:0 75:0 76:0 77:0 78:0 79:35 80:109 81:0 82:0 83:0 84:0 85:0 86:0 87:0 88:0 89:0 90:0 91:0 92:0 93:0 94:0 95:0 96:0 97:0 98:0 99:108 100:201 101:0 102:0 103:0 104:0 105:0 106:0 107:0 108:0 109:0 110:0 111:0 112:0 113:0 114:0 115:0 116:0 117:0 118:0 119:122 120:192 121:0 122:0 123:0 124:0 125:0 126:0 127:0 128:0 129:0 130:0 131:0 132:0 133:0 134:0 135:0 136:0 137:0 138:70 139:229 140:192 141:0 142:0 143:0 144:0 145:0 146:0 147:0 148:0 149:0 150:0 151:0 152:0 153:0 154:16 155:105 156:206 157:245 158:250 159:255 160:192 161:140 162:149 163:0 164:0 165:0 166:0 167:0 168:0 169:19 170:56 171:109 172:173 173:249 174:255 175:255 176:255 177:255 178:255 179:255 180:192 181:145 182:151 183:0 184:0 185:0 186:35 187:115 188:193 189:224 190:244 191:255 192:255 193:255 194:255 195:255 196:215 197:139 198:51 199:147 200:192 201:144 202:200 203:99 204:193 205:255 206:255 207:255 208:255 209:255 210:254 211:229 212:213 213:143 214:61 215:0 216:0 217:0 218:0 219:109 220:195 221:144 222:255 223:255 224:255 225:255 226:255 227:255 228:201 229:125 230:76 231:30 232:0 233:0 234:0 235:0 236:0 237:0 238:0 239:80 240:152 241:144 242:255 243:248 244:224 245:143 246:43 247:0 248:0 249:0 250:0 251:0 252:0 253:0 254:0 255:0 256:0 257:0 258:0 259:0 260:0 261:144 262:229 263:32 264:0 265:0 266:0 267:0 268:0 269:0 270:0 271:0 272:0 273:0 274:0 275:0 276:0 277:0 278:0 279:0 280:0 281:144 282:156 283:0 284:0 285:0 286:0 287:0 288:0 289:0 290:0 291:0 292:0 293:0 294:0 295:0 296:0 297:0 298:0 299:0 300:0 301:151 302:148 303:0 304:0 305:0 306:0 307:0 308:0 309:0 310:0 311:0 312:0 313:0 314:0 315:0 316:0 317:0 318:0 319:0 320:0 321:44 322:46 323:0 324:0 325:0 326:0 327:0 328:0 329:0 330:0 331:0 332:0 333:0 334:0 335:0 336:0 337:0 338:0 339:0 340:0 341:0 342:0 343:0 344:0 345:0 346:0 347:0 348:0 349:0 350:0 351:0 352:0 353:0 354:0 355:0 356:0 357:0 358:0 359:0 360:0 361:0 362:0 363:0 364:0 365:0 366:0 367:0 368:0 369:0 370:0 371:0 372:0 373:0 374:0 375:0 376:0 377:0 378:0 379:0 380:0 381:0 382:0 383:0 384:0 385:0 386:0 387:0 388:0 389:0 390:0 391:0 392:0 393:0 394:0 395:0 396:0 397:0 398:0 399:0 400:0 
1.439086343824992 0 0 0 0 0 0 0 0.01598192446874313 0 0 0 0 0 0 0 0 0 0 0 0 0 0 0 0 1:0 2:0 3:0 4:0 5:0 6:0 7:0 8:0 9:0 10:0 11:0 12:0 13:0 14:0 15:0 16:0 17:0 18:0 19:0 20:0 21:0 22:0 23:0 24:0 25:0 26:0 27:0 28:0 29:0 30:0 31:0 32:0 33:0 34:0 35:0 36:0 37:0 38:0 39:0 40:0 41:0 42:0 43:0 44:0 45:0 46:0 47:0 48:0 49:0 50:0 51:0 52:0 53:0 54:0 55:0 56:0 57:0 58:0 59:0 60:0 61:0 62:0 63:0 64:0 65:0 66:0 67:0 68:0 69:0 70:0 71:0 72:0 73:0 74:0 75:0 76:0 77:0 78:0 79:0 80:0 81:0 82:0 83:0 84:0 85:0 86:0 87:0 88:0 89:0 90:0 91:0 92:0 93:0 94:0 95:0 96:0 97:0 98:0 99:92 100:143 101:0 102:0 103:0 104:0 105:0 106:0 107:0 108:0 109:0 110:0 111:0 112:0 113:0 114:0 115:0 116:0 117:0 118:0 119:147 120:192 121:0 122:0 123:0 124:0 125:0 126:0 127:0 128:0 129:0 130:0 131:0 132:0 133:0 134:0 135:0 136:14 137:55 138:109 139:228 140:192 141:15 142:153 143:10 144:0 145:0 146:0 147:0 148:0 149:0 150:0 151:0 152:27 153:104 154:173 155:234 156:246 157:249 158:253 159:255 160:192 161:25 162:255 163:6 164:0 165:5 166:42 167:70 168:109 169:166 170:215 171:255 172:255 173:255 174:255 175:255 176:255 177:255 178:237 179:255 180:192 181:24 182:255 183:155 184:197 185:217 186:236 187:253 188:255 189:255 190:255 191:255 192:255 193:255 194:230 195:168 196:95 197:51 198:28 199:166 200:192 201:24 202:255 203:255 204:255 205:255 206:255 207:243 208:226 209:208 210:168 211:95 212:37 213:0 214:0 215:0 216:0 217:0 218:0 219:121 220:180 221:24 222:255 223:251 224:186 225:138 226:84 227:55 228:24 229:0 230:0 231:0 232:0 233:0 234:0 235:0 236:0 237:0 238:0 239:21 240:35 241:24 242:255 243:18 244:0 245:0 246:0 247:0 248:0 249:0 250:0 251:0 252:0 253:0 254:0 255:0 256:0 257:0 258:0 259:0 260:0 261:27 262:255 263:19 264:0 265:0 266:0 267:0 268:0 269:0 270:0 271:0 272:0 273:0 274:0 275:0 276:0 277:0 278:0 279:0 280:0 281:4 282:40 283:3 284:0 285:0 286:0 287:0 288:0 289:0 290:0 291:0 292:0 293:0 294:0 295:0 296:0 297:0 298:0 299:0 300:0 301:0 302:0 303:0 304:0 305:0 306:0 307:0 308:0 309:0 310:0 311:0 312:0 313:0 314:0 315:0 316:0 317:0 318:0 319:0 320:0 321:0 322:0 323:0 324:0 325:0 326:0 327:0 328:0 329:0 330:0 331:0 332:0 333:0 334:0 335:0 336:0 337:0 338:0 339:0 340:0 341:0 342:0 343:0 344:0 345:0 346:0 347:0 348:0 349:0 350:0 351:0 352:0 353:0 354:0 355:0 356:0 357:0 358:0 359:0 360:0 361:0 362:0 363:0 364:0 365:0 366:0 367:0 368:0 369:0 370:0 371:0 372:0 373:0 374:0 375:0 376:0 377:0 378:0 379:0 380:0 381:0 382:0 383:0 384:0 385:0 386:0 387:0 388:0 389:0 390:0 391:0 392:0 393:0 394:0 395:0 396:0 397:0 398:0 399:0 400:0 
0 0 0 0 0.1872698948808057 0 0 0 0 0 0.2053560886837743 0 0 2.244731361585314 0 0 0 0 0 0 0 0 0 0 0 1:0 2:0 3:0 4:0 5:0 6:0 7:0 8:0 9:0 10:0 11:0 12:0 13:0 14:0 15:0 16:0 17:0 18:0 19:0 20:0 21:0 22:0 23:0 24:0 25:0 26:0 27:0 28:0 29:0 30:0 31:0 32:0 33:0 34:0 35:0 36:0 37:0 38:0 39:0 40:0 41:0 42:0 43:0 44:0 45:0 46:0 47:0 48:0 49:0 50:0 51:0 52:0 53:0 54:0 55:0 56:0 57:0 58:0 59:0 60:0 61:0 62:0 63:0 64:0 65:0 66:0 67:0 68:0 69:0 70:0 71:0 72:0 73:0 74:0 75:0 76:0 77:0 78:0 79:0 80:0 81:0 82:0 83:1 84:0 85:0 86:0 87:0 88:0 89:0 90:0 91:0 92:0 93:0 94:0 95:0 96:0 97:0 98:0 99:2 100:0 101:15 102:82 103:0 104:0 105:0 106:0 107:0 108:0 109:0 110:0 111:0 112:0 113:0 114:0 115:0 116:0 117:0 118:0 119:0 120:125 121:25 122:156 123:0 124:0 125:0 126:0 127:0 128:0 129:0 130:0 131:0 132:0 133:0 134:0 135:0 136:0 137:0 138:0 139:0 140:197 141:24 142:235 143:22 144:0 145:0 146:0 147:0 148:0 149:0 150:0 151:0 152:0 153:0 154:0 155:0 156:0 157:0 158:0 159:111 160:192 161:24 162:255 163:246 164:243 165:242 166:242 167:242 168:242 169:242 170:242 171:242 172:242 173:242 174:242 175:242 176:242 177:242 178:244 179:255 180:192 181:24 182:255 183:255 184:255 185:255 186:255 187:255 188:255 189:255 190:255 191:255 192:255 193:255 194:255 195:255 196:255 197:255 198:255 199:255 200:192 201:24 202:255 203:255 204:255 205:255 206:255 207:255 208:255 209:255 210:255 211:255 212:255 213:255 214:255 215:255 216:255 217:255 218:255 219:255 220:192 221:24 222:255 223:62 224:0 225:0 226:0 227:0 228:0 229:0 230:0 231:0 232:0 233:0 234:0 235:0 236:0 237:0 238:13 239:163 240:192 241:25 242:163 243:0 244:0 245:0 246:0 247:0 248:0 249:0 250:0 251:0 252:0 253:0 254:0 255:0 256:0 257:0 258:0 259:0 260:196 261:22 262:123 263:0 264:0 265:0 266:0 267:0 268:0 269:0 270:0 271:0 272:0 273:0 274:0 275:0 276:0 277:0 278:0 279:0 280:179 281:0 282:0 283:1 284:0 285:0 286:0 287:0 288:0 289:0 290:0 291:0 292:0 293:0 294:0 295:0 296:0 297:0 298:0 299:2 300:0 301:0 302:0 303:0 304:0 305:0 306:0 307:0 308:0 309:0 310:0 311:0 312:0 313:0 314:0 315:0 316:0 317:0 318:0 319:0 320:0 321:0 322:0 323:0 324:0 325:0 326:0 327:0 328:0 329:0 330:0 331:0 332:0 333:0 334:0 335:0 336:0 337:0 338:0 339:0 340:0 341:0 342:0 343:0 344:0 345:0 346:0 347:0 348:0 349:0 350:0 351:0 352:0 353:0 354:0 355:0 356:0 357:0 358:0 359:0 360:0 361:0 362:0 363:0 364:0 365:0 366:0 367:0 368:0 369:0 370:0 371:0 372:0 373:0 374:0 375:0 376:0 377:0 378:0 379:0 380:0 381:0 382:0 383:0 384:0 385:0 386:0 387:0 388:0 389:0 390:0 391:0 392:0 393:0 394:0 395:0 396:0 397:0 398:0 399:0 400:0 
0.4845877454669991 0 0 0 0 0 0 0 2.903641971887789 0 0.05018680490043192 0 0 0 0 0 0 0 0 0 0 0 0 0 0 1:0 2:0 3:0 4:0 5:0 6:0 7:0 8:0 9:0 10:0 11:0 12:0 13:0 14:0 15:0 16:0 17:0 18:0 19:0 20:0 21:0 22:0 23:0 24:0 25:0 26:0 27:0 28:0 29:0 30:0 31:0 32:0 33:0 34:0 35:0 36:0 37:0 38:0 39:0 40:0 41:0 42:0 43:0 44:0 45:0 46:0 47:0 48:0 49:0 50:0 51:0 52:0 53:0 54:0 55:0 56:0 57:0 58:0 59:0 60:0 61:0 62:0 63:0 64:0 65:0 66:0 67:0 68:0 69:0 70:0 71:0 72:0 73:0 74:0 75:0 76:0 77:0 78:0 79:0 80:0 81:0 82:0 83:0 84:0 85:0 86:0 87:0 88:0 89:0 90:0 91:0 92:0 93:0 94:0 95:0 96:0 97:0 98:0 99:0 100:0 101:0 102:0 103:0 104:0 105:0 106:0 107:0 108:0 109:0 110:0 111:0 112:0 113:0 114:0 115:0 116:0 117:0 118:0 119:0 120:0 121:0 122:0 123:0 124:0 125:0 126:0 127:0 128:0 129:0 130:0 131:0 132:0 133:0 134:0 135:0 136:0 137:0 138:0 139:0 140:0 141:0 142:0 143:0 144:0 145:0 146:0 147:0 148:0 149:0 150:0 151:0 152:0 153:0 154:0 155:0 156:0 157:0 158:0 159:0 160:0 161:164 162:198 163:195 164:195 165:195 166:195 167:195 168:195 169:195 170:195 171:195 172:195 173:195 174:195 175:195 176:195 177:195 178:195 179:200 180:146 181:220 182:255 183:255 184:255 185:255 186:255 187:255 188:255 189:255 190:255 191:255 192:255 193:255 194:255 195:255 196:255 197:255 198:255 199:255 200:196 201:175 202:211 203:207 204:207 205:207 206:207 207:207 208:207 209:207 210:207 211:207 212:207 213:207 214:207 215:207 216:207 217:207 218:207 219:213 220:156 221:5 222:6 223:6 224:6 225:6 226:6 227:6 228:6 229:6 230:6 231:6 232:6 233:6 234:6 235:6 236:6 237:6 238:6 239:7 240:5 241:0 242:0 243:0 244:0 245:0 246:0 247:0 248:0 249:0 250:0 251:0 252:0 253:0 254:0 255:0 256:0 257:0 258:0 259:0 260:0 261:0 262:0 263:0 264:0 265:0 266:0 267:0 268:0 269:0 270:0 271:0 272:0 273:0 274:0 275:0 276:0 277:0 278:0 279:0 280:0 281:0 282:0 283:0 284:0 285:0 286:0 287:0 288:0 289:0 290:0 291:0 292:0 293:0 294:0 295:0 296:0 297:0 298:0 299:0 300:0 301:0 302:0 303:0 304:0 305:0 306:0 307:0 308:0 309:0 310:0 311:0 312:0 313:0 314:0 315:0 316:0 317:0 318:0 319:0 320:0 321:0 322:0 323:0 324:0 325:0 326:0 327:0 328:0 329:0 330:0 331:0 332:0 333:0 334:0 335:0 336:0 337:0 338:0 339:0 340:0 341:0 342:0 343:0 344:0 345:0 346:0 347:0 348:0 349:0 350:0 351:0 352:0 353:0 354:0 355:0 356:0 357:0 358:0 359:0 360:0 361:0 362:0 363:0 364:0 365:0 366:0 367:0 368:0 369:0 370:0 371:0 372:0 373:0 374:0 375:0 376:0 377:0 378:0 379:0 380:0 381:0 382:0 383:0 384:0 385:0 386:0 387:0 388:0 389:0 390:0 391:0 392:0 393:0 394:0 395:0 396:0 397:0 398:0 399:0 400:0 
0.5394215232201338 0 1.887096677674232 0 0 0 0.3865235025262557 3.86132785071575 0 0 0 0 0 0 0 0 0 0 0 0 2.78764665567685 0.3856635169966214 0.3785906964532074 0 0.09612337078336862 1:0 2:0 3:0 4:0 5:0 6:0 7:0 8:0 9:0 10:0 11:0 12:0 13:0 14:0 15:0 16:0 17:0 18:0 19:0 20:0 21:0 22:0 23:0 24:0 25:0 26:0 27:0 28:0 29:0 30:0 31:0 32:0 33:0 34:0 35:0 36:0 37:0 38:0 39:0 40:0 41:0 42:0 43:0 44:0 45:0 46:0 47:0 48:0 49:0 50:0 51:0 52:0 53:0 54:0 55:0 56:0 57:0 58:0 59:0 60:0 61:0 62:0 63:0 64:0 65:0 66:0 67:0 68:0 69:0 70:0 71:0 72:0 73:0 74:0 75:0 76:0 77:0 78:0 79:0 80:0 81:0 82:0 83:0 84:0 85:0 86:0 87:0 88:0 89:0 90:0 91:0 92:0 93:0 94:0 95:0 96:0 97:0 98:0 99:0 100:0 101:0 102:0 103:0 104:0 105:0 106:0 107:0 108:0 109:0 110:0 111:0 112:0 113:0 114:0 115:0 116:0 117:0 118:0 119:0 120:0 121:0 122:0 123:0 124:0 125:0 126:0 127:0 128:0 129:0 130:0 131:0 132:0 133:0 134:0 135:9 136:21 137:35 138:84 139:167 140:170 141:0 142:0 143:0 144:0 145:0 146:0 147:0 148:0 149:0 150:0 151:0 152:44 153:116 154:170 155:205 156:231 157:255 158:255 159:255 160:195 161:0 162:0 163:0 164:0 165:12 166:29 167:51 168:99 169:178 170:242 171:255 172:255 173:255 174:255 175:255 176:255 177:255 178:251 179:237 180:161 181:2 182:58 183:129 184:187 185:215 186:236 187:255 188:255 189:255 190:255 191:255 192:255 193:255 194:255 195:215 196:154 197:82 198:50 199:25 200:2 201:116 202:255 203:255 204:255 205:255 206:255 207:255 208:250 209:223 210:204 211:155 212:94 213:18 214:0 215:0 216:0 217:0 218:0 219:0 220:0 221:107 222:255 223:255 224:255 225:203 226:139 227:64 228:38 229:18 230:1 231:0 232:0 233:0 234:0 235:0 236:0 237:0 238:0 239:0 240:0 241:52 242:88 243:11 244:0 245:0 246:0 247:0 248:0 249:0 250:0 251:0 252:0 253:0 254:0 255:0 256:0 257:0 258:0 259:0 260:0 261:0 262:0 263:0 264:0 265:0 266:0 267:0 268:0 269:0 270:0 271:0 272:0 273:0 274:0 275:0 276:0 277:0 278:0 279:0 280:0 281:0 282:0 283:0 284:0 285:0 286:0 287:0 288:0 289:0 290:0 291:0 292:0 293:0 294:0 295:0 296:0 297:0 298:0 299:0 300:0 301:0 302:0 303:0 304:0 305:0 306:0 307:0 308:0 309:0 310:0 311:0 312:0 313:0 314:0 315:0 316:0 317:0 318:0 319:0 320:0 321:0 322:0 323:0 324:0 325:0 326:0 327:0 328:0 329:0 330:0 331:0 332:0 333:0 334:0 335:0 336:0 337:0 338:0 339:0 340:0 341:0 342:0 343:0 344:0 345:0 346:0 347:0 348:0 349:0 350:0 351:0 352:0 353:0 354:0 355:0 356:0 357:0 358:0 359:0 360:0 361:0 362:0 363:0 364:0 365:0 366:0 367:0 368:0 369:0 370:0 371:0 372:0 373:0 374:0 375:0 376:0 377:0 378:0 379:0 380:0 381:0 382:0 383:0 384:0 385:0 386:0 387:0 388:0 389:0 390:0 391:0 392:0 393:0 394:0 395:0 396:0 397:0 398:0 399:0 400:0 
0 0 0 0 0 0 0 0 0 0 0 0 0 0.00504228239071367 0 0 0 0 0 0 0 0 0 0 0 1:0 2:0 3:0 4:0 5:0 6:0 7:0 8:0 9:0 10:0 11:0 12:0 13:0 14:0 15:0 16:0 17:0 18:0 19:0 20:0 21:0 22:0 23:0 24:0 25:0 26:0 27:0 28:0 29:0 30:0 31:0 32:0 33:0 34:0 35:0 36:0 37:0 38:0 39:0 40:0 41:0 42:0 43:0 44:0 45:0 46:0 47:0 48:0 49:0 50:0 51:0 52:0 53:0 54:0 55:0 56:0 57:0 58:0 59:0 60:0 61:0 62:0 63:0 64:0 65:0 66:0 67:0 68:0 69:0 70:0 71:0 72:0 73:0 74:0 75:0 76:0 77:0 78:0 79:0 80:0 81:0 82:0 83:0 84:0 85:0 86:0 87:0 88:0 89:0 90:0 91:0 92:0 93:0 94:0 95:0 96:0 97:0 98:0 99:0 100:0 101:0 102:0 103:1 104:0 105:0 106:0 107:0 108:0 109:0 110:0 111:0 112:0 113:0 114:0 115:0 116:0 117:0 118:0 119:0 120:0 121:82 122:203 123:0 124:0 125:0 126:0 127:0 128:0 129:0 130:0 131:0 132:0 133:0 134:0 135:0 136:0 137:0 138:0 139:144 140:152 141:106 142:255 143:0 144:0 145:0 146:0 147:0 148:0 149:0 150:0 151:0 152:0 153:0 154:0 155:0 156:0 157:0 158:0 159:185 160:196 161:104 162:255 163:46 164:53 165:53 166:53 167:53 168:53 169:53 170:53 171:53 172:53 173:53 174:53 175:53 176:53 177:53 178:50 179:198 180:192 181:104 182:255 183:255 184:255 185:255 186:255 187:255 188:255 189:255 190:255 191:255 192:255 193:255 194:255 195:255 196:255 197:255 198:255 199:255 200:192 201:104 202:255 203:255 204:255 205:255 206:255 207:255 208:255 209:255 210:255 211:255 212:255 213:255 214:255 215:255 216:255 217:255 218:255 219:255 220:192 221:104 222:255 223:46 224:53 225:53 226:53 227:53 228:53 229:53 230:53 231:53 232:53 233:53 234:53 235:53 236:53 237:53 238:50 239:198 240:192 241:106 242:255 243:0 244:0 245:0 246:0 247:0 248:0 249:0 250:0 251:0 252:0 253:0 254:0 255:0 256:0 257:0 258:0 259:184 260:196 261:86 262:211 263:0 264:0 265:0 266:0 267:0 268:0 269:0 270:0 271:0 272:0 273:0 274:0 275:0 276:0 277:0 278:0 279:150 280:159 281:0 282:0 283:1 284:0 285:0 286:0 287:0 288:0 289:0 290:0 291:0 292:0 293:0 294:0 295:0 296:0 297:0 298:0 299:0 300:0 301:0 302:0 303:0 304:0 305:0 306:0 307:0 308:0 309:0 310:0 311:0 312:0 313:0 314:0 315:0 316:0 317:0 318:0 319:0 320:0 321:0 322:0 323:0 324:0 325:0 326:0 327:0 328:0 329:0 330:0 331:0 332:0 333:0 334:0 335:0 336:0 337:0 338:0 339:0 340:0 341:0 342:0 343:0 344:0 345:0 346:0 347:0 348:0 349:0 350:0 351:0 352:0 353:0 354:0 355:0 356:0 357:0 358:0 359:0 360:0 361:0 362:0 363:0 364:0 365:0 366:0 367:0 368:0 369:0 370:0 371:0 372:0 373:0 374:0 375:0 376:0 377:0 378:0 379:0 380:0 381:0 382:0 383:0 384:0 385:0 386:0 387:0 388:0 389:0 390:0 391:0 392:0 393:0 394:0 395:0 396:0 397:0 398:0 399:0 400:0 
0 0 3.571596225437712 0 0 4.309311080198742 0 0 0.8219183685291759 0 0 0 0 0 0 0 0 0 0 0 0 0 1.796920219935984 0 0 1:0 2:0 3:0 4:0 5:0 6:0 7:0 8:0 9:0 10:0 11:0 12:0 13:0 14:0 15:0 16:0 17:0 18:0 19:0 20:0 21:0 22:0 23:0 24:0 25:0 26:0 27:0 28:0 29:0 30:0 31:0 32:0 33:0 34:0 35:0 36:0 37:0 38:0 39:0 40:0 41:0 42:0 43:0 44:0 45:0 46:0 47:0 48:0 49:0 50:0 51:0 52:0 53:0 54:0 55:0 56:0 57:0 58:0 59:0 60:0 61:0 62:0 63:0 64:0 65:0 66:0 67:0 68:0 69:0 70:0 71:0 72:0 73:0 74:0 75:0 76:0 77:0 78:0 79:0 80:0 81:0 82:0 83:0 84:0 85:0 86:0 87:0 88:0 89:0 90:0 91:0 92:0 93:0 94:0 95:0 96:0 97:0 98:0 99:0 100:0 101:0 102:0 103:0 104:0 105:0 106:0 107:0 108:0 109:0 110:0 111:0 112:0 113:0 114:0 115:0 116:0 117:0 118:0 119:0 120:0 121:0 122:0 123:0 124:0 125:0 126:0 127:0 128:0 129:0 130:0 131:0 132:0 133:0 134:0 135:0 136:0 137:0 138:0 139:0 140:0 141:0 142:0 143:0 144:0 145:0 146:0 147:0 148:0 149:0 150:0 151:0 152:0 153:0 154:0 155:0 156:0 157:0 158:0 159:0 160:0 161:73 162:194 163:182 164:182 165:182 166:182 167:182 168:182 169:182 170:182 171:182 172:182 173:182 174:182 175:182 176:182 177:182 178:182 179:187 180:136 181:106 182:255 183:255 184:255 185:255 186:255 187:255 188:255 189:255 190:255 191:255 192:255 193:255 194:255 195:255 196:255 197:255 198:255 199:255 200:196 201:83 202:219 203:204 204:204 205:204 206:204 207:204 208:204 209:204 210:204 211:204 212:204 213:204 214:204 215:204 216:204 217:204 218:204 219:210 220:154 221:2 222:4 223:4 224:4 225:4 226:4 227:4 228:4 229:4 230:4 231:4 232:4 233:4 234:4 235:4 236:4 237:4 238:4 239:4 240:3 241:0 242:0 243:0 244:0 245:0 246:0 247:0 248:0 249:0 250:0 251:0 252:0 253:0 254:0 255:0 256:0 257:0 258:0 259:0 260:0 261:0 262:0 263:0 264:0 265:0 266:0 267:0 268:0 269:0 270:0 271:0 272:0 273:0 274:0 275:0 276:0 277:0 278:0 279:0 280:0 281:0 282:0 283:0 284:0 285:0 286:0 287:0 288:0 289:0 290:0 291:0 292:0 293:0 294:0 295:0 296:0 297:0 298:0 299:0 300:0 301:0 302:0 303:0 304:0 305:0 306:0 307:0 308:0 309:0 310:0 311:0 312:0 313:0 314:0 315:0 316:0 317:0 318:0 319:0 320:0 321:0 322:0 323:0 324:0 325:0 326:0 327:0 328:0 329:0 330:0 331:0 332:0 333:0 334:0 335:0 336:0 337:0 338:0 339:0 340:0 341:0 342:0 343:0 344:0 345:0 346:0 347:0 348:0 349:0 350:0 351:0 352:0 353:0 354:0 355:0 356:0 357:0 358:0 359:0 360:0 361:0 362:0 363:0 364:0 365:0 366:0 367:0 368:0 369:0 370:0 371:0 372:0 373:0 374:0 375:0 376:0 377:0 378:0 379:0 380:0 381:0 382:0 383:0 384:0 385:0 386:0 387:0 388:0 389:0 390:0 391:0 392:0 393:0 394:0 395:0 396:0 397:0 398:0 399:0 400:0 
0 0.1112328704013383 0.79768998154264 0.1446144155554688 0.6912112832524456 1.567556011972661 0 0 2.216011906324098 0.2891599878279501 0.2214710404864877 0 0.3894213723705609 8.30164786820011 4.108904867811627 0.1293044157242562 0 0 0 0.1490075507456129 0 0 0 0 0 1:0 2:0 3:0 4:0 5:0 6:0 7:0 8:0 9:0 10:0 11:0 12:0 13:0 14:0 15:0 16:0 17:0 18:0 19:0 20:0 21:0 22:0 23:0 24:0 25:0 26:0 27:0 28:0 29:0 30:0 31:0 32:0 33:0 34:0 35:0 36:0 37:0 38:0 39:0 40:0 41:6 42:7 43:0 44:0 45:0 46:0 47:0 48:0 49:0 50:0 51:0 52:0 53:0 54:0 55:0 56:0 57:0 58:0 59:8 60:5 61:119 62:117 63:0 64:0 65:0 66:0 67:0 68:0 69:0 70:0 71:0 72:0 73:0 74:0 75:0 76:0 77:0 78:0 79:121 80:112 81:207 82:198 83:0 84:0 85:0 86:0 87:0 88:0 89:0 90:0 91:0 92:0 93:0 94:0 95:0 96:0 97:0 98:0 99:200 100:199 101:200 102:192 103:0 104:0 105:0 106:0 107:0 108:0 109:0 110:0 111:0 112:0 113:0 114:0 115:0 116:0 117:0 118:0 119:193 120:192 121:200 122:191 123:0 124:0 125:0 126:0 127:0 128:0 129:0 130:0 131:0 132:0 133:0 134:0 135:0 136:0 137:0 138:0 139:192 140:192 141:200 142:191 143:0 144:0 145:0 146:0 147:0 148:0 149:0 150:0 151:0 152:0 153:0 154:0 155:0 156:0 157:0 158:0 159:192 160:192 161:200 162:207 163:31 164:57 165:57 166:57 167:57 168:57 169:57 170:57 171:57 172:57 173:57 174:57 175:57 176:57 177:57 178:31 179:208 180:192 181:200 182:255 183:255 184:255 185:255 186:255 187:255 188:255 189:255 190:255 191:255 192:255 193:255 194:255 195:255 196:255 197:255 198:255 199:255 200:192 201:200 202:216 203:66 204:88 205:88 206:88 207:88 208:88 209:88 210:88 211:88 212:88 213:88 214:88 215:88 216:88 217:88 218:66 219:217 220:192 221:200 222:188 223:0 224:0 225:0 226:0 227:0 228:0 229:0 230:0 231:0 232:0 233:0 234:0 235:0 236:0 237:0 238:0 239:189 240:192 241:200 242:191 243:0 244:0 245:0 246:0 247:0 248:0 249:0 250:0 251:0 252:0 253:0 254:0 255:0 256:0 257:0 258:0 259:192 260:192 261:200 262:191 263:0 264:0 265:0 266:0 267:0 268:0 269:0 270:0 271:0 272:0 273:0 274:0 275:0 276:0 277:0 278:0 279:192 280:192 281:202 282:193 283:0 284:0 285:0 286:0 287:0 288:0 289:0 290:0 291:0 292:0 293:0 294:0 295:0 296:0 297:0 298:0 299:195 300:194 301:139 302:136 303:0 304:0 305:0 306:0 307:0 308:0 309:0 310:0 311:0 312:0 313:0 314:0 315:0 316:0 317:0 318:0 319:140 320:130 321:8 322:10 323:0 324:0 325:0 326:0 327:0 328:0 329:0 330:0 331:0 332:0 333:0 334:0 335:0 336:0 337:0 338:0 339:12 340:5 341:0 342:0 343:1 344:0 345:0 346:0 347:0 348:0 349:0 350:0 351:0 352:0 353:0 354:0 355:0 356:0 357:0 358:1 359:0 360:0 361:0 362:0 363:0 364:0 365:0 366:0 367:0 368:0 369:0 370:0 371:0 372:0 373:0 374:0 375:0 376:0 377:0 378:0 379:0 380:0 381:0 382:0 383:0 384:0 385:0 386:0 387:0 388:0 389:0 390:0 391:0 392:0 393:0 394:0 395:0 396:0 397:0 398:0 399:0 400:0 
0 0.1186220977670385 0.1437826483665345 0 0 0.5064620794813277 0 0 0.7486249998556487 0.2316575714805532 0.4159583266011966 0 0 4.651137583781281 0 0.3161244186622371 1.052160486590203 0 0 0 0 0 0 0 0 1:0 2:0 3:0 4:0 5:0 6:0 7:0 8:0 9:0 10:0 11:0 12:0 13:0 14:0 15:0 16:0 17:0 18:0 19:0 20:0 21:0 22:0 23:0 24:0 25:0 26:0 27:0 28:0 29:0 30:0 31:0 32:0 33:0 34:0 35:0 36:0 37:0 38:0 39:0 40:0 41:0 42:0 43:0 44:0 45:0 46:0 47:0 48:0 49:0 50:0 51:0 52:0 53:0 54:0 55:0 56:0 57:0 58:0 59:0 60:0 61:0 62:0 63:0 64:0 65:0 66:0 67:0 68:0 69:0 70:0 71:0 72:0 73:0 74:0 75:0 76:0 77:0 78:0 79:0 80:0 81:0 82:0 83:0 84:0 85:0 86:0 87:0 88:0 89:0 90:0 91:0 92:0 93:0 94:0 95:0 96:0 97:0 98:0 99:0 100:0 101:25 102:31 103:0 104:0 105:0 106:0 107:0 108:0 109:0 110:0 111:0 112:0 113:0 114:0 115:0 116:0 117:0 118:0 119:27 120:29 121:151 122:161 123:0 124:0 125:0 126:0 127:0 128:0 129:0 130:0 131:0 132:0 133:0 134:0 135:0 136:0 137:0 138:0 139:145 140:166 141:177 142:180 143:0 144:0 145:0 146:0 147:0 148:0 149:0 150:0 151:0 152:0 153:0 154:0 155:0 156:0 157:0 158:0 159:164 160:193 161:176 162:187 163:0 164:23 165:23 166:23 167:23 168:23 169:23 170:23 171:23 172:23 173:23 174:23 175:23 176:23 177:23 178:0 179:172 180:192 181:176 182:255 183:255 184:255 185:255 186:255 187:255 188:255 189:255 190:255 191:255 192:255 193:255 194:255 195:255 196:255 197:255 198:255 199:255 200:192 201:176 202:208 203:65 204:84 205:84 206:84 207:84 208:84 209:84 210:84 211:84 212:84 213:84 214:84 215:84 216:84 217:84 218:67 219:196 220:192 221:176 222:178 223:0 224:0 225:0 226:0 227:0 228:0 229:0 230:0 231:0 232:0 233:0 234:0 235:0 236:0 237:0 238:0 239:162 240:192 241:166 242:171 243:0 244:0 245:0 246:0 247:0 248:0 249:0 250:0 251:0 252:0 253:0 254:0 255:0 256:0 257:0 258:0 259:155 260:181 261:49 262:59 263:0 264:0 265:0 266:0 267:0 268:0 269:0 270:0 271:0 272:0 273:0 274:0 275:0 276:0 277:0 278:0 279:52 280:56 281:0 282:0 283:1 284:0 285:0 286:0 287:0 288:0 289:0 290:0 291:0 292:0 293:0 294:0 295:0 296:0 297:0 298:1 299:0 300:0 301:0 302:0 303:0 304:0 305:0 306:0 307:0 308:0 309:0 310:0 311:0 312:0 313:0 314:0 315:0 316:0 317:0 318:0 319:0 320:0 321:0 322:0 323:0 324:0 325:0 326:0 327:0 328:0 329:0 330:0 331:0 332:0 333:0 334:0 335:0 336:0 337:0 338:0 339:0 340:0 341:0 342:0 343:0 344:0 345:0 346:0 347:0 348:0 349:0 350:0 351:0 352:0 353:0 354:0 355:0 356:0 357:0 358:0 359:0 360:0 361:0 362:0 363:0 364:0 365:0 366:0 367:0 368:0 369:0 370:0 371:0 372:0 373:0 374:0 375:0 376:0 377:0 378:0 379:0 380:0 381:0 382:0 383:0 384:0 385:0 386:0 387:0 388:0 389:0 390:0 391:0 392:0 393:0 394:0 395:0 396:0 397:0 398:0 399:0 400:0 
0 0 0.3264204410570318 0 0 0 0 0 0 0 0 0 0 1.871187288314624 0 0 0 0 0 0 0 0 0 0 0 1:0 2:0 3:0 4:0 5:0 6:0 7:0 8:0 9:0 10:0 11:0 12:0 13:0 14:0 15:0 16:0 17:0 18:0 19:0 20:0 21:0 22:0 23:0 24:0 25:0 26:0 27:0 28:0 29:0 30:0 31:0 32:0 33:0 34:0 35:0 36:0 37:0 38:0 39:0 40:0 41:0 42:0 43:0 44:0 45:0 46:0 47:0 48:0 49:0 50:0 51:0 52:0 53:0 54:0 55:0 56:0 57:0 58:0 59:1 60:0 61:0 62:0 63:0 64:0 65:0 66:0 67:0 68:0 69:0 70:0 71:0 72:0 73:0 74:0 75:0 76:0 77:0 78:1 79:0 80:90 81:0 82:0 83:0 84:0 85:0 86:0 87:0 88:0 89:0 90:0 91:0 92:0 93:0 94:0 95:0 96:0 97:0 98:0 99:33 100:183 101:0 102:0 103:0 104:0 105:0 106:0 107:0 108:0 109:0 110:0 111:0 112:0 113:0 114:0 115:0 116:0 117:0 118:0 119:81 120:184 121:0 122:0 123:1 124:0 125:0 126:0 127:0 128:0 129:0 130:0 131:0 132:0 133:0 134:0 135:5 136:33 137:58 138:103 139:212 140:184 141:0 142:28 143:0 144:0 145:0 146:0 147:0 148:0 149:0 150:0 151:0 152:17 153:62 154:106 155:159 156:218 157:255 158:255 159:255 160:187 161:17 162:178 163:0 164:1 165:0 166:0 167:0 168:0 169:33 170:101 171:173 172:207 173:235 174:255 175:255 176:255 177:255 178:255 179:255 180:187 181:36 182:226 183:0 184:0 185:9 186:90 187:171 188:228 189:239 190:247 191:255 192:255 193:255 194:255 195:255 196:202 197:126 198:37 199:104 200:190 201:34 202:255 203:152 204:240 205:255 206:255 207:255 208:255 209:254 210:245 211:235 212:210 213:140 214:67 215:0 216:0 217:0 218:0 219:67 220:183 221:32 222:255 223:255 224:255 225:255 226:250 227:219 228:192 229:150 230:84 231:11 232:0 233:0 234:0 235:0 236:0 237:0 238:0 239:48 240:60 241:34 242:255 243:242 244:189 245:138 246:86 247:38 248:0 249:0 250:0 251:0 252:0 253:0 254:0 255:0 256:0 257:0 258:0 259:4 260:0 261:36 262:244 263:19 264:19 265:0 266:0 267:0 268:0 269:0 270:0 271:0 272:0 273:0 274:0 275:0 276:0 277:0 278:0 279:0 280:0 281:38 282:214 283:0 284:0 285:0 286:0 287:0 288:0 289:0 290:0 291:0 292:0 293:0 294:0 295:0 296:0 297:0 298:0 299:0 300:0 301:37 302:116 303:0 304:0 305:0 306:0 307:0 308:0 309:0 310:0 311:0 312:0 313:0 314:0 315:0 316:0 317:0 318:0 319:0 320:0 321:10 322:0 323:2 324:0 325:0 326:0 327:0 328:0 329:0 330:0 331:0 332:0 333:0 334:0 335:0 336:0 337:0 338:0 339:0 340:0 341:0 342:0 343:0 344:0 345:0 346:0 347:0 348:0 349:0 350:0 351:0 352:0 353:0 354:0 355:0 356:0 357:0 358:0 359:0 360:0 361:0 362:0 363:0 364:0 365:0 366:0 367:0 368:0 369:0 370:0 371:0 372:0 373:0 374:0 375:0 376:0 377:0 378:0 379:0 380:0 381:0 382:0 383:0 384:0 385:0 386:0 387:0 388:0 389:0 390:0 391:0 392:0 393:0 394:0 395:0 396:0 397:0 398:0 399:0 400:0 
0 0 0 0 0 0.853765859273553 0 0 0 0 0 0 0 1.752871366486001 0.7117951987303298 0 0 0.0622859434492062 0 0 0 0 0 0 0 1:0 2:0 3:0 4:0 5:0 6:0 7:0 8:0 9:0 10:0 11:0 12:0 13:0 14:0 15:0 16:0 17:0 18:0 19:0 20:0 21:0 22:0 23:0 24:0 25:0 26:0 27:0 28:0 29:0 30:0 31:0 32:0 33:0 34:0 35:0 36:0 37:0 38:0 39:0 40:0 41:0 42:0 43:0 44:0 45:0 46:0 47:0 48:0 49:0 50:0 51:0 52:0 53:0 54:0 55:0 56:0 57:2 58:0 59:0 60:0 61:24 62:185 63:103 64:0 65:0 66:0 67:0 68:0 69:0 70:0 71:0 72:0 73:0 74:0 75:0 76:0 77:0 78:55 79:184 80:76 81:80 82:255 83:186 84:10 85:0 86:0 87:0 88:0 89:0 90:0 91:0 92:0 93:0 94:0 95:0 96:0 97:0 98:130 99:255 100:184 101:104 102:255 103:198 104:22 105:0 106:0 107:0 108:0 109:0 110:0 111:0 112:0 113:0 114:0 115:0 116:0 117:0 118:148 119:255 120:192 121:103 122:255 123:197 124:21 125:0 126:0 127:0 128:0 129:0 130:0 131:0 132:0 133:0 134:0 135:0 136:0 137:0 138:148 139:255 140:192 141:103 142:255 143:194 144:6 145:0 146:0 147:0 148:0 149:0 150:0 151:0 152:0 153:0 154:0 155:0 156:0 157:0 158:140 159:255 160:192 161:103 162:255 163:216 164:96 165:81 166:82 167:82 168:82 169:82 170:82 171:82 172:82 173:82 174:82 175:82 176:82 177:67 178:182 179:255 180:192 181:103 182:255 183:253 184:246 185:245 186:245 187:245 188:245 189:245 190:245 191:245 192:245 193:245 194:245 195:245 196:245 197:244 198:251 199:255 200:192 201:103 202:255 203:252 204:245 205:244 206:244 207:244 208:244 209:244 210:244 211:244 212:244 213:244 214:244 215:244 216:244 217:243 218:250 219:255 220:192 221:103 222:255 223:214 224:90 225:74 226:75 227:75 228:75 229:75 230:75 231:75 232:75 233:75 234:75 235:75 236:75 237:60 238:179 239:255 240:192 241:103 242:255 243:194 244:7 245:0 246:0 247:0 248:0 249:0 250:0 251:0 252:0 253:0 254:0 255:0 256:0 257:0 258:141 259:255 260:192 261:103 262:255 263:198 264:22 265:0 266:0 267:0 268:0 269:0 270:0 271:0 272:0 273:0 274:0 275:0 276:0 277:0 278:148 279:255 280:192 281:103 282:255 283:198 284:22 285:0 286:0 287:0 288:0 289:0 290:0 291:0 292:0 293:0 294:0 295:0 296:0 297:0 298:148 299:255 300:192 301:96 302:255 303:187 304:10 305:0 306:0 307:0 308:0 309:0 310:0 311:0 312:0 313:0 314:0 315:0 316:0 317:0 318:131 319:255 320:166 321:24 322:198 323:104 324:0 325:0 326:0 327:0 328:0 329:0 330:0 331:0 332:0 333:0 334:0 335:0 336:0 337:0 338:58 339:183 340:69 341:0 342:0 343:0 344:0 345:0 346:0 347:0 348:0 349:0 350:0 351:0 352:0 353:0 354:0 355:0 356:0 357:2 358:0 359:0 360:0 361:0 362:0 363:0 364:0 365:0 366:0 367:0 368:0 369:0 370:0 371:0 372:0 373:0 374:0 375:0 376:0 377:0 378:0 379:0 380:0 381:0 382:0 383:0 384:0 385:0 386:0 387:0 388:0 389:0 390:0 391:0 392:0 393:0 394:0 395:0 396:0 397:0 398:0 399:0 400:0 
3.819766935882773 2.875127188870101 10.06191442488192 3.288877838140507 4.179613693001365 5.368828358631381 5.474354440689014 9.02501424488517 3.772956563787842 3.819999513656347 3.899847368368754 2.989270708497943 2.982230841985404 4.134599042801175 5.312851034521206 3.100340843421007 3.475251788797191 2.920396607549331 6.201356030719217 4.27576630109693 5.1857931687579 4.09400369539259 3.231910708272215 4.556401294392872 2.086190433560923 1:0 2:0 3:0 4:0 5:0 6:0 7:0 8:0 9:0 10:0 11:0 12:0 13:0 14:0 15:0 16:0 17:0 18:0 19:0 20:0 21:0 22:0 23:0 24:0 25:0 26:0 27:0 28:0 29:0 30:0 31:0 32:0 33:0 34:0 35:0 36:0 37:0 38:0 39:0 40:0 41:0 42:0 43:0 44:0 45:0 46:0 47:0 48:0 49:0 50:0 51:0 52:0 53:0 54:0 55:0 56:0 57:0 58:0 59:0 60:0 61:0 62:0 63:0 64:0 65:0 66:0 67:0 68:0 69:0 70:0 71:0 72:0 73:0 74:0 75:0 76:19 77:0 78:0 79:0 80:0 81:0 82:0 83:0 84:0 85:0 86:0 87:0 88:0 89:0 90:0 91:0 92:0 93:0 94:0 95:0 96:148 97:0 98:0 99:0 100:0 101:0 102:0 103:0 104:0 105:0 106:0 107:1 108:0 109:92 110:0 111:0 112:0 113:0 114:0 115:228 116:255 117:0 118:0 119:0 120:0 121:0 122:0 123:0 124:0 125:0 126:0 127:55 128:105 129:0 130:0 131:0 132:0 133:0 134:3 135:216 136:255 137:0 138:0 139:0 140:0 141:0 142:0 143:0 144:0 145:0 146:5 147:221 148:0 149:0 150:0 151:0 152:0 153:0 154:0 155:0 156:224 157:0 158:0 159:0 160:0 161:0 162:0 163:0 164:0 165:0 166:250 167:102 168:0 169:0 170:0 171:0 172:0 173:0 174:0 175:0 176:213 177:1 178:0 179:0 180:0 181:0 182:0 183:0 184:0 185:0 186:247 187:147 188:0 189:0 190:0 191:0 192:0 193:0 194:0 195:70 196:42 197:0 198:0 199:0 200:0 201:0 202:0 203:0 204:0 205:0 206:240 207:251 208:0 209:0 210:0 211:0 212:0 213:52 214:180 215:233 216:0 217:0 218:0 219:0 220:0 221:0 222:0 223:0 224:0 225:0 226:29 227:255 228:0 229:130 230:234 231:255 232:255 233:255 234:237 235:0 236:0 237:0 238:0 239:0 240:0 241:0 242:0 243:0 244:0 245:0 246:0 247:255 248:6 249:255 250:231 251:193 252:120 253:22 254:0 255:0 256:0 257:0 258:0 259:0 260:0 261:0 262:0 263:0 264:0 265:0 266:0 267:172 268:197 269:0 270:0 271:0 272:0 273:0 274:0 275:0 276:0 277:0 278:0 279:0 280:0 281:0 282:0 283:0 284:0 285:0 286:71 287:0 288:0 289:0 290:0 291:0 292:0 293:0 294:0 295:0 296:0 297:0 298:0 299:0 300:0 301:0 302:0 303:0 304:0 305:0 306:0 307:1 308:0 309:0 310:0 311:0 312:0 313:0 314:0 315:0 316:0 317:0 318:0 319:0 320:0 321:0 322:0 323:0 324:0 325:0 326:0 327:0 328:0 329:0 330:0 331:0 332:0 333:0 334:0 335:0 336:0 337:0 338:0 339:0 340:0 341:0 342:0 343:0 344:0 345:0 346:0 347:0 348:0 349:0 350:0 351:0 352:0 353:0 354:0 355:0 356:0 357:0 358:0 359:0 360:0 361:0 362:0 363:0 364:0 365:0 366:0 367:0 368:0 369:0 370:0 371:0 372:0 373:0 374:0 375:0 376:0 377:0 378:0 379:0 380:0 381:55 382:55 383:55 384:55 385:55 386:55 387:55 388:55 389:55 390:55 391:55 392:55 393:55 394:55 395:55 396:55 397:55 398:55 399:55 400:55 
0 0.1323851144422669 0 0 0 0.9389941001670929 2.237641642734792 13.09283280577348 0 0 0 0.5920274694004766 0 2.958215030247168 1.592677251827445 0.5447712534211007 0 2.075969705899141 0 0 2.922784867849059 0.8887890217980078 1.275346853754084 1.002451421879926 0.1118796230229483 1:27 2:0 3:0 4:0 5:0 6:0 7:0 8:0 9:0 10:0 11:0 12:0 13:0 14:0 15:0 16:0 17:0 18:0 19:0 20:0 21:27 22:0 23:0 24:0 25:0 26:0 27:0 28:0 29:0 30:0 31:0 32:0 33:0 34:0 35:0 36:0 37:0 38:0 39:0 40:0 41:27 42:0 43:0 44:0 45:0 46:0 47:0 48:0 49:0 50:0 51:0 52:0 53:0 54:0 55:0 56:0 57:0 58:0 59:0 60:0 61:27 62:0 63:0 64:0 65:0 66:0 67:0 68:0 69:0 70:0 71:0 72:0 73:0 74:0 75:0 76:0 77:0 78:0 79:0 80:0 81:27 82:0 83:0 84:0 85:0 86:0 87:0 88:0 89:0 90:0 91:0 92:0 93:0 94:0 95:0 96:0 97:0 98:0 99:0 100:0 101:27 102:0 103:0 104:0 105:0 106:0 107:0 108:0 109:0 110:0 111:0 112:0 113:0 114:0 115:0 116:0 117:0 118:0 119:0 120:0 121:27 122:0 123:0 124:0 125:0 126:0 127:0 128:0 129:0 130:0 131:0 132:0 133:0 134:0 135:0 136:0 137:0 138:0 139:0 140:0 141:27 142:0 143:0 144:0 145:0 146:0 147:0 148:0 149:0 150:0 151:0 152:0 153:0 154:0 155:0 156:0 157:0 158:0 159:0 160:0 161:27 162:55 163:0 164:0 165:0 166:0 167:0 168:0 169:0 170:0 171:0 172:0 173:0 174:0 175:0 176:196 177:0 178:0 179:0 180:0 181:27 182:92 183:0 184:0 185:0 186:0 187:0 188:0 189:0 190:0 191:0 192:0 193:0 194:0 195:0 196:222 197:0 198:0 199:0 200:0 201:27 202:255 203:251 204:252 205:252 206:252 207:252 208:252 209:252 210:252 211:252 212:252 213:252 214:252 215:255 216:216 217:0 218:0 219:24 220:0 221:27 222:255 223:184 224:185 225:185 226:185 227:185 228:185 229:185 230:185 231:185 232:185 233:185 234:185 235:195 236:221 237:0 238:0 239:70 240:0 241:27 242:76 243:0 244:0 245:0 246:0 247:0 248:0 249:0 250:0 251:0 252:0 253:0 254:0 255:0 256:213 257:0 258:0 259:55 260:23 261:27 262:16 263:0 264:0 265:0 266:0 267:0 268:0 269:0 270:0 271:0 272:0 273:0 274:0 275:0 276:59 277:0 278:0 279:50 280:255 281:27 282:0 283:0 284:0 285:0 286:0 287:0 288:0 289:0 290:0 291:0 292:0 293:0 294:0 295:0 296:0 297:0 298:0 299:59 300:74 301:27 302:0 303:0 304:0 305:0 306:0 307:0 308:0 309:0 310:0 311:0 312:0 313:0 314:0 315:0 316:0 317:0 318:0 319:51 320:0 321:27 322:0 323:0 324:0 325:0 326:0 327:0 328:0 329:0 330:0 331:0 332:0 333:0 334:0 335:0 336:0 337:0 338:0 339:0 340:0 341:27 342:0 343:0 344:0 345:0 346:0 347:0 348:0 349:0 350:0 351:0 352:0 353:0 354:0 355:0 356:0 357:0 358:0 359:0 360:0 361:27 362:0 363:0 364:0 365:0 366:0 367:0 368:0 369:0 370:0 371:0 372:0 373:0 374:0 375:0 376:0 377:0 378:0 379:0 380:0 381:27 382:0 383:0 384:0 385:0 386:0 387:0 388:0 389:0 390:0 391:0 392:0 393:0 394:0 395:0 396:0 397:0 398:0 399:0 400:0 
0 0 0 0 0 0 0.9627683922981586 0 0 0 0 0 0 0 0 0 0 0 0 0 0 0.1172774249030009 0 0 0.5968781096908462 1:0 2:0 3:0 4:0 5:0 6:0 7:0 8:0 9:0 10:0 11:0 12:0 13:0 14:0 15:0 16:0 17:0 18:0 19:0 20:0 21:0 22:0 23:0 24:0 25:0 26:0 27:0 28:0 29:0 30:0 31:0 32:0 33:0 34:0 35:0 36:0 37:0 38:0 39:0 40:0 41:0 42:0 43:0 44:0 45:0 46:0 47:0 48:0 49:0 50:0 51:0 52:0 53:0 54:0 55:0 56:0 57:0 58:0 59:0 60:0 61:24 62:45 63:26 64:0 65:0 66:0 67:0 68:0 69:0 70:0 71:0 72:0 73:0 74:0 75:0 76:0 77:0 78:20 79:45 80:30 81:171 82:255 83:186 84:0 85:0 86:0 87:0 88:0 89:0 90:0 91:0 92:0 93:0 94:0 95:0 96:0 97:0 98:147 99:255 100:216 101:152 102:255 103:166 104:0 105:0 106:0 107:0 108:0 109:0 110:0 111:0 112:0 113:0 114:0 115:0 116:0 117:0 118:130 119:255 120:192 121:152 122:255 123:166 124:0 125:0 126:0 127:0 128:0 129:0 130:0 131:0 132:0 133:0 134:0 135:0 136:0 137:0 138:130 139:255 140:192 141:152 142:255 143:155 144:0 145:0 146:0 147:0 148:0 149:0 150:0 151:0 152:0 153:0 154:0 155:0 156:0 157:0 158:115 159:255 160:192 161:152 162:255 163:238 164:207 165:209 166:209 167:209 168:209 169:209 170:209 171:209 172:209 173:209 174:209 175:209 176:209 177:208 178:232 179:255 180:192 181:152 182:255 183:255 184:255 185:255 186:255 187:255 188:255 189:255 190:255 191:255 192:255 193:255 194:255 195:255 196:255 197:255 198:255 199:255 200:192 201:152 202:255 203:255 204:255 205:255 206:255 207:255 208:255 209:255 210:255 211:255 212:255 213:255 214:255 215:255 216:255 217:255 218:255 219:255 220:192 221:152 222:255 223:162 224:0 225:0 226:0 227:0 228:0 229:0 230:0 231:0 232:0 233:0 234:0 235:0 236:0 237:0 238:125 239:255 240:192 241:152 242:255 243:166 244:0 245:0 246:0 247:0 248:0 249:0 250:0 251:0 252:0 253:0 254:0 255:0 256:0 257:0 258:130 259:255 260:192 261:152 262:255 263:166 264:0 265:0 266:0 267:0 268:0 269:0 270:0 271:0 272:0 273:0 274:0 275:0 276:0 277:0 278:130 279:255 280:192 281:155 282:255 283:169 284:0 285:0 286:0 287:0 288:0 289:0 290:0 291:0 292:0 293:0 294:0 295:0 296:0 297:0 298:133 299:255 300:196 301:75 302:141 303:83 304:0 305:0 306:0 307:0 308:0 309:0 310:0 311:0 312:0 313:0 314:0 315:0 316:0 317:0 318:65 319:140 320:96 321:0 322:0 323:0 324:0 325:0 326:0 327:0 328:0 329:0 330:0 331:0 332:0 333:0 334:0 335:0 336:0 337:0 338:0 339:0 340:0 341:0 342:0 343:0 344:0 345:0 346:0 347:0 348:0 349:0 350:0 351:0 352:0 353:0 354:0 355:0 356:0 357:0 358:0 359:0 360:0 361:0 362:0 363:0 364:0 365:0 366:0 367:0 368:0 369:0 370:0 371:0 372:0 373:0 374:0 375:0 376:0 377:0 378:0 379:0 380:0 381:0 382:0 383:0 384:0 385:0 386:0 387:0 388:0 389:0 390:0 391:0 392:0 393:0 394:0 395:0 396:0 397:0 398:0 399:0 400:0 
2.25145508024671 2.366078029850889 3.391721939662284 3.386865668944017 4.388267107229447 3.228180319774773 3.878868616872323 0 6.264779645416839 1.426071211617715 1.997985323448533 2.928278683263107 1.920586895623715 1.553745002683619 5.142485608715506 1.87497819820472 1.388992895105888 2.390620822443329 3.313026529374464 1.926123019973228 3.773823346564703 1.801018119579611 4.9931166961263 2.515662888681726 1.257882848265324 1:0 2:0 3:0 4:0 5:0 6:0 7:0 8:0 9:0 10:0 11:0 12:0 13:0 14:0 15:0 16:0 17:0 18:0 19:0 20:0 21:0 22:0 23:0 24:0 25:0 26:0 27:0 28:0 29:0 30:0 31:0 32:0 33:0 34:0 35:0 36:0 37:0 38:0 39:0 40:0 41:0 42:0 43:0 44:0 45:0 46:0 47:0 48:0 49:0 50:0 51:0 52:0 53:0 54:0 55:0 56:0 57:0 58:0 59:0 60:0 61:0 62:0 63:0 64:0 65:0 66:0 67:0 68:0 69:0 70:0 71:0 72:0 73:0 74:0 75:0 76:0 77:0 78:0 79:0 80:0 81:0 82:0 83:0 84:0 85:0 86:0 87:0 88:0 89:0 90:0 91:0 92:0 93:0 94:0 95:0 96:0 97:0 98:0 99:0 100:0 101:142 102:85 103:0 104:0 105:0 106:0 107:0 108:0 109:0 110:0 111:0 112:0 113:0 114:0 115:0 116:0 117:0 118:0 119:83 120:143 121:173 122:128 123:0 124:0 125:0 126:0 127:0 128:0 129:0 130:0 131:0 132:0 133:0 134:0 135:0 136:0 137:0 138:0 139:99 140:199 141:168 142:235 143:94 144:54 145:57 146:57 147:57 148:57 149:57 150:57 151:57 152:57 153:57 154:57 155:57 156:57 157:54 158:86 159:218 160:191 161:168 162:198 163:182 164:205 165:204 166:204 167:204 168:204 169:204 170:204 171:204 172:204 173:204 174:204 175:204 176:204 177:205 178:186 179:189 180:191 181:168 182:110 183:0 184:0 185:0 186:0 187:0 188:0 189:0 190:0 191:0 192:0 193:0 194:0 195:0 196:0 197:0 198:0 199:88 200:191 201:168 202:110 203:0 204:0 205:0 206:0 207:0 208:0 209:0 210:0 211:0 212:0 213:0 214:0 215:0 216:0 217:0 218:0 219:89 220:191 221:168 222:196 223:180 224:204 225:202 226:202 227:202 228:202 229:202 230:202 231:202 232:202 233:202 234:202 235:202 236:202 237:203 238:184 239:187 240:191 241:168 242:233 243:93 244:50 245:54 246:54 247:54 248:54 249:54 250:54 251:54 252:54 253:54 254:54 255:54 256:54 257:50 258:85 259:220 260:191 261:173 262:125 263:0 264:0 265:0 266:0 267:0 268:0 269:0 270:0 271:0 272:0 273:0 274:0 275:0 276:0 277:0 278:0 279:100 280:195 281:144 282:104 283:0 284:0 285:0 286:0 287:0 288:0 289:0 290:0 291:0 292:0 293:0 294:0 295:0 296:0 297:0 298:0 299:80 300:171 301:0 302:0 303:0 304:0 305:0 306:0 307:0 308:0 309:0 310:0 311:0 312:0 313:0 314:0 315:0 316:0 317:0 318:0 319:0 320:0 321:0 322:0 323:0 324:0 325:0 326:0 327:0 328:0 329:0 330:0 331:0 332:0 333:0 334:0 335:0 336:0 337:0 338:0 339:0 340:0 341:0 342:0 343:0 344:0 345:0 346:0 347:0 348:0 349:0 350:0 351:0 352:0 353:0 354:0 355:0 356:0 357:0 358:0 359:0 360:0 361:0 362:0 363:0 364:0 365:0 366:0 367:0 368:0 369:0 370:0 371:0 372:0 373:0 374:0 375:0 376:0 377:0 378:0 379:0 380:0 381:0 382:0 383:0 384:0 385:0 386:0 387:0 388:0 389:0 390:0 391:0 392:0 393:0 394:0 395:0 396:0 397:0 398:0 399:0 400:0 
0 0 0 0 0 0 0 0 0 0 0 0 0 0.8296627949774451 0 0 0 0 0 0 0 0 0 0 0 1:0 2:0 3:0 4:0 5:0 6:0 7:0 8:0 9:0 10:0 11:0 12:0 13:0 14:0 15:0 16:0 17:0 18:0 19:0 20:0 21:0 22:0 23:0 24:0 25:0 26:0 27:0 28:0 29:0 30:0 31:0 32:0 33:0 34:0 35:0 36:0 37:0 38:0 39:0 40:0 41:0 42:0 43:0 44:0 45:0 46:0 47:0 48:0 49:0 50:0 51:0 52:0 53:0 54:0 55:0 56:0 57:0 58:0 59:0 60:0 61:0 62:0 63:0 64:0 65:0 66:0 67:0 68:0 69:0 70:0 71:0 72:0 73:0 74:0 75:0 76:0 77:0 78:0 79:0 80:0 81:0 82:0 83:0 84:0 85:0 86:0 87:0 88:0 89:0 90:0 91:0 92:0 93:0 94:0 95:0 96:0 97:0 98:0 99:0 100:0 101:0 102:0 103:1 104:0 105:0 106:0 107:0 108:0 109:0 110:0 111:0 112:0 113:0 114:0 115:0 116:0 117:0 118:0 119:0 120:0 121:82 122:203 123:0 124:0 125:0 126:0 127:0 128:0 129:0 130:0 131:0 132:0 133:0 134:0 135:0 136:0 137:0 138:0 139:144 140:152 141:106 142:255 143:0 144:0 145:0 146:0 147:0 148:0 149:0 150:0 151:0 152:0 153:0 154:0 155:0 156:0 157:0 158:0 159:185 160:196 161:104 162:255 163:46 164:53 165:53 166:53 167:53 168:53 169:53 170:53 171:53 172:53 173:53 174:53 175:53 176:53 177:53 178:50 179:198 180:192 181:104 182:255 183:255 184:255 185:255 186:255 187:255 188:255 189:255 190:255 191:255 192:255 193:255 194:255 195:255 196:255 197:255 198:255 199:255 200:192 201:104 202:255 203:255 204:255 205:255 206:255 207:255 208:255 209:255 210:255 211:255 212:255 213:255 214:255 215:255 216:255 217:255 218:255 219:255 220:192 221:104 222:255 223:46 224:53 225:53 226:53 227:53 228:53 229:53 230:53 231:53 232:53 233:53 234:53 235:53 236:53 237:53 238:50 239:198 240:192 241:106 242:255 243:0 244:0 245:0 246:0 247:0 248:0 249:0 250:0 251:0 252:0 253:0 254:0 255:0 256:0 257:0 258:0 259:184 260:196 261:86 262:211 263:0 264:0 265:0 266:0 267:0 268:0 269:0 270:0 271:0 272:0 273:0 274:0 275:0 276:0 277:0 278:0 279:150 280:159 281:0 282:0 283:1 284:0 285:0 286:0 287:0 288:0 289:0 290:0 291:0 292:0 293:0 294:0 295:0 296:0 297:0 298:0 299:0 300:0 301:0 302:0 303:0 304:0 305:0 306:0 307:0 308:0 309:0 310:0 311:0 312:0 313:0 314:0 315:0 316:0 317:0 318:0 319:0 320:0 321:0 322:0 323:0 324:0 325:0 326:0 327:0 328:0 329:0 330:0 331:0 332:0 333:0 334:0 335:0 336:0 337:0 338:0 339:0 340:0 341:0 342:0 343:0 344:0 345:0 346:0 347:0 348:0 349:0 350:0 351:0 352:0 353:0 354:0 355:0 356:0 357:0 358:0 359:0 360:0 361:0 362:0 363:0 364:0 365:0 366:0 367:0 368:0 369:0 370:0 371:0 372:0 373:0 374:0 375:0 376:0 377:0 378:0 379:0 380:0 381:0 382:0 383:0 384:0 385:0 386:0 387:0 388:0 389:0 390:0 391:0 392:0 393:0 394:0 395:0 396:0 397:0 398:0 399:0 400:0 
-0 0.3291611484548869 1.187410218367364 0 0 0 0 0 0 0 1.777615635165926 0 1.433562544390172 0 0 0 0 0 0 0 0 0.1613328746875294 0.4578399159648167 2.621620693150855 1.000277759185629 1:0 2:0 3:0 4:0 5:0 6:0 7:0 8:0 9:0 10:0 11:0 12:0 13:0 14:0 15:0 16:0 17:0 18:0 19:0 20:0 21:0 22:0 23:0 24:0 25:0 26:0 27:0 28:0 29:0 30:0 31:0 32:0 33:0 34:0 35:0 36:0 37:0 38:0 39:0 40:0 41:0 42:0 43:0 44:0 45:0 46:0 47:0 48:0 49:0 50:0 51:0 52:0 53:0 54:0 55:0 56:0 57:0 58:0 59:0 60:0 61:0 62:0 63:0 64:0 65:0 66:0 67:0 68:0 69:0 70:0 71:0 72:0 73:0 74:0 75:0 76:0 77:0 78:0 79:0 80:0 81:0 82:0 83:0 84:0 85:0 86:0 87:0 88:0 89:0 90:0 91:0 92:0 93:0 94:0 95:0 96:0 97:0 98:0 99:0 100:0 101:0 102:38 103:46 104:46 105:46 106:46 107:46 108:46 109:46 110:46 111:46 112:46 113:46 114:46 115:46 116:46 117:46 118:46 119:47 120:34 121:0 122:231 123:242 124:241 125:241 126:241 127:241 128:241 129:241 130:241 131:241 132:241 133:241 134:241 135:241 136:241 137:241 138:241 139:249 140:182 141:9 142:255 143:254 144:255 145:255 146:255 147:255 148:255 149:255 150:255 151:255 152:254 153:255 154:255 155:255 156:255 157:255 158:255 159:255 160:205 161:39 162:255 163:255 164:29 165:56 166:56 167:56 168:56 169:56 170:50 171:147 172:255 173:197 174:46 175:56 176:56 177:56 178:56 179:58 180:42 181:60 182:255 183:251 184:0 185:0 186:0 187:0 188:0 189:0 190:0 191:127 192:255 193:177 194:0 195:0 196:0 197:0 198:0 199:0 200:0 201:46 202:255 203:255 204:0 205:0 206:0 207:0 208:0 209:0 210:0 211:161 212:255 213:163 214:0 215:0 216:0 217:0 218:0 219:0 220:0 221:0 222:255 223:255 224:64 225:0 226:0 227:0 228:0 229:0 230:18 231:225 232:255 233:110 234:0 235:0 236:0 237:0 238:0 239:0 240:0 241:0 242:213 243:255 244:232 245:54 246:0 247:0 248:0 249:0 250:192 251:255 252:252 253:60 254:0 255:0 256:0 257:0 258:0 259:0 260:0 261:0 262:81 263:254 264:255 265:255 266:255 267:216 268:253 269:255 270:255 271:255 272:182 273:0 274:0 275:0 276:0 277:0 278:0 279:0 280:0 281:0 282:0 283:120 284:255 285:255 286:255 287:255 288:255 289:255 290:255 291:222 292:2 293:0 294:0 295:0 296:0 297:0 298:0 299:0 300:0 301:0 302:1 303:0 304:15 305:142 306:229 307:232 308:230 309:190 310:66 311:0 312:1 313:0 314:0 315:0 316:0 317:0 318:0 319:0 320:0 321:0 322:0 323:0 324:0 325:0 326:0 327:0 328:0 329:0 330:0 331:0 332:0 333:0 334:0 335:0 336:0 337:0 338:0 339:0 340:0 341:0 342:0 343:0 344:0 345:0 346:0 347:0 348:0 349:0 350:0 351:0 352:0 353:0 354:0 355:0 356:0 357:0 358:0 359:0 360:0 361:0 362:0 363:0 364:0 365:0 366:0 367:0 368:0 369:0 370:0 371:0 372:0 373:0 374:0 375:0 376:0 377:0 378:0 379:0 380:0 381:0 382:0 383:0 384:0 385:0 386:0 387:0 388:0 389:0 390:0 391:0 392:0 393:0 394:0 395:0 396:0 397:0 398:0 399:0 400:0 
-0.4669471597600588 2.970495925540789 0 2.520285333567503 2.450765845491022 0.2330780334755717 1.416181110731279 1.634220319177263 1.423926321838046 2.184673441173969 2.338615945567475 0.8737090569649792 1.842957481103019 0.7119174934515741 1.427647932013613 2.171135355638784 2.600238880147294 1.72264687518888 1.625702457888749 2.349686670617537 2.265667537035866 3.111380041061354 1.357487365893516 3.243726127839833 2.622110446303805 1:0 2:0 3:0 4:129 5:246 6:0 7:0 8:0 9:0 10:0 11:0 12:0 13:0 14:0 15:0 16:0 17:0 18:0 19:0 20:0 21:0 22:0 23:0 24:129 25:248 26:8 27:28 28:30 29:30 30:30 31:30 32:30 33:30 34:30 35:30 36:30 37:30 38:30 39:30 40:30 41:0 42:0 43:0 44:129 45:255 46:227 47:229 48:229 49:229 50:229 51:229 52:229 53:229 54:221 55:216 56:229 57:229 58:229 59:229 60:229 61:0 62:0 63:0 64:129 65:255 66:183 67:189 68:190 69:190 70:190 71:190 72:190 73:190 74:228 75:254 76:192 77:190 78:190 79:190 80:190 81:0 82:0 83:0 84:129 85:246 86:0 87:0 88:0 89:0 90:0 91:0 92:0 93:0 94:136 95:235 96:2 97:0 98:0 99:0 100:0 101:0 102:0 103:0 104:129 105:246 106:0 107:0 108:0 109:0 110:0 111:0 112:0 113:0 114:139 115:236 116:9 117:0 118:0 119:0 120:0 121:0 122:0 123:0 124:129 125:246 126:0 127:0 128:0 129:0 130:0 131:0 132:0 133:0 134:139 135:236 136:9 137:0 138:0 139:0 140:0 141:0 142:0 143:0 144:129 145:246 146:0 147:0 148:0 149:0 150:0 151:0 152:0 153:0 154:139 155:236 156:9 157:0 158:0 159:0 160:0 161:0 162:0 163:0 164:129 165:246 166:0 167:0 168:0 169:0 170:0 171:0 172:0 173:0 174:139 175:236 176:9 177:0 178:0 179:0 180:0 181:0 182:0 183:0 184:130 185:246 186:0 187:0 188:0 189:0 190:0 191:0 192:0 193:1 194:143 195:236 196:9 197:0 198:0 199:0 200:0 201:0 202:0 203:0 204:112 205:249 206:10 207:0 208:0 209:0 210:0 211:0 212:0 213:7 214:170 215:217 216:8 217:0 218:0 219:0 220:0 221:0 222:0 223:0 224:68 225:254 226:47 227:0 228:0 229:0 230:0 231:0 232:0 233:15 234:203 235:176 236:5 237:0 238:0 239:0 240:0 241:0 242:0 243:0 244:18 245:255 246:121 247:0 248:0 249:0 250:0 251:0 252:0 253:34 254:255 255:125 256:2 257:0 258:0 259:0 260:0 261:0 262:0 263:0 264:0 265:235 266:216 267:3 268:0 269:0 270:0 271:2 272:0 273:124 274:255 275:68 276:0 277:0 278:0 279:0 280:0 281:0 282:0 283:0 284:0 285:83 286:255 287:119 288:0 289:0 290:1 291:0 292:26 293:255 294:190 295:3 296:0 297:0 298:0 299:0 300:0 301:0 302:0 303:0 304:0 305:9 306:212 307:255 308:129 309:0 310:0 311:50 312:231 313:246 314:63 315:0 316:0 317:0 318:0 319:0 320:0 321:0 322:0 323:0 324:0 325:0 326:6 327:178 328:255 329:255 330:255 331:255 332:242 333:51 334:0 335:1 336:0 337:0 338:0 339:0 340:0 341:0 342:0 343:0 344:0 345:0 346:0 347:2 348:96 349:160 350:182 351:132 352:43 353:0 354:2 355:0 356:0 357:0 358:0 359:0 360:0 361:0 362:0 363:0 364:0 365:0 366:0 367:0 368:0 369:0 370:8 371:0 372:0 373:1 374:0 375:0 376:0 377:0 378:0 379:0 380:0 381:0 382:0 383:0 384:0 385:0 386:0 387:0 388:0 389:0 390:0 391:0 392:0 393:0 394:0 395:0 396:0 397:0 398:0 399:0 400:0 
-0.4472164162716969 0 0 1.073211279149364 0.7699581331221423 1.133723661493384 0.5346986331880137 0 0.9012073627617749 1.612511991156114 0.0195675303825573 0.2499565938045179 0.1023848293496785 1.574319653176077 1.631025841686776 0 0 0.2624119499047532 0.1371389527645188 0.5214792787313324 0.5994612129917241 0.6906723456941068 0 0 0 1:0 2:0 3:0 4:0 5:0 6:0 7:0 8:0 9:0 10:0 11:0 12:0 13:0 14:0 15:0 16:0 17:0 18:0 19:0 20:0 21:7 22:7 23:0 24:0 25:0 26:0 27:0 28:0 29:0 30:0 31:0 32:0 33:0 34:0 35:0 36:0 37:0 38:0 39:8 40:6 41:108 42:108 43:0 44:0 45:0 46:0 47:0 48:0 49:0 50:0 51:0 52:0 53:0 54:0 55:0 56:0 57:0 58:0 59:112 60:101 61:211 62:200 63:0 64:0 65:0 66:0 67:0 68:0 69:0 70:0 71:0 72:0 73:0 74:0 75:0 76:0 77:0 78:0 79:202 80:203 81:201 82:198 83:0 84:21 85:21 86:21 87:21 88:21 89:21 90:21 91:21 92:21 93:21 94:21 95:21 96:21 97:21 98:0 99:198 100:193 101:200 102:255 103:240 104:242 105:242 106:242 107:242 108:242 109:242 110:243 111:226 112:225 113:241 114:242 115:242 116:242 117:242 118:240 119:255 120:192 121:200 122:218 123:78 124:98 125:98 126:98 127:98 128:98 129:97 130:92 131:211 132:216 133:106 134:98 135:98 136:98 137:98 138:78 139:219 140:192 141:200 142:189 143:0 144:0 145:0 146:0 147:0 148:0 149:0 150:0 151:180 152:189 153:5 154:0 155:0 156:0 157:0 158:0 159:190 160:192 161:200 162:191 163:0 164:0 165:0 166:0 167:0 168:0 169:0 170:0 171:182 172:191 173:12 174:0 175:0 176:0 177:0 178:0 179:192 180:192 181:200 182:191 183:0 184:0 185:0 186:0 187:0 188:0 189:0 190:0 191:182 192:191 193:12 194:0 195:0 196:0 197:0 198:0 199:192 200:192 201:202 202:190 203:0 204:0 205:0 206:0 207:0 208:0 209:0 210:0 211:180 212:193 213:12 214:0 215:0 216:0 217:0 218:0 219:198 220:201 221:194 222:196 223:0 224:0 225:0 226:0 227:0 228:0 229:0 230:0 231:195 232:170 233:10 234:0 235:0 236:0 237:0 238:0 239:177 240:160 241:145 242:227 243:0 244:0 245:0 246:0 247:0 248:0 249:0 250:24 251:226 252:126 253:4 254:0 255:0 256:0 257:0 258:0 259:15 260:13 261:86 262:248 263:33 264:0 265:0 266:0 267:0 268:0 269:0 270:76 271:255 272:75 273:0 274:0 275:0 276:0 277:0 278:0 279:0 280:0 281:7 282:248 283:177 284:0 285:0 286:0 287:0 288:0 289:21 290:204 291:210 292:20 293:0 294:0 295:0 296:0 297:0 298:0 299:0 300:0 301:0 302:98 303:255 304:141 305:17 306:0 307:0 308:34 309:174 310:255 311:71 312:0 313:0 314:0 315:0 316:0 317:0 318:0 319:0 320:0 321:0 322:2 323:146 324:255 325:229 326:156 327:164 328:229 329:255 330:91 331:0 332:0 333:0 334:0 335:0 336:0 337:0 338:0 339:0 340:0 341:0 342:0 343:0 344:77 345:157 346:222 347:216 348:145 349:56 350:0 351:0 352:0 353:0 354:0 355:0 356:0 357:0 358:0 359:0 360:0 361:0 362:0 363:0 364:0 365:8 366:22 367:20 368:7 369:0 370:0 371:0 372:0 373:0 374:0 375:0 376:0 377:0 378:0 379:0 380:0 381:0 382:0 383:0 384:0 385:0 386:0 387:0 388:0 389:0 390:0 391:0 392:0 393:0 394:0 395:0 396:0 397:0 398:0 399:0 400:0 
-7.998893828150941 3.3059302819468 5.462066183586463 4.491756602624078 2.425080561229475 6.518545697557976 4.978275184912262 5.782946181600246 1.947872849726799 5.377850711238581 2.503455952471445 2.52436799212072 2.929694122137678 3.415607510351057 4.020479763556385 3.246910759686658 2.818390267989617 1.991699293468555 7.810509353404248 5.813818203559103 4.258338165272651 3.96648714260532 6.717377402213634 3.071120077238386 5.844910700542731 1:0 2:0 3:0 4:0 5:0 6:0 7:0 8:0 9:0 10:0 11:0 12:0 13:0 14:0 15:0 16:0 17:0 18:0 19:0 20:0 21:0 22:0 23:0 24:0 25:0 26:0 27:0 28:0 29:0 30:0 31:0 32:0 33:0 34:79 35:136 36:221 37:0 38:0 39:0 40:0 41:0 42:0 43:0 44:0 45:0 46:0 47:0 48:0 49:0 50:0 51:0 52:0 53:0 54:155 55:10 56:67 57:0 58:0 59:0 60:0 61:0 62:0 63:0 64:0 65:0 66:0 67:0 68:0 69:0 70:222 71:191 72:0 73:0 74:0 75:0 76:44 77:0 78:0 79:0 80:0 81:0 82:0 83:0 84:0 85:0 86:0 87:0 88:85 89:32 90:1 91:0 92:178 93:0 94:0 95:0 96:166 97:0 98:0 99:0 100:0 101:0 102:0 103:0 104:0 105:0 106:0 107:46 108:0 109:1 110:0 111:0 112:128 113:0 114:0 115:0 116:208 117:0 118:0 119:0 120:0 121:0 122:0 123:0 124:0 125:0 126:0 127:152 128:0 129:0 130:0 131:40 132:0 133:0 134:1 135:86 136:50 137:0 138:0 139:0 140:0 141:0 142:0 143:0 144:0 145:0 146:80 147:0 148:0 149:0 150:0 151:164 152:0 153:0 154:0 155:255 156:0 157:0 158:0 159:0 160:0 161:0 162:0 163:0 164:0 165:0 166:132 167:0 168:0 169:0 170:253 171:0 172:0 173:0 174:255 175:6 176:0 177:0 178:0 179:0 180:0 181:0 182:0 183:0 184:0 185:5 186:15 187:30 188:106 189:249 190:0 191:118 192:0 193:255 194:166 195:1 196:0 197:0 198:0 199:0 200:0 201:0 202:0 203:0 204:0 205:66 206:2 207:75 208:29 209:0 210:156 211:11 212:255 213:220 214:0 215:0 216:0 217:0 218:0 219:0 220:0 221:0 222:0 223:0 224:0 225:89 226:0 227:0 228:0 229:0 230:70 231:255 232:182 233:0 234:0 235:0 236:0 237:0 238:0 239:0 240:0 241:0 242:0 243:0 244:0 245:80 246:1 247:0 248:0 249:117 250:255 251:68 252:171 253:0 254:0 255:0 256:0 257:0 258:0 259:0 260:0 261:0 262:0 263:0 264:0 265:50 266:11 267:0 268:122 269:255 270:8 271:0 272:78 273:0 274:0 275:0 276:0 277:0 278:0 279:0 280:0 281:0 282:0 283:0 284:0 285:0 286:60 287:59 288:255 289:0 290:0 291:203 292:0 293:0 294:0 295:0 296:0 297:0 298:0 299:0 300:0 301:0 302:0 303:0 304:0 305:0 306:228 307:246 308:0 309:0 310:244 311:157 312:0 313:0 314:0 315:0 316:0 317:0 318:0 319:0 320:0 321:0 322:0 323:0 324:0 325:0 326:235 327:255 328:255 329:255 330:158 331:0 332:0 333:0 334:0 335:0 336:0 337:0 338:0 339:0 340:0 341:0 342:0 343:0 344:0 345:2 346:0 347:0 348:41 349:0 350:0 351:0 352:0 353:0 354:0 355:0 356:0 357:0 358:0 359:0 360:0 361:0 362:0 363:0 364:0 365:0 366:0 367:0 368:0 369:0 370:0 371:0 372:0 373:0 374:0 375:0 376:0 377:0 378:0 379:0 380:0 381:55 382:55 383:55 384:55 385:55 386:55 387:55 388:55 389:55 390:55 391:55 392:55 393:55 394:55 395:55 396:55 397:55 398:55 399:55 400:55 
-0 2.736404849486567 4.567438887496342 3.94117449624433 4.41978093890919 1.433743942482532 1.127417652462003 2.155275442760937 1.058160949150998 2.654368533357318 2.333338746667117 2.989086053716114 4.392359673836976 0.4951245065413635 1.011162250192845 3.192985998114374 3.782438648145122 2.9568671235588 3.395717708390399 2.40554988964624 1.048823368914263 1.790274914713595 2.935854085272214 1.315897163084008 1.999934217372233 1:0 2:0 3:0 4:0 5:0 6:0 7:0 8:0 9:0 10:0 11:0 12:0 13:0 14:0 15:0 16:0 17:0 18:0 19:0 20:0 21:0 22:0 23:0 24:0 25:0 26:0 27:0 28:0 29:0 30:0 31:0 32:0 33:0 34:0 35:0 36:0 37:0 38:0 39:0 40:0 41:0 42:0 43:0 44:0 45:0 46:0 47:0 48:0 49:0 50:0 51:0 52:0 53:0 54:0 55:0 56:0 57:0 58:0 59:0 60:0 61:0 62:0 63:0 64:0 65:0 66:0 67:0 68:0 69:0 70:0 71:0 72:0 73:0 74:0 75:0 76:0 77:0 78:0 79:0 80:0 81:0 82:0 83:0 84:0 85:0 86:0 87:0 88:0 89:0 90:0 91:0 92:0 93:0 94:0 95:0 96:0 97:0 98:0 99:0 100:0 101:48 102:118 103:110 104:110 105:110 106:110 107:110 108:110 109:110 110:110 111:110 112:110 113:110 114:110 115:110 116:110 117:110 118:110 119:114 120:83 121:115 122:255 123:222 124:222 125:222 126:222 127:222 128:222 129:221 130:244 131:254 132:221 133:222 134:222 135:222 136:222 137:222 138:222 139:229 140:167 141:112 142:179 143:0 144:0 145:0 146:0 147:0 148:0 149:0 150:132 151:197 152:0 153:0 154:0 155:0 156:0 157:0 158:0 159:0 160:0 161:112 162:185 163:0 164:0 165:0 166:0 167:0 168:0 169:0 170:140 171:201 172:0 173:0 174:0 175:0 176:0 177:0 178:0 179:0 180:0 181:112 182:185 183:0 184:0 185:0 186:0 187:0 188:0 189:0 190:140 191:201 192:0 193:0 194:0 195:0 196:0 197:0 198:0 199:0 200:0 201:112 202:185 203:0 204:0 205:0 206:0 207:0 208:0 209:0 210:140 211:201 212:0 213:0 214:0 215:0 216:0 217:0 218:0 219:0 220:0 221:113 222:185 223:0 224:0 225:0 226:0 227:0 228:0 229:0 230:139 231:201 232:0 233:0 234:0 235:0 236:0 237:0 238:0 239:0 240:0 241:97 242:196 243:0 244:0 245:0 246:0 247:0 248:0 249:0 250:151 251:192 252:0 253:0 254:0 255:0 256:0 257:0 258:0 259:0 260:0 261:27 262:254 263:0 264:1 265:0 266:0 267:0 268:0 269:0 270:202 271:134 272:0 273:0 274:0 275:0 276:0 277:0 278:0 279:0 280:0 281:0 282:252 283:114 284:0 285:0 286:0 287:0 288:0 289:76 290:255 291:22 292:0 293:0 294:0 295:0 296:0 297:0 298:0 299:0 300:0 301:0 302:65 303:255 304:145 305:0 306:0 307:0 308:95 309:255 310:119 311:0 312:0 313:0 314:0 315:0 316:0 317:0 318:0 319:0 320:0 321:0 322:0 323:44 324:213 325:255 326:255 327:255 328:246 329:67 330:0 331:1 332:0 333:0 334:0 335:0 336:0 337:0 338:0 339:0 340:0 341:0 342:0 343:0 344:4 345:11 346:29 347:10 348:7 349:0 350:0 351:0 352:0 353:0 354:0 355:0 356:0 357:0 358:0 359:0 360:0 361:0 362:0 363:0 364:0 365:0 366:0 367:0 368:0 369:0 370:0 371:0 372:0 373:0 374:0 375:0 376:0 377:0 378:0 379:0 380:0 381:0 382:0 383:0 384:0 385:0 386:0 387:0 388:0 389:0 390:0 391:0 392:0 393:0 394:0 395:0 396:0 397:0 398:0 399:0 400:0 
-1.230746222067543 0.1358325303745157 0.4183335207914598 0.3540421286721532 0.6654670097347264 2.311617447491306 1.779349006042279 1.260394051686876 1.109903398596136 2.346601339504519 0.4209542244340173 0.8185689130382247 0.3572450068016416 2.25193972361643 0.9698109967769569 0.9055365829517185 0.6413137658687722 0.6169697709130615 1.412275501599456 1.235965530590398 1.339532153062577 1.631064024447984 1.921749640043965 0.6727747613875691 0.3344500675661283 1:0 2:0 3:0 4:0 5:0 6:0 7:0 8:0 9:0 10:0 11:0 12:0 13:0 14:0 15:0 16:0 17:0 18:0 19:0 20:0 21:0 22:0 23:0 24:0 25:0 26:0 27:5 28:3 29:0 30:0 31:0 32:0 33:0 34:0 35:0 36:0 37:0 38:0 39:0 40:0 41:0 42:0 43:0 44:0 45:7 46:138 47:238 48:2 49:0 50:0 51:0 52:0 53:0 54:0 55:0 56:0 57:0 58:0 59:0 60:0 61:0 62:0 63:0 64:0 65:198 66:255 67:81 68:0 69:0 70:0 71:0 72:0 73:0 74:0 75:0 76:0 77:0 78:0 79:1 80:0 81:0 82:0 83:0 84:141 85:223 86:49 87:0 88:0 89:0 90:0 91:0 92:0 93:0 94:0 95:0 96:0 97:0 98:0 99:11 100:66 101:0 102:1 103:2 104:255 105:0 106:0 107:0 108:0 109:0 110:0 111:0 112:0 113:0 114:0 115:0 116:0 117:54 118:158 119:232 120:255 121:0 122:0 123:118 124:168 125:0 126:0 127:0 128:0 129:0 130:0 131:0 132:4 133:23 134:57 135:175 136:255 137:255 138:255 139:237 140:177 141:0 142:0 143:236 144:97 145:0 146:0 147:0 148:0 149:28 150:86 151:161 152:195 153:239 154:255 155:255 156:255 157:198 158:86 159:20 160:0 161:0 162:4 163:255 164:149 165:146 166:189 167:240 168:255 169:255 170:255 171:255 172:255 173:231 174:197 175:99 176:0 177:0 178:0 179:0 180:0 181:0 182:36 183:255 184:255 185:255 186:255 187:255 188:255 189:255 190:214 191:125 192:66 193:13 194:96 195:63 196:0 197:0 198:0 199:0 200:0 201:0 202:58 203:255 204:220 205:183 206:138 207:82 208:36 209:0 210:0 211:0 212:0 213:30 214:255 215:43 216:0 217:0 218:0 219:0 220:0 221:0 222:61 223:255 224:80 225:0 226:0 227:0 228:0 229:0 230:0 231:0 232:0 233:65 234:255 235:7 236:0 237:0 238:0 239:0 240:0 241:0 242:61 243:255 244:84 245:0 246:0 247:0 248:0 249:0 250:0 251:0 252:0 253:85 254:252 255:0 256:0 257:0 258:0 259:0 260:0 261:0 262:62 263:255 264:99 265:0 266:0 267:0 268:0 269:0 270:0 271:0 272:0 273:151 274:137 275:0 276:0 277:0 278:0 279:0 280:0 281:0 282:49 283:255 284:151 285:0 286:0 287:0 288:0 289:0 290:0 291:0 292:0 293:255 294:20 295:1 296:0 297:0 298:0 299:0 300:0 301:0 302:26 303:255 304:232 305:0 306:0 307:0 308:0 309:0 310:0 311:0 312:113 313:178 314:0 315:0 316:0 317:0 318:0 319:0 320:0 321:0 322:0 323:255 324:255 325:78 326:0 327:0 328:0 329:0 330:0 331:92 332:255 333:0 334:0 335:0 336:0 337:0 338:0 339:0 340:0 341:0 342:0 343:169 344:255 345:244 346:53 347:0 348:0 349:0 350:140 351:255 352:51 353:0 354:0 355:0 356:0 357:0 358:0 359:0 360:0 361:0 362:0 363:33 364:255 365:255 366:255 367:217 368:210 369:255 370:255 371:69 372:0 373:0 374:0 375:0 376:0 377:0 378:0 379:0 380:0 381:0 382:0 383:0 384:122 385:255 386:255 387:255 388:255 389:234 390:41 391:0 392:0 393:0 394:0 395:0 396:0 397:0 398:0 399:0 400:0 
